65 25
723 -0.199475 0.132986 -0.123851 -0.063967 0.074854 0.000241 0.229992 -0.096052 0.010891 -0.099048 0.078141 0.060868 -0.009787 0.013912 0.089958 -0.034186 0.083102 -0.000987 0.014457 0.011276 0.036857 0.053015 -0.105752 0.050463 0.012049
702 -0.207563 0.050158 -0.183124 -0.098258 0.163858 0.057045 0.267691 -0.065661 -0.042593 -0.069290 0.108535 0.097185 0.002366 0.046693 0.085552 -0.012684 0.086450 -0.051527 0.018019 -0.063770 -0.045933 0.030000 -0.161257 0.071642 0.004698
719 -0.211907 0.039105 -0.137846 -0.033779 0.189568 0.077030 0.263236 -0.093648 -0.011198 -0.076518 0.075698 0.046418 0.097753 0.093577 0.105142 -0.070458 0.106452 -0.047516 0.039622 -0.067857 -0.029645 -0.022954 -0.122843 0.093605 0.045276
633 -0.194160 0.042234 -0.164524 -0.096085 0.128364 0.041584 0.244795 -0.102566 -0.071059 -0.024301 0.090903 0.013437 0.023319 0.059161 0.068300 0.005022 0.090405 -0.053340 0.051361 -0.070033 -0.061364 0.002499 -0.167455 0.046613 -0.025053
656 -0.224304 0.105332 -0.139949 -0.103883 0.143874 -0.003278 0.201766 -0.075249 -0.001503 0.033643 0.060874 0.065822 0.014022 0.046192 0.075818 -0.018472 0.069851 0.023459 0.081318 -0.005303 0.030609 0.070496 -0.152866 0.075233 0.020534
657 -0.200159 0.037693 -0.137401 -0.079346 0.149394 0.053691 0.252878 -0.062207 -0.021654 -0.058893 0.061469 -0.001252 0.059964 0.059329 0.127695 -0.041526 0.094724 -0.032770 0.064880 -0.087140 -0.039540 0.004735 -0.130965 0.099181 0.047293
681 -0.181808 0.079573 -0.135398 -0.052647 0.112296 0.058874 0.222981 -0.077973 -0.030408 -0.062255 0.054930 -0.004985 0.077721 0.066999 0.088981 -0.081369 0.055520 -0.037224 0.021718 -0.063435 -0.011160 -0.009168 -0.133910 0.050658 0.074507
660 -0.210642 0.097945 -0.146169 -0.057848 0.142045 0.010216 0.239857 -0.078453 0.002957 -0.007135 0.064523 0.066929 0.035401 0.049351 0.078664 -0.027008 0.082742 0.005495 0.057514 -0.052638 -0.022478 0.021534 -0.158174 0.083960 0.005277
132 -0.231574 0.069457 -0.155715 -0.045673 0.144782 -0.004085 0.228734 -0.126110 -0.037319 0.000590 0.075956 -0.015216 0.042764 0.049682 0.078569 -0.066121 0.116866 -0.007422 0.117931 -0.001390 0.000969 0.041662 -0.122038 0.096575 -0.038225
659 -0.201026 0.078159 -0.156706 -0.032711 0.107039 0.044494 0.259326 -0.118089 0.001155 -0.064328 0.083204 0.017078 0.053871 0.016669 0.085694 -0.098049 0.043264 -0.070630 0.039729 -0.060514 -0.028205 0.028344 -0.109215 0.041396 0.041712
577 -0.151351 0.003491 -0.141584 -0.118359 0.097158 0.054181 0.216735 -0.022411 -0.030172 -0.038096 0.048153 -0.056897 0.021970 0.024014 0.106125 -0.042515 0.070881 -0.046703 0.056635 -0.129218 -0.088168 0.054001 -0.145981 0.096405 0.022836
644 -0.198271 0.097735 -0.162283 -0.091311 0.080829 -0.004275 0.237184 -0.095499 -0.019074 -0.060630 0.049363 -0.026387 0.034954 0.050726 0.079235 -0.036674 0.070158 -0.044293 0.023275 -0.082617 -0.012987 0.072294 -0.152256 0.066382 0.045376
725 -0.189026 0.062543 -0.134170 -0.134388 0.053978 -0.005391 0.241925 -0.069005 -0.020813 -0.049161 0.026980 0.001141 0.028901 0.006137 0.062509 -0.050773 0.072773 -0.066230 0.053635 -0.134470 -0.024004 0.055404 -0.158418 0.072781 -0.003921
710 -0.214502 0.098882 -0.145524 -0.074946 0.108174 -0.030215 0.239069 -0.127611 0.013142 -0.001168 0.036466 0.108496 0.005545 0.021077 0.056222 -0.101643 0.056814 -0.043657 0.105166 -0.049503 0.024922 0.023201 -0.164125 0.097686 -0.033534
707 -0.218934 0.050290 -0.174197 -0.112111 0.124370 0.040259 0.279299 -0.084869 -0.049683 -0.087975 0.073371 -0.025748 0.043202 0.059904 0.130518 -0.116450 0.117772 -0.064573 0.080569 -0.100984 -0.063252 0.021133 -0.183248 0.126295 -0.031072
572 -0.181876 0.059724 -0.182356 -0.040939 0.165526 0.105490 0.250975 -0.079981 -0.016599 -0.117629 0.092109 -0.059420 0.073317 0.095869 0.134647 -0.086299 0.093935 -0.020047 0.005020 -0.058684 -0.100387 0.051150 -0.149337 0.086298 0.050197
506 -0.184997 -0.016207 -0.146501 -0.095066 0.170829 0.033513 0.211599 -0.083412 -0.041705 -0.013181 0.062273 -0.055322 0.012543 0.045182 0.090925 -0.096554 0.094573 -0.076237 0.117263 -0.093038 -0.077648 0.047934 -0.154696 0.121003 -0.028274
722 -0.182948 0.056486 -0.158750 -0.066262 0.143177 0.030490 0.240803 -0.055950 0.007383 -0.013034 0.074611 0.007866 0.015351 0.021692 0.107647 -0.049019 0.093414 0.006602 0.087230 -0.094644 -0.081090 0.032168 -0.189953 0.098198 -0.018113
686 -0.184804 0.086817 -0.177722 -0.092277 0.053971 0.026375 0.253471 -0.108404 -0.027882 -0.078622 0.053378 -0.064546 0.047304 0.009575 0.104147 -0.078906 0.074981 -0.074734 0.026117 -0.063082 -0.025764 0.086528 -0.138460 0.021725 0.033397
351 -0.177755 0.018155 -0.143137 -0.071888 0.109749 0.024767 0.199036 -0.065960 -0.052437 -0.011381 0.044874 0.028743 0.028982 0.058609 0.056343 -0.041457 0.076429 -0.037175 0.055230 -0.071071 -0.048405 -0.007215 -0.139886 0.086755 -0.020170
634 -0.154194 0.093701 -0.105272 -0.022346 0.119182 0.053813 0.251378 -0.091043 0.020301 -0.092835 0.075384 0.037731 0.059175 0.039874 0.085307 -0.055094 0.070552 -0.027219 0.030051 -0.059988 -0.069914 -0.016652 -0.141037 0.059671 0.017755
726 -0.230464 0.176159 -0.142475 -0.040723 0.128975 0.004235 0.253538 -0.155477 0.003279 -0.036590 0.091252 0.050595 0.043933 0.025511 0.070024 -0.116150 0.022402 -0.013174 0.064623 0.021415 0.014799 0.009846 -0.144624 0.021443 0.008473
727 -0.190183 0.081709 -0.124375 -0.041725 0.162053 0.045860 0.210734 -0.095896 -0.023374 -0.028325 0.093795 -0.042413 0.019410 0.069370 0.108573 -0.019925 0.096644 0.014205 0.059394 0.027673 0.008181 0.011965 -0.112029 0.052014 0.047078
624 -0.192465 0.073057 -0.140577 -0.031002 0.161447 0.029796 0.215457 -0.078349 0.017841 -0.042759 0.060314 0.013544 0.056051 0.071480 0.076164 -0.065991 0.088378 0.021573 0.069522 -0.086902 -0.082558 0.017184 -0.192587 0.111816 0.009351
600 -0.196963 0.065593 -0.119165 -0.077874 0.127036 0.009774 0.213021 -0.066357 -0.026551 -0.026473 0.027585 0.053533 0.048710 0.069903 0.062353 -0.039568 0.106239 -0.027804 0.047603 -0.070415 0.003684 -0.030691 -0.143460 0.099170 0.014762
599 -0.186829 0.016591 -0.104177 -0.106421 0.139233 0.050691 0.264620 -0.070154 -0.054423 -0.071639 0.052404 -0.003210 0.075089 0.105847 0.096106 -0.048973 0.126412 -0.098999 0.032210 -0.120643 -0.018672 -0.006746 -0.105798 0.106826 0.017747
553 -0.182396 0.020958 -0.132863 -0.021865 0.219219 0.084863 0.207263 -0.101353 -0.022725 -0.004900 0.091142 -0.017994 0.075458 0.099897 0.083807 -0.057629 0.091976 0.002006 0.085878 -0.030167 -0.077552 -0.021873 -0.139250 0.076697 0.017867
407 -0.238441 0.089074 -0.171091 -0.034844 0.106337 0.026113 0.276627 -0.125059 -0.034894 -0.066168 0.070140 -0.003320 0.069542 0.034121 0.072151 -0.125116 0.081464 -0.085927 0.041855 -0.055149 -0.003321 0.029908 -0.124314 0.083029 0.025204
721 -0.236585 0.112466 -0.151281 -0.052745 0.139577 0.022528 0.274268 -0.140823 -0.005760 -0.024693 0.087825 0.092373 0.068887 0.020366 0.068371 -0.095699 0.014922 -0.048005 0.099959 -0.032128 -0.016184 0.023036 -0.162366 0.041751 0.002017
483 -0.201655 0.028112 -0.128092 -0.054105 0.216210 0.067092 0.242682 -0.086036 -0.015729 -0.057491 0.079334 -0.021276 0.065400 0.085316 0.106687 -0.077457 0.099013 -0.027889 0.084162 -0.030375 -0.059077 -0.008714 -0.126452 0.098947 0.023962
714 -0.218884 0.020444 -0.157635 -0.062749 0.134914 0.033510 0.239875 -0.109587 -0.054635 -0.019094 0.041973 -0.023812 0.058073 0.055995 0.107233 -0.060046 0.088028 -0.083341 0.093627 -0.085024 -0.077627 0.053247 -0.143423 0.102803 0.003107
460 -0.199487 0.078895 -0.164075 -0.080244 0.101051 -0.002193 0.257880 -0.117505 -0.046859 -0.069576 0.064465 -0.023809 0.009940 0.014324 0.068765 -0.091405 0.090904 -0.091828 0.048752 -0.064427 -0.008480 0.038792 -0.130264 0.071978 -0.005506
691 -0.212879 0.035874 -0.150583 -0.123493 0.111287 0.019863 0.260902 -0.102465 -0.026464 -0.028453 0.052085 0.001512 0.019479 0.027299 0.052965 -0.090514 0.071740 -0.096022 0.038629 -0.082221 -0.011078 0.035954 -0.125137 0.048299 -0.039109
606 -0.197280 0.080947 -0.156260 -0.061251 0.149267 0.069193 0.285006 -0.098838 0.000313 -0.050000 0.062530 -0.031408 0.117953 0.068720 0.121747 -0.067135 0.095556 -0.031833 0.041796 -0.104423 -0.065903 -0.006123 -0.163590 0.070346 0.040380
669 -0.208744 0.080805 -0.156136 -0.067164 0.122634 0.043968 0.252661 -0.094774 -0.035245 -0.078272 0.074023 -0.032656 0.069975 0.047736 0.079709 -0.119713 0.088573 -0.064215 0.054502 -0.085152 -0.037135 0.049177 -0.127328 0.061628 0.014626
708 -0.198607 0.049659 -0.172242 -0.075405 0.141072 0.027915 0.257080 -0.080045 -0.011494 -0.052309 0.059059 0.014673 0.073106 -0.001459 0.103513 -0.117260 0.079432 -0.081892 0.090157 -0.087963 -0.047339 0.043101 -0.136579 0.080112 -0.006432
732 -0.216690 0.066036 -0.110660 -0.055063 0.142160 0.009706 0.224176 -0.076369 -0.005333 -0.034580 0.048624 0.033883 0.053396 0.037544 0.073829 -0.056794 0.099854 -0.016988 0.083793 -0.061427 -0.002922 0.015620 -0.118169 0.099750 0.006129
569 -0.204241 0.049726 -0.135548 -0.051796 0.151680 0.032136 0.238058 -0.092944 -0.008573 -0.030653 0.064466 0.064487 0.039223 0.034549 0.086504 -0.052786 0.094386 -0.047114 0.083461 -0.031822 -0.005247 -0.007488 -0.126235 0.075668 -0.010089
728 -0.209919 0.054022 -0.154241 -0.083240 0.137630 0.026313 0.257894 -0.139378 -0.035959 -0.002318 0.041897 0.004096 0.071783 0.064992 0.094662 -0.083803 0.088396 -0.080013 0.099945 -0.066222 -0.010716 0.019486 -0.150334 0.086012 0.040971
655 -0.224770 0.106010 -0.182740 -0.125535 0.108945 0.007462 0.294935 -0.164524 -0.031453 -0.036739 0.060635 0.006915 0.066712 0.024238 0.072058 -0.083519 0.038408 -0.069075 0.049571 -0.071252 -0.006877 0.049733 -0.205815 0.043919 0.007316
733 -0.226346 0.050042 -0.179157 -0.075313 0.148513 0.061867 0.253473 -0.061751 -0.009211 -0.048611 0.086072 -0.003537 0.051139 0.037841 0.100010 -0.056295 0.114632 -0.023290 0.065731 -0.097045 -0.069923 0.042228 -0.158102 0.115151 0.009062
735 -0.212168 0.061643 -0.155308 -0.086719 0.108841 0.015615 0.232653 -0.097008 -0.022398 0.006393 0.047505 0.047658 0.013114 0.004668 0.089082 -0.070089 0.074939 -0.036073 0.096534 -0.082622 -0.044968 0.002440 -0.179101 0.065198 -0.035617
552 -0.258531 0.096856 -0.156264 -0.075145 0.155188 0.012250 0.297847 -0.103857 -0.029173 -0.016311 0.085285 -0.003649 0.027525 0.039147 0.085561 -0.095085 0.094734 -0.034803 0.115483 -0.077585 -0.017023 0.030378 -0.171981 0.121121 0.007813
529 -0.240985 0.098749 -0.151702 -0.006773 0.176784 0.049499 0.285735 -0.145199 -0.014114 -0.047377 0.075425 0.018767 0.059380 0.046635 0.082456 -0.129140 0.083189 -0.037281 0.104641 -0.039727 -0.019888 0.009920 -0.154145 0.077937 0.040667
690 -0.172954 0.041563 -0.145585 -0.038307 0.173364 0.054854 0.196906 -0.093508 -0.040673 0.002052 0.048095 0.018840 0.055479 0.074928 0.085692 -0.064247 0.097235 -0.021357 0.102181 -0.035583 -0.053757 -0.026804 -0.151166 0.082788 -0.005249
280 -0.151626 0.039677 -0.138752 -0.045989 0.137293 0.015481 0.193819 -0.070423 0.007953 -0.023523 0.061453 0.009337 0.020806 0.025480 0.075554 -0.080610 0.081484 -0.004103 0.080429 -0.077108 -0.053021 0.032214 -0.127110 0.094005 -0.033780
482 -0.234515 0.094402 -0.169835 -0.045146 0.135177 0.041592 0.264924 -0.155537 -0.014253 -0.032761 0.057201 -0.016106 0.071210 0.033956 0.077662 -0.131618 0.071198 -0.062435 0.106771 -0.048644 -0.046348 0.025038 -0.182942 0.078184 -0.006269
720 -0.252327 0.090424 -0.167739 -0.064003 0.129617 -0.006829 0.269802 -0.097611 0.024096 -0.017759 0.053674 0.037798 0.046945 0.006420 0.083974 -0.102825 0.072257 -0.051666 0.099694 -0.068277 -0.026575 0.066683 -0.154085 0.109358 0.010045
731 -0.226017 0.061674 -0.169762 -0.052072 0.159646 0.007817 0.258543 -0.110155 -0.035535 0.028619 0.045873 -0.015415 0.038650 0.040198 0.074398 -0.061278 0.091339 -0.032498 0.127817 -0.069644 -0.032918 0.031951 -0.175531 0.079952 -0.007386
717 -0.192688 0.061929 -0.149794 -0.063350 0.110348 0.012308 0.233016 -0.107129 -0.019779 -0.019228 0.076423 -0.008917 0.056480 0.041886 0.063832 -0.112015 0.066934 -0.049315 0.111943 -0.063181 -0.037159 0.033089 -0.141202 0.085166 0.000194
576 -0.196696 0.070041 -0.152603 -0.078673 0.133851 0.033094 0.262455 -0.104866 -0.053945 -0.050909 0.073574 -0.023679 0.051710 0.037941 0.091255 -0.100287 0.081582 -0.077098 0.055850 -0.069917 -0.026201 0.010161 -0.155428 0.067197 0.029954
439 -0.249054 0.092815 -0.209954 -0.054084 0.181408 0.027036 0.279890 -0.144697 -0.029424 0.010876 0.074164 -0.011834 0.078714 0.053903 0.068262 -0.110984 0.057548 -0.072606 0.154673 -0.096034 -0.037385 0.030036 -0.189039 0.074258 0.012368
712 -0.231143 0.088469 -0.189851 -0.093071 0.131541 0.020060 0.291523 -0.150379 -0.016146 -0.041165 0.060404 -0.042147 0.054957 0.040266 0.059623 -0.107731 0.045392 -0.094246 0.090258 -0.096259 -0.044558 0.011051 -0.152043 0.070021 -0.020323
713 -0.263617 0.098900 -0.157530 -0.077692 0.166677 0.027613 0.281193 -0.106177 -0.030257 -0.027660 0.074106 -0.029345 0.040119 0.064121 0.108772 -0.103335 0.100345 -0.047668 0.117058 -0.062303 -0.031972 0.039914 -0.161066 0.125238 0.024262
729 -0.210236 0.067081 -0.117805 -0.034774 0.125094 0.036016 0.208701 -0.069422 -0.017098 -0.026978 0.074953 0.037609 0.039240 0.013905 0.070203 -0.094761 0.044634 -0.035863 0.084115 -0.041045 0.000072 0.017644 -0.117243 0.071398 0.012837
372 -0.196171 0.059428 -0.145795 -0.079108 0.104554 0.015217 0.230792 -0.097580 -0.034229 -0.028702 0.056666 0.005316 0.017614 0.018747 0.078190 -0.055835 0.094821 -0.060130 0.071393 -0.042484 0.003371 0.027880 -0.120434 0.080338 -0.017664
393 -0.199860 0.073663 -0.159779 -0.079864 0.108853 0.013983 0.250710 -0.120771 -0.021528 -0.039341 0.075343 0.018072 0.037188 0.017352 0.063374 -0.078515 0.082053 -0.079734 0.068166 -0.080190 -0.042520 0.045075 -0.165008 0.064808 -0.006837
716 -0.270402 0.069587 -0.172471 -0.102594 0.138985 -0.008028 0.282221 -0.126238 -0.036719 -0.022002 0.061549 0.025711 0.030294 0.045988 0.097044 -0.088996 0.074053 -0.084643 0.107109 -0.080664 0.015732 0.012082 -0.158209 0.083423 0.005859
734 -0.239536 0.108170 -0.183629 -0.095310 0.103399 0.006292 0.284714 -0.139345 -0.031843 -0.001379 0.057726 0.055419 0.046866 0.021113 0.049245 -0.074218 0.039716 -0.084507 0.096663 -0.078797 -0.016841 0.030540 -0.180720 0.072138 0.003594
730 -0.216896 0.071937 -0.132931 -0.046423 0.163977 0.049641 0.264743 -0.103013 -0.025040 -0.053227 0.059557 0.006552 0.040686 0.049093 0.111327 -0.085706 0.104038 -0.039500 0.073631 -0.067856 -0.015245 0.018158 -0.145747 0.084950 0.044039
505 -0.224951 0.051084 -0.152884 -0.084514 0.097196 0.004845 0.268431 -0.130581 -0.031268 -0.013749 0.040847 0.005624 0.042160 0.020487 0.081273 -0.097274 0.070540 -0.084088 0.097824 -0.096026 -0.023711 0.044237 -0.136602 0.078831 -0.013888
718 -0.195013 0.077436 -0.139781 -0.068728 0.100732 0.000536 0.226558 -0.131429 -0.026331 -0.027802 0.070574 -0.003931 0.045442 0.027978 0.077049 -0.101602 0.043084 -0.067402 0.088763 -0.072919 -0.008819 0.001294 -0.142359 0.045617 -0.006470
736 -0.093396 0.038672 -0.049172 -0.018439 0.045771 -0.002694 0.103826 -0.031474 -0.004391 0.005102 0.004317 0.017610 0.012533 0.003533 0.018368 -0.053192 0.038066 -0.023213 0.034203 -0.024287 -0.019082 -0.002624 -0.074655 0.019716 -0.003868
724 -0.110954 0.026061 -0.083426 -0.032658 0.075888 0.011779 0.152835 -0.084065 0.004148 -0.011215 0.021267 -0.001159 0.028070 0.002465 0.066591 -0.042801 0.035887 -0.024349 0.044830 -0.053857 -0.002861 0.034588 -0.090462 0.060120 0.023516
715 -0.092092 0.043021 -0.050440 -0.023113 0.053558 0.002157 0.081636 -0.043556 -0.029740 -0.011693 0.035053 0.005166 0.028743 0.027226 0.016341 -0.034033 0.025069 -0.022666 0.001008 -0.022264 -0.006646 0.011282 -0.060497 0.046812 0.007238
