65 15
723 -0.115569 0.127311 0.066817 -0.058554 0.027509 -0.150361 -0.045546 -0.050194 0.139393 -0.003816 -0.088962 0.023989 -0.018588 0.054112 -0.249434
702 -0.208888 0.188876 -0.054603 -0.115199 -0.068322 -0.127066 -0.089689 -0.064129 0.184109 0.060655 -0.017522 0.076787 0.009794 -0.008290 -0.242758
719 -0.216467 0.188486 -0.044715 -0.077010 -0.023393 -0.188626 -0.068643 -0.078738 0.062813 0.076670 -0.064283 0.086706 0.038065 -0.001481 -0.236439
633 -0.118359 0.181425 0.040426 -0.059675 -0.055793 -0.186488 -0.060964 -0.056478 0.168635 -0.088099 -0.016056 0.085958 0.021770 -0.002649 -0.212512
656 -0.150429 0.159778 0.017918 -0.117374 -0.053180 -0.187758 -0.099604 -0.090938 0.165390 -0.008548 -0.059210 -0.018848 -0.021933 0.049450 -0.186174
657 -0.199850 0.248682 -0.059334 -0.065695 -0.091139 -0.142915 -0.082354 -0.101919 0.081986 -0.012895 -0.052841 0.056905 0.005110 -0.006974 -0.201415
681 -0.133450 0.173761 -0.056679 -0.050571 -0.027823 -0.170643 -0.114365 -0.105578 0.045284 0.048419 -0.068387 0.050603 0.047191 0.039600 -0.219251
660 -0.178519 0.218897 0.014695 -0.049962 -0.091361 -0.110386 -0.062859 -0.085384 0.130554 -0.011168 -0.025172 0.043386 0.005800 0.024523 -0.175920
132 -0.129497 0.147489 0.082538 -0.086678 -0.055746 -0.141389 -0.051266 -0.081669 0.253323 0.033569 -0.065163 0.021395 -0.061390 0.081966 -0.231609
659 -0.129852 0.233064 -0.070658 -0.059069 -0.112235 -0.079026 -0.084669 -0.107802 0.090697 0.100705 -0.087868 0.125282 0.022576 0.029806 -0.146869
577 -0.210664 0.211700 0.030244 -0.076995 -0.192367 -0.117850 -0.081055 -0.063722 0.170471 0.016549 -0.044428 0.040375 0.018549 -0.022501 -0.104264
644 -0.152985 0.215526 0.023251 -0.054911 -0.155239 -0.129273 -0.087797 -0.102683 0.106367 0.056523 -0.039246 0.067534 0.004960 0.009908 -0.133004
725 -0.193521 0.166494 0.031811 -0.103371 -0.100945 -0.086725 -0.082364 -0.100949 0.199064 0.100723 -0.028468 0.032880 -0.017737 0.011760 -0.127574
710 -0.178324 0.155593 -0.038809 -0.118565 -0.012498 -0.128615 -0.077459 -0.081514 0.117541 0.162993 -0.073212 0.103656 -0.011125 0.041406 -0.185974
707 -0.201234 0.182646 0.020201 -0.074307 -0.049035 -0.189674 -0.086094 -0.085662 0.155449 0.065495 -0.042734 0.099658 0.053732 0.026698 -0.258105
572 -0.196135 0.245618 -0.121503 -0.046667 -0.105303 -0.189600 -0.064082 -0.086388 0.043025 0.024982 -0.040073 0.085595 0.089412 -0.049326 -0.200026
506 -0.259729 0.205105 -0.002948 -0.110480 -0.161244 -0.104871 -0.065825 -0.095682 0.177500 0.082488 -0.010587 0.042865 0.005966 -0.008522 -0.079782
722 -0.196758 0.223550 0.007463 -0.106249 -0.085630 -0.058845 -0.071879 -0.055024 0.194753 0.118041 0.011897 0.078678 0.028577 -0.034119 -0.180185
686 -0.166048 0.205742 0.064488 -0.036911 -0.117131 -0.110501 -0.073047 -0.098241 0.165925 0.058729 -0.030356 0.031258 0.036280 0.011512 -0.148826
351 -0.165500 0.139006 0.003325 -0.062572 -0.064048 -0.105368 -0.052888 -0.060257 0.176869 0.041046 -0.006164 0.092411 0.023072 -0.015212 -0.163247
634 -0.201814 0.161790 -0.066881 -0.104974 -0.060890 -0.051334 -0.033826 -0.051880 0.167558 0.026237 0.035984 0.098599 0.071706 -0.052613 -0.124336
726 -0.186808 0.169178 0.031737 -0.117066 -0.107286 -0.132238 -0.057840 -0.102842 0.255539 0.095035 -0.050677 0.028007 0.042070 0.079737 -0.147521
727 -0.130454 0.182591 -0.005563 -0.055708 -0.085200 -0.123376 -0.079300 -0.081429 0.096485 0.000246 -0.022520 0.054657 0.014706 -0.028207 -0.192357
624 -0.259772 0.172894 -0.048699 -0.143777 -0.130447 -0.118634 -0.048270 -0.083357 0.196580 0.083025 0.004424 0.029301 -0.016884 -0.001817 -0.155572
600 -0.200540 0.193691 -0.060690 -0.131694 -0.044277 -0.121951 -0.085737 -0.100123 0.072667 0.049738 -0.026702 0.108494 -0.045909 -0.003137 -0.209939
599 -0.141981 0.220888 -0.004649 -0.018539 -0.056881 -0.158362 -0.104304 -0.112058 0.028944 0.082212 -0.042995 0.084460 0.031743 0.034249 -0.199246
553 -0.166905 0.169653 -0.013212 -0.104891 -0.170491 -0.220665 -0.043940 -0.097020 0.157070 -0.084519 -0.058024 0.027281 0.033926 0.024339 -0.057007
407 -0.176250 0.245839 0.011832 -0.021048 -0.060347 -0.147409 -0.090000 -0.078938 0.096051 0.163018 -0.074077 0.062876 0.048835 0.035637 -0.215037
721 -0.179366 0.193471 -0.084930 -0.134961 -0.099569 -0.164290 -0.036614 -0.124844 0.245869 0.053954 -0.050883 0.062633 0.054132 0.089507 -0.120335
483 -0.179740 0.222587 -0.048491 -0.092342 -0.202369 -0.089881 -0.089189 -0.125504 0.175975 0.004484 -0.045881 0.073246 0.004249 -0.008940 -0.107690
714 -0.182092 0.199884 -0.012625 -0.082589 -0.173138 -0.126497 -0.085575 -0.128755 0.186853 0.086453 -0.040262 0.087059 0.030488 -0.028169 -0.186873
460 -0.130353 0.148912 -0.019902 -0.058891 -0.066942 -0.180104 -0.087602 -0.093357 0.096948 0.133088 -0.072169 0.079573 0.024938 0.069146 -0.193221
691 -0.117372 0.155073 0.015979 -0.113838 -0.013507 -0.176788 -0.070200 -0.088871 0.177890 0.092528 -0.085559 0.051967 0.017613 0.064030 -0.217413
606 -0.172761 0.244123 -0.040918 -0.108686 -0.133004 -0.134643 -0.109226 -0.083744 0.184849 -0.041361 -0.055235 0.059070 0.002883 0.023476 -0.159073
669 -0.164243 0.221732 0.061307 -0.085060 -0.107669 -0.200968 -0.082092 -0.138775 0.159408 0.079353 -0.099176 0.074716 -0.029255 0.076529 -0.161597
708 -0.176256 0.196518 0.014991 -0.110236 -0.137002 -0.120149 -0.065133 -0.115948 0.242772 0.128266 -0.016516 0.055373 0.024181 0.015445 -0.162872
732 -0.172210 0.184471 0.031513 -0.070021 -0.074446 -0.108525 -0.084423 -0.066100 0.181443 0.101511 -0.018926 0.054451 0.009945 0.061257 -0.160702
569 -0.172090 0.214438 -0.070464 -0.082163 -0.086356 -0.055157 -0.067435 -0.083349 0.180120 -0.011710 -0.002325 0.148458 -0.008319 -0.038828 -0.236866
728 -0.156798 0.244737 -0.039103 -0.087548 -0.151811 -0.123301 -0.110192 -0.165123 0.120243 0.049259 -0.084613 0.085114 0.005822 0.005383 -0.163723
655 -0.131337 0.169684 0.030583 -0.079419 -0.031064 -0.219754 -0.081919 -0.142771 0.132254 0.075997 -0.077087 0.033868 0.028003 0.060696 -0.195715
733 -0.146395 0.213108 -0.026807 -0.092525 -0.074579 -0.126386 -0.074745 -0.098146 0.125636 0.002119 -0.014251 0.091796 0.011001 0.006760 -0.185675
735 -0.149401 0.177174 -0.007143 -0.100210 -0.153860 -0.084279 -0.047546 -0.105727 0.193605 0.043047 -0.049272 0.099010 -0.020662 0.040004 -0.113327
552 -0.198020 0.269013 0.007743 -0.081987 -0.155021 -0.170796 -0.066730 -0.159018 0.197980 0.124146 -0.074715 0.059197 0.035305 0.037495 -0.137581
529 -0.219138 0.212266 -0.016821 -0.098952 -0.139771 -0.108748 -0.033001 -0.123358 0.203619 0.058038 -0.043965 0.130130 -0.003895 -0.004308 -0.142405
690 -0.157456 0.205061 -0.029018 -0.086853 -0.142227 -0.115102 -0.078829 -0.101778 0.179288 0.073100 -0.060644 0.113870 0.014226 0.032519 -0.109857
280 -0.178425 0.164601 -0.045710 -0.123885 -0.148270 -0.153040 -0.047442 -0.065265 0.188806 0.084823 -0.055771 0.091324 0.012369 0.043204 -0.103554
482 -0.174639 0.161843 -0.007098 -0.094315 -0.168996 -0.127550 -0.057229 -0.095952 0.223386 0.053282 -0.048934 0.119782 0.019389 0.003556 -0.146994
720 -0.235727 0.233077 -0.055051 -0.119284 -0.198860 -0.118286 -0.069860 -0.085613 0.254145 0.116900 -0.054531 0.084291 0.032891 0.033500 -0.145763
731 -0.232822 0.224629 -0.023168 -0.111373 -0.137921 -0.141920 -0.065611 -0.097062 0.216859 0.131781 -0.050885 0.080212 -0.020367 0.025666 -0.215819
717 -0.173293 0.219039 0.022383 -0.087134 -0.133201 -0.102202 -0.085236 -0.084599 0.217758 0.047539 -0.013722 0.067214 0.023199 -0.015840 -0.154663
576 -0.185247 0.203637 -0.050749 -0.065042 -0.104341 -0.140471 -0.115841 -0.133528 0.116181 0.003262 -0.063109 0.044454 0.034413 0.021278 -0.199988
439 -0.163479 0.236284 -0.023142 -0.062679 -0.174725 -0.123388 -0.120807 -0.112627 0.138587 0.151943 -0.043319 0.074513 0.050251 0.026075 -0.170362
712 -0.188616 0.208089 0.026962 -0.101040 -0.155200 -0.164708 -0.059003 -0.147264 0.239903 0.082921 -0.041798 0.061062 0.005169 0.063839 -0.160241
713 -0.195158 0.235187 0.036506 -0.081525 -0.131570 -0.127255 -0.067197 -0.118812 0.182174 0.105653 -0.094627 0.101425 -0.036257 0.059538 -0.186906
729 -0.106705 0.168596 0.040379 -0.041649 -0.098655 -0.133240 -0.071435 -0.085761 0.182988 0.051432 -0.045222 0.054891 0.011407 0.070126 -0.141153
372 -0.164735 0.170685 0.006391 -0.054359 -0.067634 -0.060386 -0.069543 -0.053427 0.157368 0.129999 -0.068803 0.071596 -0.025814 0.030678 -0.213127
393 -0.167771 0.168785 -0.005054 -0.134415 -0.125839 -0.136781 -0.091204 -0.084173 0.168483 0.111572 -0.078515 0.054541 0.009937 0.042684 -0.170788
716 -0.198919 0.252723 -0.014562 -0.109902 -0.119622 -0.170783 -0.080329 -0.110235 0.151912 0.097641 -0.102157 0.058577 -0.011543 0.011018 -0.223078
734 -0.192861 0.180001 0.041723 -0.111269 -0.102490 -0.134421 -0.061041 -0.118614 0.229506 0.069082 -0.064139 0.018802 -0.021702 0.062785 -0.210909
730 -0.221942 0.241364 0.004713 -0.127363 -0.113136 -0.174597 -0.122837 -0.148620 0.191888 0.103444 -0.050241 0.102835 0.026547 0.027545 -0.216888
505 -0.162891 0.173333 -0.058571 -0.123336 -0.120338 -0.168984 -0.119670 -0.093029 0.160250 0.084329 -0.070745 0.084267 -0.006448 0.043878 -0.164718
718 -0.165389 0.171629 0.023400 -0.070192 -0.138124 -0.156279 -0.066865 -0.087196 0.136040 0.126247 -0.042690 0.062960 0.042547 0.045936 -0.178211
736 -0.075627 0.102995 0.037888 -0.020664 -0.058129 -0.049225 -0.031979 -0.010954 0.053726 0.026362 -0.036517 0.039365 -0.004236 -0.011787 -0.070561
724 -0.098019 0.103090 -0.020708 -0.037978 -0.047647 -0.074918 -0.041991 -0.083000 0.061990 0.046064 -0.011365 0.015218 0.003342 0.017622 -0.103277
715 -0.051391 0.102906 -0.034057 -0.049118 -0.044085 -0.045644 -0.021696 -0.035666 0.040186 0.025817 -0.025571 0.058251 0.019321 0.009867 -0.118821
