65 50
723 -0.064512 0.017441 -0.003762 -0.036784 0.005182 -0.045242 0.059198 -0.054268 -0.046947 -0.076627 0.029500 0.025487 -0.073485 0.068289 -0.032425 -0.049526 0.029096 -0.004831 0.088523 0.089532 -0.029275 0.063215 0.067378 0.001258 0.050737 -0.080330 -0.071004 -0.103044 -0.065204 0.059827 0.043304 -0.085286 0.008244 -0.098078 0.050525 0.011072 0.023836 -0.013345 0.054625 0.100421 0.014040 -0.019636 -0.018071 0.070959 -0.020155 0.033575 0.032392 0.081984 0.054651 -0.010093
702 -0.047906 0.017209 -0.043073 -0.039181 0.039768 -0.054832 0.068906 -0.053427 -0.039412 -0.076515 0.019384 0.009097 -0.051305 0.079100 -0.051967 -0.058638 0.052374 0.008758 0.139547 0.101427 -0.019613 0.099788 0.089515 -0.009677 0.058698 -0.118470 -0.073686 -0.103957 -0.081186 0.064913 0.098436 -0.073555 0.029430 -0.161080 0.031911 0.027716 0.047287 0.015528 0.097289 0.171627 0.002728 0.030596 -0.031163 0.036311 -0.029502 0.015498 0.040885 0.121017 0.061567 -0.039314
719 -0.064488 0.028100 -0.018615 -0.046055 0.033054 -0.049745 0.016222 -0.053884 -0.031391 -0.063031 0.018209 0.034311 -0.040831 0.083236 -0.072339 -0.071407 0.046858 0.002785 0.105788 0.079309 -0.036668 0.111266 0.101230 -0.025826 0.066223 -0.093836 -0.064666 -0.109598 -0.103369 0.074487 0.108011 -0.076320 0.038354 -0.164811 0.058389 0.011132 0.076937 0.008638 0.084113 0.188088 0.000610 0.014873 -0.016668 0.058463 -0.042480 0.002332 0.011807 0.098403 0.057155 -0.056510
633 -0.089976 0.046347 -0.016375 -0.018133 -0.004242 -0.008771 0.072274 -0.103553 -0.084126 -0.079389 0.015296 0.011830 -0.084216 0.072511 -0.033830 -0.063627 0.040245 0.008716 0.061191 0.122383 0.022381 0.082590 0.063935 -0.022197 0.043077 -0.084980 -0.051947 -0.132997 -0.091146 0.044520 0.032281 -0.082962 0.071912 -0.131474 0.033610 0.033599 0.050694 -0.012408 0.040255 0.128358 0.030305 0.014038 0.009500 0.047800 -0.022099 0.064025 0.022796 0.086383 0.096793 0.050159
656 -0.059781 0.012884 -0.003324 -0.024548 -0.000224 -0.067537 0.085067 -0.036199 -0.053108 -0.069158 0.018279 0.012870 -0.079496 0.082826 -0.031849 -0.041870 0.052462 0.001771 0.099959 0.098475 -0.037798 0.074042 0.062058 -0.010313 0.046193 -0.079100 -0.057334 -0.102620 -0.050277 0.058061 0.049598 -0.069340 -0.025424 -0.133578 0.032685 0.025727 -0.002407 0.012064 0.091877 0.119659 0.027686 -0.008381 -0.029444 0.077419 -0.033302 0.040950 0.050244 0.082335 0.022590 -0.005412
657 -0.084624 0.040826 -0.016637 -0.046405 0.041670 -0.043406 0.065114 -0.078838 -0.056257 -0.081658 0.016941 0.019180 -0.071724 0.060475 -0.051167 -0.057450 0.035505 0.001921 0.085996 0.095475 -0.008031 0.081910 0.082198 -0.001331 0.061225 -0.071455 -0.071362 -0.123321 -0.079422 0.056298 0.075680 -0.080968 0.040665 -0.133384 0.037562 0.023888 0.046167 0.006693 0.062938 0.148001 -0.000858 0.023391 -0.006378 0.058358 -0.048092 0.021052 0.034083 0.096096 0.083277 -0.018087
681 -0.061364 0.023615 0.000892 -0.030898 0.034055 -0.075478 0.062671 -0.019068 -0.019639 -0.031356 -0.003251 0.008667 -0.051936 0.089443 -0.053130 -0.049579 0.065756 0.025341 0.119150 0.059405 -0.039525 0.099005 0.061012 -0.011035 0.063811 -0.055611 -0.050673 -0.084667 -0.068338 0.053526 0.091478 -0.038979 -0.001300 -0.171349 0.024703 0.041319 0.033916 0.028039 0.103998 0.197058 0.006501 0.030425 -0.040029 0.035725 -0.074158 0.012610 0.027491 0.074607 0.037988 -0.020096
660 -0.060973 0.023907 -0.026626 -0.050342 0.031193 -0.049406 0.069129 -0.069664 -0.059198 -0.101144 0.036273 0.017003 -0.076878 0.045963 -0.029857 -0.030101 0.026498 -0.004489 0.087317 0.099937 -0.017304 0.071994 0.077013 0.002605 0.054915 -0.090726 -0.084101 -0.115496 -0.058885 0.063826 0.054159 -0.101662 0.030543 -0.119478 0.039328 0.012460 0.022620 -0.003136 0.071994 0.089080 0.016003 0.015657 -0.008560 0.080199 -0.029471 0.021682 0.067386 0.131994 0.070961 -0.032990
132 -0.080775 0.011242 -0.015287 -0.037105 0.035192 -0.076199 0.096233 -0.073846 -0.051858 -0.095779 0.010661 0.010727 -0.089023 0.061015 -0.025704 -0.042173 0.041560 0.007132 0.112091 0.091617 0.003848 0.077859 0.060913 0.020912 0.058742 -0.049957 -0.089621 -0.120839 -0.041237 0.053829 0.056175 -0.097733 0.018080 -0.114535 0.033007 0.043696 0.019479 0.000401 0.075094 0.129699 0.005143 0.027659 -0.022300 0.064727 -0.071469 0.032271 0.059579 0.116666 0.071593 0.016367
659 -0.075638 0.037603 -0.014526 -0.047667 0.052160 -0.067143 0.070582 -0.045491 -0.028720 -0.062650 0.011370 0.008531 -0.055560 0.062722 -0.047824 -0.045676 0.043579 0.014346 0.104524 0.064192 -0.005134 0.086546 0.067323 0.018879 0.063095 -0.045115 -0.069942 -0.098205 -0.063466 0.039974 0.080962 -0.063912 0.022579 -0.128944 0.021581 0.032055 0.036906 0.020742 0.072015 0.164531 -0.019429 0.036916 -0.027056 0.049544 -0.081714 0.010469 0.053353 0.095628 0.092177 -0.013565
577 -0.108947 0.029640 0.003349 -0.040108 0.055421 -0.070371 0.144372 -0.084468 -0.072484 -0.104687 0.001047 0.026184 -0.109117 0.031710 -0.026412 -0.038612 0.033220 -0.000186 0.096071 0.096482 0.011018 0.046299 0.048292 0.043794 0.066882 -0.028842 -0.087023 -0.128982 -0.023209 0.032394 0.058095 -0.084566 0.008978 -0.089021 0.041728 0.057617 0.014508 -0.001061 0.026532 0.143469 -0.012129 0.032522 -0.016415 0.046395 -0.059893 0.033899 0.074486 0.089661 0.106040 0.036920
644 -0.089998 0.042397 -0.026432 -0.041155 0.040530 -0.066038 0.096634 -0.077840 -0.069252 -0.093248 0.001187 0.012624 -0.082414 0.054720 -0.051961 -0.050960 0.033502 0.001941 0.088424 0.077741 0.022686 0.068055 0.054304 0.024805 0.061974 -0.045141 -0.084056 -0.128701 -0.061240 0.036943 0.049468 -0.080924 0.031778 -0.109794 0.033431 0.039946 0.042719 0.020690 0.041182 0.136121 0.002383 0.030845 -0.019827 0.063900 -0.069409 0.034121 0.062097 0.108837 0.090967 0.017310
725 -0.062671 0.029903 -0.037020 -0.030270 0.052739 -0.063445 0.136940 -0.071697 -0.055703 -0.075296 0.007880 -0.007266 -0.089214 0.060880 -0.021913 -0.044596 0.048057 0.025133 0.110338 0.105218 0.012487 0.050402 0.018708 0.023882 0.033012 -0.041803 -0.074721 -0.105770 -0.038892 0.023561 0.041356 -0.064045 0.025030 -0.131760 -0.007681 0.067312 0.002077 0.010127 0.073327 0.140241 -0.006873 0.046621 -0.026979 0.021949 -0.051847 0.050604 0.067569 0.114549 0.088216 0.037243
710 -0.029096 0.007713 -0.066256 -0.044702 0.059464 -0.063338 0.077025 -0.060789 -0.031903 -0.068645 0.055422 -0.004223 -0.065954 0.078735 -0.026557 -0.033444 0.044392 0.002230 0.119297 0.096386 -0.041282 0.079403 0.065641 0.008092 0.045298 -0.093812 -0.076447 -0.077890 -0.034830 0.078994 0.061939 -0.064626 0.043090 -0.142821 0.008224 0.045685 0.017734 -0.010132 0.082313 0.142864 -0.010024 0.038026 -0.019894 0.038176 -0.029143 0.013790 0.073686 0.132630 0.085468 -0.048445
707 -0.074026 0.041840 -0.026687 -0.044468 0.063257 -0.049250 0.091212 -0.085602 -0.040340 -0.071516 -0.000598 0.016643 -0.055987 0.048314 -0.048792 -0.050448 0.048736 0.025465 0.104227 0.078401 0.005346 0.067156 0.063636 0.016355 0.063438 -0.039440 -0.089487 -0.121099 -0.068947 0.034121 0.086542 -0.073710 0.071853 -0.140969 0.034234 0.042585 0.066824 0.006412 0.046677 0.183501 -0.013209 0.055288 -0.004424 0.026889 -0.095345 0.020003 0.039690 0.127794 0.130080 -0.003184
572 -0.074957 0.044871 -0.019980 -0.049902 0.066956 -0.051532 0.055448 -0.077486 -0.038785 -0.098696 -0.007940 0.040885 -0.049629 0.045359 -0.071881 -0.063809 0.038576 0.010864 0.091059 0.074637 -0.012063 0.083966 0.096657 -0.006798 0.074549 -0.047165 -0.089838 -0.133297 -0.089790 0.044784 0.124312 -0.087984 0.038021 -0.142604 0.056311 0.013289 0.071132 0.036031 0.072880 0.171179 -0.009958 0.039301 -0.001808 0.076874 -0.087789 -0.002390 0.027160 0.127459 0.093996 -0.048952
506 -0.103251 0.029059 0.005644 -0.037659 0.070375 -0.077020 0.138136 -0.077052 -0.060913 -0.116623 -0.022415 0.025214 -0.086674 -0.005837 -0.051784 -0.039740 0.025459 0.005481 0.108775 0.072454 0.028275 0.059577 0.060978 0.047450 0.065687 -0.009888 -0.089295 -0.132747 -0.018325 0.017427 0.091746 -0.084907 0.010835 -0.100526 0.050944 0.061398 0.027829 0.015472 0.021757 0.174862 -0.032493 0.056446 -0.003601 0.031578 -0.072356 0.011687 0.069794 0.109106 0.111068 0.022252
722 -0.058015 0.045312 -0.046811 -0.051031 0.051571 -0.011384 0.065628 -0.111769 -0.071698 -0.114026 0.040431 0.006990 -0.073529 0.015157 -0.042422 -0.025063 0.016532 -0.007318 0.066045 0.124281 0.004736 0.061314 0.079476 -0.006952 0.057415 -0.101923 -0.082235 -0.114793 -0.069568 0.056430 0.053994 -0.091508 0.085025 -0.107618 0.038402 0.014511 0.053054 -0.020017 0.016376 0.093786 0.003359 0.046919 0.019507 0.053727 -0.019064 0.026139 0.057580 0.129667 0.135902 -0.027452
686 -0.106432 0.040827 -0.009616 -0.040737 0.055434 -0.068656 0.121341 -0.080106 -0.050045 -0.102468 -0.027086 0.019542 -0.073550 0.046813 -0.050104 -0.054983 0.041056 0.018957 0.108596 0.077099 0.015955 0.063760 0.069883 0.032798 0.068739 -0.020875 -0.081378 -0.142412 -0.053374 0.025557 0.093305 -0.089278 0.022813 -0.118411 0.043084 0.045921 0.044342 0.026125 0.049091 0.167008 -0.022047 0.039468 -0.015635 0.056194 -0.086815 0.019826 0.036214 0.102857 0.096098 0.024170
351 -0.056340 0.023006 -0.020627 -0.016367 0.037867 -0.035773 0.041200 -0.054316 -0.036519 -0.048799 0.013449 0.005235 -0.042189 0.048269 -0.033537 -0.040599 0.036694 0.006919 0.075468 0.070457 -0.000166 0.071520 0.059341 0.001831 0.050529 -0.052349 -0.050491 -0.078097 -0.044992 0.039146 0.070279 -0.040962 0.045793 -0.116373 0.024806 0.037934 0.040514 0.000427 0.042775 0.152079 -0.005588 0.044581 -0.004611 0.021973 -0.049179 0.004003 0.029978 0.088253 0.085152 -0.015924
634 -0.043454 0.050272 -0.048750 -0.043418 0.055965 0.010321 0.027796 -0.098938 -0.049984 -0.095892 -0.001882 0.005926 -0.010504 -0.002532 -0.059816 -0.039883 0.015786 0.007298 0.052474 0.080530 0.028264 0.060066 0.095755 -0.010304 0.044937 -0.076770 -0.071076 -0.115087 -0.086042 0.026339 0.088549 -0.080017 0.105846 -0.108056 0.041527 -0.004433 0.093688 0.003248 0.021775 0.094882 -0.007234 0.050955 0.034444 0.030610 -0.045200 -0.004337 0.029608 0.132645 0.117538 -0.042722
726 -0.050922 0.021785 -0.042906 -0.048777 0.073595 -0.058669 0.107834 -0.070140 -0.033961 -0.097765 0.027543 -0.009823 -0.073074 0.045692 -0.023085 -0.011542 0.047777 0.014523 0.111006 0.100322 -0.026238 0.070296 0.078844 0.008473 0.056109 -0.059911 -0.083931 -0.123566 -0.031365 0.055377 0.076387 -0.088474 0.036038 -0.136619 0.012427 0.029351 0.007214 0.008119 0.081160 0.125185 -0.012149 0.056598 -0.010160 0.071613 -0.075090 0.021816 0.067750 0.145532 0.102466 -0.025501
727 -0.078265 0.020499 -0.013257 -0.048187 0.028407 -0.065230 0.076940 -0.046492 -0.053248 -0.103006 0.018347 0.022682 -0.076687 0.061630 -0.039828 -0.050280 0.026145 -0.009881 0.091399 0.082036 -0.006689 0.073974 0.085605 0.012679 0.044683 -0.061698 -0.070507 -0.126994 -0.057534 0.045471 0.071006 -0.097814 -0.005094 -0.100584 0.031353 0.018233 0.008162 0.023724 0.077979 0.089873 -0.007681 -0.011201 -0.018843 0.103347 -0.037551 0.020252 0.041904 0.106063 0.035039 -0.007621
624 -0.041521 0.026322 -0.036871 -0.054583 0.081420 -0.069445 0.093276 -0.070670 -0.041840 -0.085500 0.027912 0.005240 -0.081431 0.041352 -0.046889 -0.027369 0.035574 0.019822 0.131052 0.093035 -0.029931 0.074311 0.064735 0.017000 0.063422 -0.082687 -0.097594 -0.099624 -0.040457 0.074362 0.082884 -0.089280 0.052378 -0.167593 0.026779 0.047144 0.021277 -0.010182 0.081885 0.169202 -0.013747 0.070733 -0.017868 0.033900 -0.051378 0.008625 0.083191 0.158250 0.110059 -0.041314
600 -0.070857 0.024489 -0.014848 -0.030160 0.030844 -0.050360 0.056535 -0.031384 -0.052117 -0.062243 0.015058 0.015177 -0.040367 0.054191 -0.064843 -0.054979 0.051321 -0.010140 0.116241 0.080613 -0.017893 0.070381 0.084888 0.004059 0.049296 -0.097094 -0.054178 -0.082358 -0.056378 0.047585 0.097122 -0.060695 0.017176 -0.139814 0.053751 0.026258 0.052133 -0.006574 0.055350 0.170545 -0.015201 0.014454 -0.013624 0.030068 -0.015427 0.006443 0.033022 0.098892 0.062154 -0.040991
599 -0.064986 0.042582 -0.045285 -0.019178 0.038509 -0.046491 0.051278 -0.053355 -0.044988 -0.053042 0.000460 0.008790 -0.025680 0.080467 -0.054326 -0.071604 0.053548 0.018746 0.101802 0.069291 0.011167 0.089180 0.064209 -0.009325 0.049831 -0.058641 -0.068922 -0.098134 -0.094886 0.036339 0.083449 -0.052954 0.053099 -0.158431 0.009155 0.038992 0.062979 0.031075 0.085685 0.175229 -0.005708 0.038152 -0.014796 0.028538 -0.068924 0.012466 0.015874 0.102581 0.065366 -0.013106
553 -0.105110 0.022722 0.017701 -0.040685 0.045364 -0.050296 0.100442 -0.064077 -0.071152 -0.098163 0.026339 0.011092 -0.091116 0.022891 -0.041543 -0.023678 0.034297 -0.021306 0.081565 0.111274 -0.016430 0.083019 0.108911 0.004758 0.065221 -0.067198 -0.045904 -0.132009 -0.025247 0.056978 0.084901 -0.083200 0.017666 -0.127340 0.043634 0.046468 0.014367 -0.021862 0.032210 0.155545 -0.016127 0.034159 0.016391 0.056273 -0.016964 0.018099 0.062355 0.084617 0.096706 -0.008813
407 -0.082108 0.025196 -0.011256 -0.042575 0.060715 -0.085992 0.082884 -0.037738 -0.034988 -0.079801 0.005470 0.014005 -0.056965 0.061021 -0.049439 -0.049550 0.053248 0.012380 0.136568 0.068209 -0.007003 0.104228 0.071033 0.019050 0.075128 -0.050568 -0.096006 -0.110310 -0.052720 0.049424 0.088392 -0.066723 0.007514 -0.135093 0.026986 0.038505 0.037799 0.021305 0.088357 0.176170 -0.012882 0.037831 -0.038566 0.063467 -0.110390 0.015803 0.061785 0.125625 0.084191 -0.023895
721 -0.033309 0.019117 -0.066257 -0.040602 0.082233 -0.033562 0.070341 -0.080306 -0.041225 -0.101208 0.045453 -0.020231 -0.045180 0.048044 -0.035898 -0.016087 0.030780 0.011224 0.099268 0.125442 -0.029256 0.109889 0.106901 -0.022767 0.066915 -0.106111 -0.073380 -0.113219 -0.053870 0.078142 0.080008 -0.088400 0.071817 -0.159690 0.007001 0.018686 0.037402 -0.017913 0.086528 0.136276 -0.006916 0.058193 0.003250 0.054469 -0.048710 0.008783 0.054435 0.149473 0.116249 -0.062998
483 -0.062990 0.031491 -0.035032 -0.056381 0.071694 -0.055207 0.098199 -0.065380 -0.046039 -0.092776 0.030138 -0.000852 -0.073774 0.041169 -0.044229 -0.026774 0.029066 0.007744 0.112932 0.103475 -0.015166 0.075568 0.071653 0.017375 0.062665 -0.072514 -0.083465 -0.114604 -0.042386 0.052989 0.066938 -0.078649 0.040177 -0.132731 0.015758 0.039897 0.018501 -0.009615 0.056761 0.146707 -0.021479 0.041012 -0.011578 0.045803 -0.048922 0.012075 0.069362 0.133141 0.111384 -0.021265
714 -0.075791 0.029681 -0.038679 -0.060989 0.094945 -0.076959 0.127180 -0.089157 -0.057820 -0.106135 -0.007540 0.005368 -0.082641 0.034416 -0.049168 -0.065131 0.032943 0.012797 0.127469 0.076098 0.015339 0.062230 0.051714 0.047273 0.055342 -0.023982 -0.114112 -0.130786 -0.044385 0.032353 0.088242 -0.091310 0.046679 -0.125894 0.024605 0.075323 0.030044 0.011568 0.055788 0.182761 -0.045596 0.055085 -0.019497 0.038114 -0.091703 0.012907 0.081021 0.143738 0.132002 0.014144
460 -0.082654 0.033818 -0.019383 -0.039978 0.056115 -0.073908 0.072743 -0.057515 -0.032720 -0.071960 -0.022569 0.008065 -0.044721 0.051057 -0.054511 -0.055668 0.050408 0.024750 0.112390 0.052001 0.019775 0.086048 0.072014 0.012968 0.066669 -0.029783 -0.082053 -0.110892 -0.063937 0.029384 0.092087 -0.064776 0.028238 -0.120619 0.025541 0.037850 0.056285 0.032266 0.068731 0.171472 -0.018565 0.047520 -0.020336 0.044865 -0.116058 0.009778 0.030492 0.107355 0.081682 0.001215
691 -0.050889 0.031752 -0.031206 -0.044516 0.041898 -0.041778 0.076068 -0.066791 -0.047176 -0.071262 0.020623 -0.004435 -0.058328 0.054645 -0.041503 -0.030774 0.052492 0.016277 0.089331 0.102483 -0.010811 0.074246 0.084478 -0.004720 0.059634 -0.089705 -0.073348 -0.109068 -0.060386 0.053723 0.076584 -0.072652 0.049545 -0.143065 0.033410 0.025156 0.051944 0.000940 0.065407 0.141255 0.003606 0.043837 -0.009235 0.046095 -0.056428 0.013831 0.057794 0.123403 0.106657 -0.031383
606 -0.081655 0.039918 -0.022553 -0.045571 0.041084 -0.039734 0.058854 -0.072271 -0.050595 -0.069031 0.021210 0.015782 -0.062969 0.070252 -0.047159 -0.056674 0.048903 0.002698 0.087808 0.089027 -0.014171 0.098205 0.092574 -0.008089 0.058401 -0.081637 -0.059817 -0.125445 -0.082605 0.064690 0.084674 -0.077691 0.059072 -0.153902 0.038482 0.024006 0.064973 0.007628 0.067102 0.157547 0.007451 0.027285 -0.008439 0.064040 -0.056589 0.027268 0.038012 0.103679 0.092215 -0.023929
669 -0.110715 0.046964 -0.002236 -0.045837 0.054929 -0.074360 0.096287 -0.060270 -0.033408 -0.059997 -0.014476 0.008658 -0.065469 0.056396 -0.056592 -0.053130 0.049526 0.016219 0.114716 0.070059 -0.000255 0.088662 0.068622 0.024609 0.075515 -0.016338 -0.075967 -0.124180 -0.054142 0.033951 0.093117 -0.069751 0.036254 -0.153812 0.029782 0.061432 0.041420 0.010791 0.056471 0.209418 -0.020300 0.052648 -0.014579 0.040113 -0.105143 0.024656 0.044732 0.094532 0.107401 0.008830
708 -0.084508 0.026281 -0.031037 -0.042878 0.057195 -0.067101 0.093274 -0.069156 -0.038799 -0.091330 -0.007573 0.003996 -0.051719 0.036391 -0.054936 -0.037574 0.056407 0.011220 0.124318 0.084892 0.013955 0.080332 0.091936 0.018138 0.064316 -0.064041 -0.070430 -0.122545 -0.048918 0.047429 0.106733 -0.085115 0.037289 -0.142449 0.031404 0.040059 0.043063 0.024886 0.074710 0.166757 -0.024469 0.060659 -0.008125 0.049989 -0.080306 0.003874 0.054310 0.112138 0.075180 -0.016477
732 -0.065946 0.020115 -0.036507 -0.047229 0.064531 -0.056615 0.089970 -0.061658 -0.041897 -0.080623 0.022237 -0.002341 -0.072049 0.036645 -0.044724 -0.026659 0.025086 -0.010058 0.105016 0.078310 -0.013485 0.061202 0.086276 0.018109 0.055472 -0.062820 -0.075394 -0.103750 -0.036205 0.047347 0.067832 -0.083428 0.026108 -0.116390 0.032572 0.023519 0.035561 0.007294 0.059022 0.134997 -0.015116 0.040064 -0.012782 0.061191 -0.051699 0.016398 0.068642 0.126265 0.097565 -0.026584
569 -0.064049 0.026541 -0.040639 -0.044636 0.039691 -0.018136 0.052111 -0.077827 -0.065363 -0.107644 0.058615 0.005417 -0.067738 0.031269 -0.041534 -0.039486 0.019386 -0.021942 0.082740 0.113465 -0.004895 0.075557 0.105737 0.002911 0.048617 -0.107278 -0.077436 -0.109331 -0.060435 0.068204 0.071080 -0.099660 0.062579 -0.112976 0.046238 0.013954 0.033957 -0.016194 0.036063 0.110179 -0.011695 0.020793 0.007437 0.067125 0.000809 0.018124 0.052727 0.127638 0.113270 -0.042755
728 -0.088705 0.031057 -0.028874 -0.037516 0.070064 -0.065821 0.110202 -0.073240 -0.056916 -0.106405 0.009665 0.003570 -0.077228 0.034801 -0.036470 -0.048616 0.034934 0.000474 0.109240 0.093599 0.014203 0.070537 0.065366 0.022812 0.052786 -0.052709 -0.086986 -0.115460 -0.039782 0.030555 0.070806 -0.081809 0.036403 -0.108853 0.028110 0.051023 0.025062 0.006756 0.038443 0.139042 -0.021256 0.044473 -0.003511 0.045127 -0.065935 0.023247 0.058778 0.123860 0.108175 0.004779
655 -0.086788 0.042979 -0.024951 -0.032487 0.050654 -0.050474 0.088383 -0.089675 -0.058618 -0.081894 0.007376 -0.002955 -0.078714 0.060303 -0.039385 -0.043002 0.041031 0.022286 0.087722 0.083961 0.000389 0.061600 0.060368 0.002580 0.066053 -0.043933 -0.088651 -0.135072 -0.073821 0.033532 0.054453 -0.063466 0.058748 -0.137140 0.013412 0.045763 0.042235 0.015409 0.052205 0.148514 0.003950 0.041089 -0.007375 0.057913 -0.101558 0.033708 0.044876 0.114530 0.111418 0.009924
733 -0.103616 0.046606 -0.012119 -0.055360 0.037599 -0.045221 0.080340 -0.080614 -0.069982 -0.103249 0.019056 0.009880 -0.078153 0.047384 -0.051407 -0.050184 0.032649 -0.004672 0.099849 0.103877 0.004376 0.090010 0.091232 0.016575 0.070514 -0.079528 -0.072724 -0.130600 -0.071336 0.051685 0.078182 -0.096609 0.045494 -0.135118 0.049096 0.026505 0.049058 -0.011172 0.035411 0.157415 -0.005388 0.037456 0.002235 0.065596 -0.044958 0.025548 0.038075 0.115671 0.109829 -0.006759
735 -0.065787 0.038371 -0.027000 -0.051564 0.059357 -0.050847 0.110958 -0.084416 -0.059345 -0.085624 0.023379 -0.012324 -0.096741 0.032066 -0.043578 -0.030448 0.038433 0.007116 0.097956 0.095408 0.003030 0.053678 0.062234 0.019877 0.052707 -0.057718 -0.085225 -0.114729 -0.038602 0.049003 0.068440 -0.084021 0.058813 -0.128675 0.032632 0.051988 0.033738 -0.002833 0.035275 0.151755 -0.014784 0.049322 0.008042 0.031547 -0.044702 0.031899 0.075395 0.129597 0.142891 0.011202
552 -0.105333 0.042040 -0.022264 -0.048188 0.073719 -0.070745 0.126325 -0.087433 -0.071347 -0.127230 0.008705 0.021293 -0.086633 0.029094 -0.068007 -0.047541 0.046554 -0.000088 0.114231 0.108195 0.000221 0.082854 0.100170 0.023116 0.084582 -0.049148 -0.108501 -0.154846 -0.053800 0.044484 0.105997 -0.097555 0.047935 -0.155031 0.050591 0.043907 0.053403 0.005010 0.039248 0.203225 -0.029973 0.056172 0.001892 0.065042 -0.095405 0.019014 0.061671 0.136815 0.141338 -0.008632
529 -0.076780 0.030790 -0.037451 -0.052095 0.074553 -0.052837 0.081804 -0.076525 -0.052394 -0.112521 0.014558 0.011875 -0.052075 0.024048 -0.047030 -0.043103 0.028439 -0.001847 0.121927 0.104023 -0.014473 0.092341 0.107070 0.010770 0.066304 -0.071178 -0.093134 -0.131053 -0.056076 0.048632 0.111285 -0.093812 0.057716 -0.140897 0.032108 0.031936 0.044833 -0.010143 0.047548 0.171621 -0.031894 0.057674 -0.001014 0.044720 -0.060124 0.008907 0.064071 0.150918 0.113122 -0.038689
690 -0.071401 0.022436 -0.017355 -0.033700 0.056615 -0.051107 0.087418 -0.072191 -0.052753 -0.102336 0.009642 0.005760 -0.070874 0.029871 -0.036254 -0.035974 0.033340 -0.005854 0.094387 0.090485 0.005603 0.067611 0.080742 0.015805 0.061161 -0.058457 -0.080226 -0.122470 -0.035576 0.054134 0.071583 -0.077219 0.034223 -0.121080 0.033932 0.041514 0.028813 -0.001563 0.042417 0.137776 -0.016916 0.044925 -0.008506 0.065054 -0.058031 0.013963 0.063893 0.110183 0.102568 -0.012979
280 -0.077535 0.028694 -0.020763 -0.052783 0.057468 -0.053693 0.095039 -0.080170 -0.043865 -0.096430 0.000116 0.019567 -0.065376 0.006892 -0.033347 -0.025366 0.024716 0.011429 0.093790 0.081432 0.021033 0.053156 0.060743 0.016863 0.049270 -0.015980 -0.089562 -0.104172 -0.033763 0.025309 0.072361 -0.088339 0.025517 -0.082861 0.036672 0.022790 0.033448 0.001797 0.022755 0.129406 -0.016487 0.038176 0.007759 0.046036 -0.080285 0.019119 0.060266 0.111284 0.106209 0.001766
482 -0.076247 0.034340 -0.026457 -0.046156 0.068639 -0.046081 0.082853 -0.085793 -0.060596 -0.119863 0.010582 0.003816 -0.062714 0.027323 -0.058088 -0.038698 0.045283 -0.007976 0.096152 0.104626 0.007040 0.087360 0.116948 0.001397 0.070293 -0.057179 -0.088023 -0.138661 -0.052661 0.046338 0.100586 -0.109126 0.042573 -0.130159 0.047504 0.034733 0.058446 -0.008703 0.039605 0.150280 -0.021386 0.053316 0.012536 0.073120 -0.073350 0.025498 0.045350 0.130215 0.115733 -0.019837
720 -0.075662 0.021163 -0.040964 -0.068312 0.082458 -0.069414 0.132646 -0.088155 -0.060729 -0.122993 0.010632 0.017067 -0.082223 0.016567 -0.042392 -0.040814 0.035431 0.009327 0.131773 0.094751 0.007831 0.070122 0.085169 0.048662 0.067751 -0.057504 -0.113130 -0.133173 -0.036518 0.038219 0.093986 -0.106683 0.032133 -0.122845 0.029955 0.049576 0.029063 0.016942 0.059926 0.153708 -0.021383 0.051162 -0.010473 0.047016 -0.070126 0.020313 0.084335 0.154673 0.124165 -0.011266
731 -0.079973 0.028235 -0.041953 -0.057141 0.071209 -0.056112 0.119691 -0.088730 -0.060858 -0.108350 0.006702 0.003289 -0.078147 0.039610 -0.054947 -0.050516 0.039472 -0.004359 0.121408 0.100151 0.008818 0.064074 0.085637 0.030788 0.066126 -0.063225 -0.095399 -0.119542 -0.049079 0.037263 0.089351 -0.092764 0.045141 -0.129129 0.027351 0.052976 0.045600 0.001472 0.038326 0.164231 -0.014999 0.055512 0.001230 0.033669 -0.065444 0.028513 0.065582 0.143815 0.129221 -0.016043
717 -0.086690 0.024190 -0.009263 -0.044207 0.055233 -0.053223 0.091804 -0.077854 -0.059890 -0.110207 0.010077 0.007967 -0.075187 0.037245 -0.048347 -0.044435 0.035187 -0.001852 0.096953 0.105219 0.005691 0.080578 0.092336 0.014475 0.067256 -0.074561 -0.070038 -0.131311 -0.036443 0.053970 0.089186 -0.092670 0.028807 -0.116322 0.050625 0.029249 0.045066 -0.006765 0.042354 0.156111 -0.013469 0.029147 -0.001746 0.056380 -0.053828 0.012057 0.047888 0.118927 0.108260 -0.006640
576 -0.089244 0.032133 -0.010125 -0.034126 0.057167 -0.052178 0.097115 -0.063217 -0.053052 -0.092528 -0.002598 0.017077 -0.070224 0.041657 -0.043759 -0.048661 0.053867 0.001398 0.108892 0.081193 0.004437 0.076708 0.084817 0.012865 0.071943 -0.062000 -0.071052 -0.113632 -0.063859 0.041896 0.089344 -0.073137 0.030998 -0.131700 0.034435 0.040586 0.035036 0.001920 0.061964 0.163427 -0.017676 0.044239 -0.008830 0.047620 -0.071704 0.023062 0.055509 0.119158 0.099672 -0.019530
439 -0.096828 0.028730 -0.030425 -0.052600 0.068040 -0.062394 0.112284 -0.102496 -0.061453 -0.112648 0.014248 0.019793 -0.081320 0.034420 -0.049933 -0.047931 0.037043 -0.000907 0.101777 0.091267 0.009424 0.085317 0.076059 0.017201 0.076194 -0.055219 -0.091437 -0.138119 -0.055720 0.044475 0.073928 -0.094596 0.066142 -0.129400 0.042072 0.044371 0.057150 0.014570 0.043384 0.163769 -0.002953 0.053374 -0.005108 0.053265 -0.085308 0.025022 0.079349 0.139899 0.134267 0.011571
712 -0.088697 0.035493 -0.024674 -0.049412 0.086949 -0.068856 0.115769 -0.099844 -0.060252 -0.104622 0.005251 0.016199 -0.072760 0.040686 -0.040110 -0.047590 0.043918 0.007170 0.105170 0.094486 0.021654 0.075998 0.085881 0.021744 0.074286 -0.043615 -0.104132 -0.143479 -0.063562 0.042021 0.097903 -0.091625 0.055466 -0.138897 0.027034 0.050991 0.050089 0.011252 0.049889 0.174794 -0.014902 0.057883 -0.005879 0.044846 -0.106145 0.018002 0.065782 0.150837 0.136742 -0.004948
713 -0.090432 0.031108 -0.023489 -0.048852 0.068846 -0.084549 0.112421 -0.069765 -0.055058 -0.108013 0.027963 0.011262 -0.088297 0.052977 -0.052105 -0.050432 0.053952 -0.004712 0.132495 0.104611 -0.016363 0.081020 0.100409 0.028199 0.071964 -0.077362 -0.091188 -0.127816 -0.053919 0.064577 0.105709 -0.089867 0.021353 -0.155001 0.047582 0.040533 0.035244 0.011279 0.072256 0.180338 -0.005651 0.048687 -0.020023 0.078501 -0.075960 0.018897 0.063236 0.147685 0.108317 -0.036592
729 -0.079935 0.021553 -0.008893 -0.045726 0.032306 -0.058026 0.075694 -0.038696 -0.046475 -0.075533 0.012009 0.011195 -0.067275 0.044210 -0.034884 -0.036054 0.048514 -0.005471 0.093788 0.071389 -0.006089 0.077245 0.084489 0.003212 0.058127 -0.054287 -0.063627 -0.096402 -0.045644 0.041450 0.075487 -0.074082 0.010225 -0.125372 0.033825 0.021686 0.036145 0.006053 0.067100 0.137358 -0.002454 0.034939 -0.018367 0.060723 -0.064299 0.023650 0.056658 0.100320 0.066827 -0.021379
372 -0.046132 0.015588 -0.041333 -0.043072 0.045940 -0.062378 0.066879 -0.061456 -0.028349 -0.070852 0.024116 0.001579 -0.055523 0.053184 -0.042218 -0.051989 0.040260 0.003037 0.104299 0.075236 -0.013331 0.069220 0.076261 0.016990 0.048597 -0.071425 -0.077111 -0.109618 -0.069107 0.043598 0.079639 -0.065300 0.037119 -0.132882 0.027569 0.030331 0.048865 0.014813 0.064980 0.131547 0.004112 0.033788 -0.019426 0.050336 -0.054292 0.012865 0.046516 0.118870 0.077741 -0.036543
393 -0.067721 0.035942 -0.037675 -0.045922 0.052154 -0.048909 0.086484 -0.073019 -0.054065 -0.086321 0.006163 0.020465 -0.062853 0.047617 -0.056662 -0.040614 0.040828 0.001782 0.106606 0.089295 -0.009727 0.085313 0.079701 0.009311 0.067439 -0.072814 -0.081540 -0.116258 -0.061560 0.048301 0.089886 -0.079329 0.048838 -0.144496 0.042959 0.025715 0.053556 0.007375 0.065932 0.158727 -0.015758 0.054818 -0.011526 0.058002 -0.072195 0.008692 0.047086 0.121292 0.096842 -0.027093
716 -0.106424 0.033324 -0.020364 -0.050903 0.068391 -0.100208 0.121070 -0.069425 -0.053902 -0.098544 0.024142 0.015870 -0.082359 0.079707 -0.049821 -0.043570 0.061789 0.012289 0.151475 0.104278 -0.017931 0.095499 0.080799 0.033874 0.075459 -0.070157 -0.113290 -0.137801 -0.044630 0.062488 0.094575 -0.090911 0.037102 -0.164795 0.028941 0.056883 0.040624 0.005004 0.088370 0.205933 -0.008918 0.054545 -0.029078 0.060775 -0.091835 0.018269 0.076077 0.153700 0.104204 -0.009656
734 -0.086537 0.031800 -0.016481 -0.046512 0.058097 -0.070746 0.112905 -0.068194 -0.066066 -0.099890 0.017882 0.000683 -0.094367 0.050144 -0.054525 -0.042197 0.048460 0.015253 0.137312 0.105420 -0.005125 0.089094 0.095556 0.026100 0.072036 -0.076629 -0.095761 -0.131931 -0.061267 0.061408 0.086948 -0.091126 0.030705 -0.141658 0.027942 0.042010 0.039573 0.005274 0.065643 0.168357 -0.021618 0.039981 -0.018009 0.072785 -0.064470 0.025318 0.068807 0.147344 0.113383 -0.014295
730 -0.099145 0.043394 -0.029947 -0.043119 0.061209 -0.072363 0.108528 -0.089280 -0.062031 -0.115102 0.020825 0.007492 -0.082995 0.061828 -0.051148 -0.048429 0.050286 0.006998 0.120013 0.107299 -0.017167 0.091301 0.091335 0.018073 0.077434 -0.080867 -0.083549 -0.138421 -0.065544 0.059230 0.084910 -0.096266 0.030232 -0.159279 0.045594 0.046255 0.038649 0.006330 0.066518 0.186813 -0.017183 0.036014 -0.012366 0.073577 -0.076135 0.022976 0.059348 0.128829 0.102796 -0.025102
505 -0.075803 0.026581 -0.026403 -0.042939 0.060180 -0.053854 0.105614 -0.074961 -0.057903 -0.082065 0.016363 -0.006785 -0.071543 0.074051 -0.041503 -0.035126 0.056555 0.024427 0.102146 0.082103 -0.011115 0.078404 0.055247 0.012841 0.060496 -0.044319 -0.080778 -0.119478 -0.051203 0.051676 0.055912 -0.068247 0.049568 -0.133073 0.020513 0.052584 0.027427 -0.004546 0.064022 0.173511 -0.016249 0.054264 -0.010369 0.053700 -0.088488 0.034909 0.066400 0.110567 0.104609 -0.001357
718 -0.065063 0.036637 -0.025898 -0.027320 0.055780 -0.057387 0.064692 -0.059498 -0.026540 -0.074152 0.000404 0.006442 -0.054240 0.059067 -0.043796 -0.038374 0.045974 0.010738 0.093949 0.066223 0.004126 0.075143 0.060989 0.016035 0.053932 -0.037057 -0.066874 -0.105631 -0.042264 0.039281 0.082852 -0.068895 0.030878 -0.114694 0.023398 0.041284 0.034342 0.014867 0.071856 0.139032 -0.008229 0.047342 -0.024155 0.036017 -0.087127 0.017783 0.037556 0.108092 0.079610 -0.001608
736 -0.026485 0.018351 -0.015130 -0.017399 0.015674 -0.014346 0.031856 -0.030343 -0.012088 -0.034508 0.001062 0.005752 -0.021527 0.021951 -0.017798 -0.010296 0.018218 0.002437 0.030892 0.042190 -0.002093 0.032026 0.016404 0.006645 0.018500 -0.023942 -0.038073 -0.043160 -0.026239 0.013580 0.026809 -0.026626 0.018860 -0.056920 0.010256 0.015672 0.004880 -0.007293 0.016759 0.060602 0.005191 0.024258 -0.008402 0.020847 -0.024824 0.016179 0.023559 0.045913 0.045256 -0.009238
724 -0.038480 0.023244 -0.008159 -0.028727 0.034928 -0.024624 0.039264 -0.041823 -0.031973 -0.041034 0.013721 0.005286 -0.043788 0.028746 -0.030452 -0.015191 0.028375 0.004461 0.055441 0.039915 -0.007168 0.036181 0.045877 0.006454 0.027927 -0.037750 -0.046069 -0.066366 -0.032633 0.021939 0.043427 -0.051624 0.013621 -0.067117 0.024475 0.027264 0.013174 -0.002630 0.027810 0.090663 -0.009571 0.024375 -0.012623 0.020508 -0.031466 0.016369 0.020230 0.055723 0.057157 -0.010610
715 -0.034265 0.021407 -0.005781 -0.021188 0.009646 -0.026538 0.044043 -0.035009 -0.023137 -0.037251 0.012292 0.011666 -0.033639 0.028713 -0.030158 -0.030852 0.019218 0.006092 0.056422 0.034886 0.004088 0.045442 0.040806 0.009229 0.025394 -0.033158 -0.028490 -0.053241 -0.037120 0.017972 0.030526 -0.029332 0.017179 -0.062645 0.015427 0.011114 0.020581 0.000287 0.025993 0.083688 0.000056 0.010740 -0.002728 0.035877 -0.035407 0.005842 0.015530 0.043899 0.035114 0.003262
