65 20
723 0.001604 0.064373 -0.001482 0.099402 -0.086097 0.096493 0.080705 -0.125547 0.015211 0.005986 -0.129249 0.167363 0.002386 -0.089961 0.013550 0.069216 -0.070881 0.050183 0.217891 -0.004928
702 0.038243 0.104077 0.013332 0.153976 -0.142756 0.194512 0.098358 -0.193603 0.033717 0.014885 -0.124350 0.099213 0.060131 -0.107965 0.004815 0.140160 -0.093325 0.118402 0.286916 -0.079498
719 -0.006588 0.067828 -0.072555 0.141931 -0.089915 0.164419 0.126482 -0.119318 0.044293 0.051142 -0.207962 0.152156 0.004111 -0.109430 0.025689 0.131071 -0.061398 0.077179 0.251671 -0.051694
633 0.052144 0.113985 0.038860 0.067399 -0.115346 0.153323 0.092772 -0.140213 0.034636 0.039232 -0.178250 0.138421 0.062629 -0.114849 0.068319 0.132192 -0.087476 0.070873 0.217526 -0.027656
656 0.015935 0.064730 0.087233 0.037412 -0.176294 0.141461 0.073654 -0.202471 -0.002000 -0.030519 -0.137674 0.150956 -0.017084 -0.101388 0.089189 0.075075 -0.019959 0.098652 0.210486 0.025545
657 0.012758 0.105239 -0.048762 0.108398 -0.095179 0.135423 0.131207 -0.108679 0.037619 0.059898 -0.232446 0.174128 0.080388 -0.100897 0.002815 0.140201 -0.081188 0.053119 0.205248 -0.049777
681 -0.023469 -0.003885 -0.060978 0.100172 -0.122892 0.116458 0.113496 -0.123509 0.055296 0.021087 -0.175627 0.158550 -0.032867 -0.096235 -0.021002 0.137109 -0.054143 0.056658 0.220401 -0.040237
660 0.023477 0.112017 -0.042399 0.111865 -0.082926 0.106775 0.063013 -0.094026 0.034774 0.068916 -0.182367 0.159368 -0.006404 -0.163409 0.114554 0.137623 -0.088812 0.074805 0.165666 -0.007147
132 0.057069 0.181361 0.056467 0.099353 -0.137418 0.117766 0.075428 -0.142573 0.024485 -0.015291 -0.135078 0.130920 -0.002224 -0.137274 0.152630 0.135171 -0.078369 0.059707 0.188622 0.002740
659 0.011189 0.063753 -0.115596 0.164168 -0.021686 0.119795 0.090334 -0.053623 0.053720 0.073910 -0.165233 0.139559 0.014173 -0.179998 0.081213 0.137653 -0.105144 0.100393 0.242020 -0.060301
577 0.036946 0.176053 -0.001458 0.116832 -0.110826 0.087564 0.060726 -0.119193 0.012651 0.038989 -0.150149 0.135724 0.099249 -0.100500 0.051981 0.140856 -0.089998 0.037275 0.166417 -0.078007
644 -0.015049 0.128093 -0.048053 0.067135 -0.108229 0.072877 0.079343 -0.116631 0.009102 0.037014 -0.202087 0.185232 0.013057 -0.109715 0.104802 0.131709 -0.069735 0.039443 0.151990 -0.012524
725 0.002458 0.100341 0.041800 0.082266 -0.146048 0.132702 0.060567 -0.122153 0.017507 0.061964 -0.189284 0.149912 -0.006027 -0.115652 0.076411 0.095757 -0.051295 0.079543 0.186580 -0.030441
710 -0.008942 0.088647 -0.023154 0.132092 -0.125470 0.122819 0.071654 -0.118214 0.031615 0.027002 -0.141475 0.129090 -0.042078 -0.170509 0.080843 0.125506 -0.042615 0.152123 0.220634 -0.022362
707 0.007459 0.000020 0.008224 0.059842 -0.128032 0.130282 0.103038 -0.083562 0.027089 0.092061 -0.237230 0.189403 0.003754 -0.213186 -0.001079 0.111053 -0.021658 0.186564 0.236037 -0.020917
572 -0.035761 0.044665 -0.075758 0.120407 -0.082207 0.140030 0.085856 -0.115238 0.000326 0.059300 -0.167779 0.190114 -0.000294 -0.158250 0.008395 0.134148 -0.068717 0.114530 0.303663 -0.089963
506 0.014346 0.191547 -0.036151 0.109975 -0.073104 0.073899 0.031044 -0.064189 0.047091 0.067897 -0.151317 0.124644 0.051048 -0.170442 0.205734 0.169858 -0.076800 0.072969 0.096210 -0.033066
722 0.044924 0.045810 0.014852 0.103559 -0.104707 0.187263 0.080034 -0.087012 0.034643 0.064283 -0.181353 0.141553 0.057138 -0.165833 0.011736 0.082664 -0.041854 0.163582 0.210095 -0.041951
686 0.018620 0.143853 0.001168 0.088516 -0.102077 0.077034 0.069149 -0.129296 -0.003606 0.073559 -0.195421 0.193709 0.024802 -0.120850 0.105241 0.158067 -0.093745 0.071414 0.162736 -0.029302
351 0.019712 0.084111 0.059268 0.072231 -0.123388 0.065735 0.086350 -0.073096 0.038013 0.109588 -0.197515 0.119294 0.006837 -0.122262 0.040563 0.080738 -0.009992 0.091774 0.135690 -0.064840
634 0.003676 -0.009390 -0.057448 0.122289 0.017700 0.163605 0.066456 -0.029417 0.002946 0.135954 -0.170849 0.085381 0.034734 -0.189398 0.039300 0.084218 -0.082227 0.180359 0.218487 -0.062054
726 0.062667 0.017648 -0.039293 0.122330 -0.069809 0.149439 0.051971 -0.129031 0.051255 0.004249 -0.123928 0.162240 -0.032465 -0.210839 0.107160 0.176615 -0.090264 0.179655 0.233428 0.029544
727 -0.013046 0.147804 -0.070511 0.106370 -0.023165 0.094606 0.034309 -0.114863 0.022918 0.017059 -0.097658 0.124896 0.016735 -0.118368 0.179002 0.166582 -0.122275 0.055543 0.219523 -0.017320
624 0.023901 0.106674 0.004851 0.094040 -0.159661 0.127994 0.084857 -0.088591 0.058461 0.076782 -0.219425 0.166595 -0.001898 -0.192980 0.069255 0.146506 -0.038456 0.135108 0.143791 -0.023119
600 -0.030535 0.071598 -0.015821 0.091725 -0.149884 0.084060 0.098682 -0.144889 0.022449 0.053685 -0.213701 0.178789 -0.035585 -0.122438 0.030064 0.106356 -0.029333 0.065974 0.198031 -0.035770
599 -0.005731 0.076714 -0.005689 0.077989 -0.078399 0.103551 0.091443 -0.071123 0.060617 0.114854 -0.250791 0.144211 -0.004042 -0.139672 0.070536 0.147625 -0.045141 0.078766 0.192098 -0.026121
553 0.027354 0.069422 -0.040296 0.098648 -0.118751 0.160195 0.098063 -0.101191 0.028490 -0.000210 -0.165317 0.112068 0.025226 -0.142729 0.052851 0.155795 -0.063465 0.127289 0.192673 -0.018929
407 0.023549 0.084802 -0.057828 0.116602 -0.092238 0.134626 0.092487 -0.094274 0.050835 0.071192 -0.187824 0.179571 0.021017 -0.202466 0.062939 0.125233 -0.045376 0.119968 0.206859 -0.035198
721 0.021750 0.017597 -0.056466 0.125954 -0.081190 0.132015 0.084091 -0.053196 0.070173 0.082076 -0.177664 0.113789 -0.042941 -0.229584 0.076543 0.184434 -0.086152 0.177367 0.231770 -0.016271
483 -0.034720 0.064994 -0.082729 0.122437 -0.050751 0.089820 0.064739 -0.096503 0.048733 0.071225 -0.148050 0.140392 -0.034577 -0.199301 0.138347 0.168648 -0.086222 0.109765 0.192752 -0.014529
714 0.010193 0.115532 -0.044511 0.098455 -0.082944 0.110363 0.070737 -0.094644 0.035968 0.078242 -0.180870 0.155517 -0.010860 -0.183504 0.127038 0.181867 -0.097428 0.098240 0.174092 -0.064109
460 0.024148 0.030281 -0.070895 0.107847 -0.082770 0.113973 0.105259 -0.050039 0.018310 0.105139 -0.227961 0.184295 -0.037457 -0.246635 0.068033 0.091133 -0.054053 0.121856 0.194495 0.008909
691 0.041431 0.037356 -0.016467 0.102893 -0.094312 0.128133 0.082334 -0.056069 0.056624 0.028053 -0.169812 0.149564 -0.028646 -0.184505 0.060194 0.056870 -0.011274 0.112896 0.188586 0.033271
606 0.023755 0.044604 -0.065306 0.108830 -0.092047 0.178930 0.098043 -0.085074 0.041408 0.065401 -0.187489 0.168061 -0.010386 -0.163956 0.040826 0.129956 -0.072057 0.105329 0.253894 -0.042114
669 -0.011682 0.040753 -0.003704 0.091205 -0.140100 0.101703 0.091286 -0.106430 0.046052 0.092196 -0.202109 0.178457 -0.067637 -0.180245 0.054153 0.125641 -0.035622 0.121293 0.190750 -0.005208
708 0.049169 0.107095 -0.054146 0.132524 -0.073673 0.161120 0.052683 -0.120173 0.015172 0.081282 -0.181312 0.138409 0.009572 -0.205887 0.116757 0.156112 -0.075165 0.156041 0.192914 -0.013054
732 0.025285 0.044767 -0.030854 0.096229 -0.069046 0.119124 0.100545 -0.054798 0.057747 0.054929 -0.206852 0.171692 -0.021077 -0.188894 0.129426 0.132457 -0.031355 0.117923 0.164194 -0.018423
569 0.013093 0.100989 -0.074037 0.134032 -0.038070 0.119970 0.066565 -0.081864 0.052255 0.051997 -0.170984 0.106989 0.028538 -0.187129 0.140656 0.126103 -0.095537 0.094704 0.213196 -0.032266
728 -0.017976 0.148608 -0.070357 0.148385 -0.072264 0.103148 0.076262 -0.106726 0.025930 0.075174 -0.172126 0.153311 0.006828 -0.144101 0.138454 0.164427 -0.128531 0.038152 0.178019 -0.048368
655 -0.005496 0.051092 -0.017819 0.107823 -0.119984 0.159612 0.068373 -0.110072 0.002186 0.057610 -0.192821 0.150296 -0.030251 -0.197673 0.068122 0.112913 -0.058167 0.124133 0.199884 -0.016253
733 -0.009631 0.052273 -0.042222 0.081385 -0.097328 0.111288 0.056201 -0.095395 0.025870 0.049972 -0.160003 0.148442 0.009191 -0.161044 0.081887 0.127825 -0.042194 0.100675 0.215515 -0.049552
735 -0.007327 0.128956 -0.027748 0.092298 -0.117941 0.109347 0.079947 -0.101524 0.046385 0.043058 -0.179937 0.148397 -0.012882 -0.195794 0.154132 0.131660 -0.053859 0.133766 0.154693 -0.018615
552 0.027294 0.108690 -0.029390 0.135574 -0.113599 0.105091 0.090224 -0.110822 0.048815 0.091130 -0.227981 0.210585 0.020331 -0.188937 0.098997 0.156551 -0.079007 0.129473 0.180151 -0.016772
529 0.011840 0.080939 -0.120681 0.138489 -0.050209 0.139682 0.079318 -0.059559 0.052097 0.093122 -0.166605 0.167095 -0.010603 -0.220363 0.112288 0.208619 -0.127174 0.130915 0.219127 -0.036026
690 0.012331 0.114731 -0.049841 0.098218 -0.081971 0.106702 0.058748 -0.088149 0.031076 0.065312 -0.192508 0.148483 -0.006428 -0.166693 0.131568 0.114984 -0.066181 0.096672 0.191558 -0.031159
280 0.031045 0.081469 -0.034268 0.083766 -0.096008 0.098468 0.068918 -0.082211 0.045059 0.038044 -0.147647 0.136396 -0.003283 -0.184277 0.071944 0.132463 -0.064148 0.141207 0.184109 -0.046129
482 -0.003209 0.077741 -0.049976 0.138981 -0.117115 0.111055 0.052983 -0.132669 0.017573 0.061840 -0.171690 0.173357 -0.036898 -0.239342 0.104814 0.174137 -0.064825 0.162783 0.192943 -0.025509
720 0.037851 0.126099 -0.054182 0.129321 -0.077331 0.132540 0.092300 -0.073481 0.030634 0.082123 -0.178632 0.173715 0.045964 -0.242267 0.148587 0.184287 -0.102673 0.135521 0.204095 -0.014338
731 0.012416 0.119067 -0.025169 0.132185 -0.088071 0.129446 0.099959 -0.102168 0.055200 0.075460 -0.213195 0.184167 -0.003481 -0.222300 0.141266 0.153814 -0.060547 0.145366 0.163905 -0.023084
717 -0.022107 0.103435 -0.031809 0.087849 -0.100624 0.078041 0.082458 -0.114887 0.037281 0.034782 -0.125133 0.154334 0.028152 -0.162337 0.096452 0.121539 -0.074305 0.085078 0.188529 -0.043154
576 0.004201 0.071949 -0.035565 0.091420 -0.132503 0.135977 0.055885 -0.124820 0.036340 0.067572 -0.196086 0.139216 -0.001421 -0.162507 0.129386 0.181481 -0.077572 0.101211 0.217691 -0.019459
439 0.037333 0.093701 -0.042537 0.117836 -0.079507 0.135670 0.096469 -0.086224 0.030460 0.091985 -0.230685 0.210491 0.017130 -0.244281 0.119230 0.148533 -0.097014 0.132460 0.194466 -0.042472
712 0.011988 0.045715 -0.008935 0.086826 -0.094490 0.132096 0.077864 -0.092683 0.038279 0.080140 -0.229955 0.189465 -0.031870 -0.248128 0.138465 0.133287 -0.030318 0.181193 0.201388 -0.007143
713 -0.011490 0.104767 -0.080021 0.147430 -0.083411 0.110114 0.096344 -0.131454 0.046808 0.052621 -0.201884 0.212025 -0.020518 -0.234170 0.158688 0.190740 -0.055896 0.113866 0.190558 -0.007718
729 0.017409 0.048094 -0.070812 0.101732 -0.048541 0.124799 0.067648 -0.096905 0.039086 0.061003 -0.141662 0.174917 -0.013318 -0.166206 0.085418 0.165909 -0.079849 0.117579 0.223088 -0.044340
372 0.005067 0.052157 -0.042606 0.129289 -0.056638 0.069611 0.076170 -0.079900 0.042880 0.076949 -0.147376 0.100980 -0.044716 -0.170057 0.109685 0.080845 -0.057610 0.080403 0.183796 0.002935
393 0.004584 0.128899 -0.013828 0.100456 -0.094139 0.131069 0.038969 -0.104709 0.038516 0.069856 -0.188208 0.170409 -0.020469 -0.173803 0.124655 0.169492 -0.073633 0.126108 0.198985 -0.033923
716 0.005400 0.138828 -0.075046 0.161294 -0.092452 0.117624 0.119748 -0.104598 0.046477 0.070967 -0.208761 0.166890 -0.020754 -0.183928 0.120459 0.185120 -0.090113 0.093835 0.213361 -0.007977
734 0.010192 0.126028 -0.012557 0.118279 -0.133306 0.124286 0.065188 -0.150962 0.056632 0.053014 -0.204528 0.213027 -0.030177 -0.225999 0.137397 0.189791 -0.044759 0.151487 0.212723 -0.024154
730 -0.008230 0.040184 -0.027989 0.119627 -0.067556 0.134312 0.108130 -0.098729 0.029585 0.044425 -0.191158 0.144545 -0.030060 -0.164498 0.058063 0.133010 -0.045148 0.118076 0.220013 -0.038725
505 -0.003369 0.083023 -0.019343 0.077853 -0.083781 0.114007 0.071150 -0.065115 0.051713 0.040763 -0.180905 0.179475 -0.001664 -0.172452 0.116946 0.144386 -0.073363 0.101449 0.189311 -0.028991
718 0.033537 0.037720 -0.074033 0.122478 -0.095592 0.106865 0.082640 -0.067002 0.028206 0.072889 -0.166492 0.132409 -0.005462 -0.159097 0.096195 0.133973 -0.055801 0.110267 0.158069 -0.005040
736 -0.004888 0.017307 -0.020563 0.025448 -0.040885 0.047107 0.052014 -0.050082 0.032433 0.013100 -0.087918 0.074057 -0.023155 -0.090121 0.043769 0.052161 -0.024864 0.029680 0.082362 0.024325
724 -0.004780 0.052988 -0.039563 0.042366 -0.032465 0.059031 0.057797 -0.041087 0.038330 0.046620 -0.102686 0.068290 -0.001373 -0.095395 0.028433 0.081170 -0.057417 0.039282 0.107538 -0.032325
715 0.022175 0.020771 0.002640 0.059072 -0.053334 0.074072 0.028503 -0.048320 0.022914 0.006045 -0.101918 0.053877 0.025630 -0.060302 0.034796 0.038003 -0.031739 0.016786 0.100430 -0.004702
