65 45
723 -0.033616 0.205662 0.081915 -0.006587 -0.045734 0.069414 0.003681 -0.023410 -0.116675 0.050004 -0.052314 -0.006374 -0.074485 -0.029593 0.176372 -0.011211 -0.019966 0.007081 -0.063362 -0.012270 -0.000035 -0.040286 -0.031790 0.041523 0.027397 -0.022915 0.091526 0.106705 -0.037965 -0.003511 -0.058154 0.046582 -0.117936 0.045255 -0.025314 0.003001 -0.009354 -0.032149 0.045234 -0.022883 0.071585 -0.027442 -0.050434 0.112292 0.002962
702 -0.008222 0.260723 0.122503 0.012220 -0.042668 0.072345 -0.018460 -0.042056 -0.158166 0.040416 -0.054636 0.028578 -0.129442 -0.026433 0.179019 -0.034843 0.028312 0.031992 -0.093698 -0.028285 0.057007 -0.059757 -0.058396 0.035100 0.074665 -0.021508 0.100319 0.117694 -0.036307 0.027128 -0.026467 0.058895 -0.137740 0.071878 -0.047713 0.018646 0.009627 0.008441 0.081276 0.015095 0.093538 -0.027544 -0.110754 0.113643 0.007209
719 -0.020532 0.256997 0.137006 0.028398 -0.028543 0.072033 -0.048133 -0.054066 -0.135303 0.025442 -0.006523 0.006096 -0.050239 -0.056881 0.169762 -0.033770 0.016085 0.076619 -0.082273 -0.030036 0.037679 -0.084585 -0.056598 0.058560 0.056196 -0.001146 0.090238 0.110529 -0.039971 0.016080 -0.015650 0.026029 -0.133602 0.030000 -0.022946 0.007182 0.028660 0.042345 0.077763 -0.008543 0.113767 -0.005878 -0.142343 0.061607 -0.029635
633 -0.043412 0.209014 0.086102 0.010807 -0.027028 0.066642 -0.031550 -0.040861 -0.113855 0.030441 -0.053950 0.014925 -0.011884 -0.026862 0.194212 -0.057409 0.021938 0.030313 -0.060119 -0.044417 0.028277 -0.060713 -0.039128 0.049863 0.046808 -0.070875 0.116467 0.117186 -0.057984 0.022411 -0.016458 0.051603 -0.126786 0.022308 -0.054297 0.030145 -0.003275 0.018377 0.061141 -0.024431 0.058139 -0.033358 -0.117328 0.100381 -0.047612
656 -0.046499 0.188547 0.083418 0.006630 -0.057434 0.060249 0.000666 -0.069726 -0.085438 0.027729 -0.050331 0.034277 -0.009194 -0.039634 0.211543 -0.049469 -0.003063 0.033303 -0.052785 -0.037980 -0.006189 -0.049980 -0.042794 0.053204 0.038699 -0.057415 0.093872 0.090062 -0.053406 0.020442 -0.020718 0.063766 -0.100453 0.007149 -0.058996 0.053376 -0.003500 0.017999 0.021341 -0.033700 0.051525 -0.026756 -0.080134 0.088581 -0.051259
657 -0.048340 0.213901 0.106495 0.019791 -0.051304 0.061619 -0.056543 -0.047004 -0.121754 0.050405 -0.029398 0.008605 -0.029676 -0.032390 0.161664 -0.017745 -0.011471 0.057743 -0.040831 -0.039559 0.046905 -0.068552 -0.051247 0.060225 0.035578 -0.030106 0.103743 0.116802 -0.052578 0.024799 -0.052867 0.036330 -0.138271 0.030372 -0.010373 0.007217 0.003895 0.053949 0.065542 -0.034110 0.102321 -0.035491 -0.168768 0.047291 -0.067507
681 -0.033217 0.196946 0.104026 0.002623 -0.025692 0.089825 -0.081532 -0.022894 -0.100158 0.056369 -0.004736 -0.023580 -0.007587 -0.032016 0.144876 -0.022251 -0.028205 0.040438 -0.045497 -0.050096 0.020447 -0.082124 -0.037112 0.068142 0.015871 -0.004941 0.092201 0.115862 -0.053284 0.017701 -0.018398 0.014016 -0.121029 0.048242 0.024545 -0.010159 0.037795 0.014607 0.082368 -0.041947 0.114367 -0.047093 -0.137381 0.035139 -0.032272
660 -0.029221 0.227598 0.104123 0.011947 -0.048156 0.066536 -0.039668 -0.033813 -0.115524 0.060298 -0.055235 0.018676 -0.066848 -0.036979 0.153809 -0.015889 0.000143 0.022988 -0.049997 -0.042951 0.016747 -0.033751 -0.007989 0.033445 0.038703 -0.025006 0.082217 0.112502 -0.043064 0.000859 -0.053359 0.060270 -0.133874 0.030016 -0.022005 0.001150 0.003187 0.034408 0.051933 -0.012553 0.101593 -0.047371 -0.118500 0.064566 -0.021664
132 -0.040085 0.232986 0.094952 0.033837 -0.041044 0.064724 0.006796 -0.052823 -0.126382 0.007003 -0.093390 0.022763 -0.084794 -0.049181 0.197693 -0.052256 0.040259 0.002112 -0.059453 -0.036937 0.014551 -0.027369 -0.028860 0.026792 0.074667 -0.062375 0.125805 0.131066 -0.061537 0.004431 -0.038214 0.082672 -0.141163 0.026292 -0.059357 0.034755 -0.020232 0.003863 0.044289 -0.013759 0.052412 -0.032839 -0.086341 0.124227 -0.037859
659 -0.036285 0.192372 0.115586 0.034639 -0.014007 0.061716 -0.051710 -0.021752 -0.110571 0.038325 -0.021789 0.011355 -0.090870 -0.045055 0.117936 -0.009211 0.014594 0.039992 -0.025362 -0.045183 0.057199 -0.046661 -0.015829 0.007074 0.025358 -0.020358 0.092805 0.096462 -0.061303 0.023880 -0.033553 0.038132 -0.136851 0.057395 0.001924 -0.014865 0.003012 0.032566 0.087628 -0.014555 0.113938 -0.036246 -0.144659 0.043672 -0.040160
577 -0.035346 0.172343 0.105631 0.021714 -0.066743 0.046513 -0.011921 -0.045740 -0.112516 0.061455 -0.056246 0.041134 -0.047690 -0.019365 0.150311 -0.036082 -0.005261 0.022889 -0.031506 -0.048489 0.039364 -0.022697 -0.002486 0.025382 0.035198 -0.083230 0.100769 0.124209 -0.059863 0.021098 -0.061670 0.067337 -0.129504 0.028958 -0.004922 0.026469 -0.006256 0.054287 0.045429 -0.008046 0.068267 -0.042631 -0.134872 0.041780 -0.064319
644 -0.043656 0.207545 0.095758 0.017154 -0.058082 0.044365 -0.057153 -0.047495 -0.103793 0.057225 -0.043032 0.029348 -0.024316 -0.037037 0.148922 -0.027909 -0.001440 0.037012 -0.040161 -0.065349 0.039092 -0.039967 -0.022121 0.043547 0.034435 -0.047619 0.088857 0.117307 -0.069953 0.023557 -0.059270 0.043022 -0.140861 0.031168 -0.013756 0.000962 0.008913 0.066003 0.046005 -0.010628 0.095510 -0.041536 -0.159072 0.032493 -0.068629
725 -0.023658 0.193200 0.097903 0.036429 -0.025899 0.059838 -0.048195 -0.057532 -0.086448 0.069210 -0.042538 0.026687 -0.026651 -0.028041 0.154031 -0.056629 0.020673 0.017640 -0.047570 -0.061021 0.034465 -0.033819 0.005443 0.031700 0.037387 -0.058511 0.082349 0.110635 -0.050863 0.015899 -0.008362 0.076243 -0.130470 0.018688 -0.031065 0.034395 0.006713 0.050782 0.070549 0.005283 0.082423 -0.051100 -0.122600 0.036410 -0.039560
710 -0.024852 0.228799 0.106522 0.021718 -0.031262 0.064174 -0.014828 -0.029534 -0.135229 0.021203 -0.044419 0.029367 -0.085152 -0.054568 0.169983 -0.041453 0.038270 0.057860 -0.061889 -0.038597 0.031927 -0.072544 -0.048675 0.033554 0.064795 -0.014510 0.105165 0.110440 -0.061187 0.030720 -0.027833 0.046408 -0.111234 0.048732 -0.044470 0.011477 0.001737 0.030240 0.050738 -0.008128 0.074512 -0.004496 -0.128803 0.087102 -0.024937
707 -0.009706 0.255074 0.123614 0.027701 -0.047369 0.076300 -0.051558 -0.046509 -0.153259 0.070795 -0.050103 0.023144 -0.076630 -0.038570 0.176486 -0.059030 0.014260 0.034471 -0.075516 -0.033371 0.044182 -0.077714 -0.020749 0.053996 0.076953 -0.030855 0.106967 0.151231 -0.031624 0.021210 -0.034067 0.058153 -0.144799 0.073893 -0.017032 0.006336 0.037125 0.038719 0.079459 0.003788 0.091646 -0.031932 -0.147866 0.068369 -0.015864
572 -0.027097 0.250881 0.133707 0.016614 -0.055570 0.067131 -0.048537 -0.036902 -0.152153 0.059165 -0.028552 0.017492 -0.084120 -0.043301 0.146054 0.005948 -0.006500 0.052594 -0.054187 -0.046165 0.053932 -0.043936 -0.038475 0.040685 0.029902 -0.021963 0.084607 0.116256 -0.047026 0.002627 -0.067920 0.031273 -0.155225 0.047147 -0.005448 -0.017408 0.007756 0.045242 0.077721 -0.008741 0.130688 -0.033790 -0.169204 0.042475 -0.030065
506 -0.033985 0.201912 0.083724 0.022516 -0.058264 0.036315 -0.028925 -0.039940 -0.108796 0.063071 -0.066275 0.077505 -0.072805 -0.041024 0.153019 -0.058286 0.051524 0.029240 -0.046827 -0.067972 0.061161 -0.025797 0.001050 -0.007006 0.071688 -0.068558 0.076377 0.114804 -0.061877 0.034721 -0.039048 0.067748 -0.128364 0.032874 -0.054272 0.013667 -0.009647 0.088368 0.030225 0.029839 0.048699 -0.043741 -0.150306 0.044715 -0.069530
722 -0.033589 0.183650 0.107406 0.017704 -0.064285 0.041636 -0.049106 -0.064164 -0.088185 0.064977 -0.040715 0.054023 -0.032972 -0.042003 0.159691 -0.045211 -0.004602 0.035883 -0.042413 -0.044779 0.021905 -0.031662 -0.011099 0.031148 0.038735 -0.056897 0.072041 0.113357 -0.049833 0.029717 -0.051556 0.062841 -0.130576 0.032925 -0.026018 0.001906 0.002986 0.055366 0.027788 -0.011089 0.084250 -0.032999 -0.132528 0.032165 -0.068258
686 -0.021913 0.213304 0.122623 0.014821 -0.066221 0.066924 -0.017858 -0.043161 -0.127540 0.072219 -0.037670 0.008249 -0.067997 -0.025361 0.162639 -0.020426 -0.013786 0.018834 -0.053751 -0.040667 0.043985 -0.038707 -0.015323 0.055002 0.031086 -0.035120 0.094455 0.122432 -0.035139 -0.002484 -0.051736 0.067123 -0.142141 0.044174 -0.008833 0.018165 -0.003043 0.022233 0.074565 -0.010777 0.101761 -0.051687 -0.118915 0.061089 -0.017263
351 -0.004449 0.173063 0.091429 0.009602 -0.046497 0.079315 -0.050639 -0.033878 -0.103934 0.029076 -0.020088 0.014844 -0.049901 -0.022544 0.137677 -0.035477 0.016671 0.034133 -0.073011 -0.014524 0.028172 -0.059984 -0.046917 0.058933 0.056519 -0.007482 0.062075 0.093685 -0.021687 0.027500 -0.003375 0.023478 -0.081845 0.046472 -0.015582 0.006104 0.036566 0.007885 0.044475 -0.002667 0.071647 -0.033985 -0.098370 0.066031 -0.004707
634 -0.008826 0.200668 0.100678 0.031060 -0.021235 0.048361 -0.063306 -0.033221 -0.120344 0.025792 -0.018191 0.022163 -0.084985 -0.037285 0.103996 -0.003213 0.020767 0.059217 -0.056277 -0.027857 0.047291 -0.060865 -0.038850 0.038789 0.042430 0.011623 0.066644 0.076300 -0.018846 0.020119 -0.025562 0.028681 -0.106709 0.049937 -0.017383 -0.011717 0.027168 0.048708 0.072985 -0.009293 0.123220 -0.024884 -0.141446 0.042303 -0.014515
726 -0.063827 0.212209 0.103728 0.020096 -0.012048 0.074521 -0.025025 -0.017787 -0.117437 0.019513 -0.060815 0.002415 -0.058998 -0.058671 0.187028 -0.022724 0.009928 0.037280 -0.009823 -0.042642 0.007270 -0.067291 -0.008047 0.020844 0.025449 -0.030988 0.145017 0.105413 -0.058954 0.005510 -0.026113 0.067365 -0.115989 0.032184 -0.020120 0.010314 -0.009685 0.016029 0.065285 -0.070727 0.088195 -0.040681 -0.128239 0.092690 -0.061293
727 -0.048554 0.212196 0.076401 0.005120 -0.043928 0.070279 -0.025352 -0.033838 -0.106867 0.025866 -0.050739 0.009076 -0.071233 -0.024259 0.162189 -0.010446 0.018109 0.033710 -0.053824 -0.045614 0.029173 -0.030739 -0.057038 0.024571 0.032611 -0.022401 0.077916 0.093153 -0.068191 0.018843 -0.038340 0.051810 -0.116580 0.015114 -0.059409 0.028359 -0.027078 0.027187 0.047055 -0.015201 0.091811 -0.041389 -0.112491 0.098058 -0.036804
624 -0.032744 0.225049 0.108119 0.031873 -0.050289 0.047176 -0.047859 -0.048794 -0.118075 0.029310 -0.061212 0.021093 -0.048548 -0.057082 0.147910 -0.013776 0.009637 0.042699 -0.024743 -0.041736 0.029084 -0.040374 -0.021601 0.040945 0.055487 -0.028536 0.098571 0.124594 -0.043285 0.011216 -0.061924 0.054567 -0.144002 0.010893 -0.029184 0.006053 -0.008130 0.080575 0.042438 -0.028310 0.088932 -0.030830 -0.163295 0.042049 -0.057626
600 -0.019972 0.237733 0.084274 0.021923 -0.038741 0.056712 -0.050992 -0.058083 -0.107080 0.027323 -0.035748 0.003874 -0.020466 -0.055480 0.174149 -0.052661 0.005129 0.036009 -0.088981 -0.031917 0.001284 -0.078132 -0.056390 0.061862 0.069301 -0.019897 0.074878 0.125752 -0.039039 0.015085 -0.036249 0.011037 -0.130475 0.037652 -0.027492 -0.000597 0.037528 0.024404 0.036987 0.004632 0.078640 -0.020289 -0.096366 0.040081 -0.025723
599 -0.010758 0.233383 0.089858 0.022844 -0.005396 0.081700 -0.077910 -0.032464 -0.106538 0.035185 -0.019450 -0.001049 -0.023430 -0.040172 0.147629 -0.057394 0.038303 0.043410 -0.095282 -0.044964 0.039733 -0.087492 -0.053687 0.049046 0.067773 -0.014946 0.069597 0.116239 -0.047970 0.025218 0.008769 0.021924 -0.122113 0.043718 -0.032113 0.004684 0.049835 0.030043 0.074574 0.016988 0.087382 -0.033051 -0.129016 0.050099 -0.015663
553 -0.068391 0.172211 0.098543 0.009906 -0.027784 0.057736 -0.036030 -0.021811 -0.110217 0.022528 -0.018102 0.021936 -0.020085 -0.063526 0.159521 -0.016594 0.004320 0.084165 0.000769 -0.055348 0.027299 -0.075729 -0.017497 0.025373 0.002861 -0.036070 0.128979 0.096226 -0.073945 0.029313 -0.015951 0.033185 -0.104467 0.021960 -0.009131 -0.000147 0.000478 0.062164 0.053221 -0.063877 0.082315 -0.029044 -0.162919 0.046050 -0.090626
407 -0.014730 0.245831 0.116223 0.046637 -0.026217 0.071808 -0.067301 -0.041686 -0.127992 0.041886 -0.039950 0.019376 -0.051362 -0.049258 0.161747 -0.051236 0.022278 0.037881 -0.066688 -0.059523 0.037509 -0.066505 -0.012029 0.050840 0.055166 -0.037399 0.103050 0.135225 -0.046036 0.007311 -0.033896 0.049835 -0.153752 0.045750 -0.003997 -0.007257 0.029809 0.037780 0.085727 -0.004322 0.105337 -0.036394 -0.157427 0.053454 -0.035973
721 -0.042499 0.222194 0.124077 0.021688 -0.003988 0.083651 -0.044482 -0.004651 -0.137843 0.037923 -0.036734 0.030006 -0.082095 -0.047907 0.163517 -0.041647 0.033219 0.052160 -0.033966 -0.047188 0.044859 -0.072592 -0.004309 0.010181 0.038397 -0.021753 0.125655 0.108762 -0.060356 0.033231 -0.003856 0.063768 -0.136244 0.055693 -0.029143 0.002511 -0.003136 0.038359 0.092693 -0.036698 0.101092 -0.040832 -0.158696 0.094335 -0.046594
483 -0.060219 0.226335 0.086010 0.012676 -0.042183 0.072949 -0.034311 -0.043963 -0.106133 0.050451 -0.052431 0.029599 -0.056413 -0.038740 0.184685 -0.031521 0.005877 0.047757 -0.047337 -0.052005 0.015338 -0.064180 -0.042176 0.024115 0.049376 -0.027313 0.102825 0.111874 -0.067525 0.029797 -0.036108 0.060806 -0.121398 0.028687 -0.046458 0.029786 -0.008516 0.036349 0.042779 -0.034641 0.088355 -0.039907 -0.129580 0.089154 -0.060377
714 -0.021367 0.234457 0.122975 0.031692 -0.065960 0.071446 -0.040075 -0.062238 -0.123168 0.060263 -0.046791 0.026480 -0.095312 -0.013590 0.145033 -0.030504 0.034515 0.033514 -0.065244 -0.055857 0.062584 -0.038591 -0.044609 0.039894 0.066224 -0.016807 0.088443 0.118195 -0.052321 0.028550 -0.039832 0.073510 -0.154556 0.037276 -0.045611 0.028392 -0.017040 0.069118 0.080581 0.015681 0.107722 -0.047025 -0.156031 0.088141 -0.035646
460 -0.016524 0.212706 0.117759 0.026785 -0.006567 0.075027 -0.080193 -0.020485 -0.115999 0.056875 -0.026664 -0.011917 -0.054569 -0.037883 0.122667 -0.032244 0.009425 0.022776 -0.040701 -0.058062 0.034316 -0.047775 -0.002366 0.036773 0.030386 -0.013717 0.095546 0.120041 -0.032358 -0.003765 -0.013748 0.041908 -0.133577 0.063115 0.021944 -0.032129 0.025359 0.010142 0.101439 -0.016568 0.117440 -0.057215 -0.131712 0.042977 -0.017766
691 -0.046484 0.210740 0.087792 0.033220 -0.016344 0.071504 -0.056603 -0.039164 -0.091989 0.031266 -0.052968 0.015149 -0.035338 -0.044864 0.154771 -0.046050 0.032130 0.024545 -0.038493 -0.052977 0.013287 -0.048105 -0.028716 0.034577 0.046999 -0.037159 0.084198 0.100233 -0.049752 0.014067 -0.004180 0.049224 -0.118054 0.030849 -0.031476 0.027051 0.008037 0.023389 0.068421 -0.026104 0.103533 -0.043432 -0.113101 0.063750 -0.041958
606 -0.046500 0.218140 0.128567 0.022878 -0.022271 0.061095 -0.049472 -0.048300 -0.113055 0.025382 -0.021328 0.009913 -0.032172 -0.039443 0.156719 -0.025355 -0.005762 0.062669 -0.034282 -0.048055 0.029010 -0.081665 -0.040126 0.044919 0.028386 -0.014823 0.102678 0.098846 -0.051897 0.019998 -0.022100 0.031863 -0.134800 0.021845 -0.017986 0.016790 0.010106 0.040579 0.077625 -0.052227 0.122734 -0.024062 -0.156978 0.057001 -0.054355
669 -0.032216 0.233751 0.125214 0.043128 -0.037291 0.067301 -0.050095 -0.052314 -0.137597 0.038388 -0.048220 0.010111 -0.048991 -0.045518 0.162772 -0.056241 0.012859 0.033846 -0.055582 -0.048695 0.036842 -0.071275 -0.022922 0.058822 0.062497 -0.050002 0.120391 0.144616 -0.042777 0.009523 -0.052988 0.046193 -0.145359 0.059193 0.000809 -0.001903 0.024217 0.029646 0.073167 -0.017960 0.098570 -0.031867 -0.144906 0.048333 -0.057803
708 -0.009619 0.235759 0.127251 0.038658 -0.051120 0.055643 -0.024543 -0.048899 -0.140213 0.061086 -0.052007 0.038132 -0.103323 -0.041487 0.177049 -0.065602 0.018458 0.032901 -0.065234 -0.043686 0.043507 -0.058762 -0.011478 0.034399 0.074217 -0.032516 0.106089 0.118906 -0.027585 0.016622 -0.031148 0.077723 -0.133826 0.077583 -0.007405 0.017360 0.021900 0.037092 0.080441 0.001827 0.086730 -0.037434 -0.116905 0.066808 -0.029496
732 -0.045879 0.195777 0.088523 0.018078 -0.038371 0.069078 -0.043387 -0.031308 -0.099763 0.032829 -0.075235 0.041346 -0.036444 -0.044128 0.160079 -0.049231 0.017640 0.008701 -0.032425 -0.054648 0.020633 -0.034173 -0.003139 0.022412 0.043122 -0.057799 0.092045 0.116452 -0.069992 0.013113 -0.041090 0.065817 -0.126175 0.038817 -0.033343 -0.003615 0.002963 0.033632 0.040690 -0.023667 0.058227 -0.052069 -0.131684 0.061848 -0.049758
569 -0.029452 0.215479 0.088416 0.027229 -0.035828 0.069468 -0.028631 -0.046633 -0.113411 0.007180 -0.039536 0.011444 -0.086771 -0.032286 0.151468 -0.026579 0.038763 0.039387 -0.069407 -0.036323 0.027342 -0.058367 -0.057120 0.031785 0.059762 -0.002421 0.072233 0.079914 -0.041824 0.024470 -0.026615 0.043798 -0.108290 0.032910 -0.054639 0.019702 0.001222 0.023675 0.052065 -0.008881 0.082740 -0.028630 -0.100918 0.097025 -0.009664
728 -0.041798 0.192557 0.104625 0.035655 -0.046108 0.064154 -0.023581 -0.040748 -0.098830 0.060137 -0.040465 0.032162 -0.038559 -0.046265 0.165214 -0.050023 0.019061 0.030322 -0.041073 -0.053472 0.019907 -0.046938 0.009690 0.025505 0.033611 -0.044582 0.100802 0.122835 -0.067295 0.025135 -0.025376 0.077372 -0.124270 0.037028 -0.027855 0.010628 0.000641 0.042807 0.045656 -0.016100 0.078840 -0.048056 -0.120071 0.050480 -0.058167
655 -0.043360 0.208066 0.110860 0.019519 -0.029308 0.076178 -0.052598 -0.033124 -0.112371 0.048343 -0.038223 0.016990 -0.034383 -0.028346 0.164457 -0.029502 0.013703 0.031044 -0.045155 -0.044274 0.041898 -0.072287 -0.023291 0.045618 0.035155 -0.030548 0.111975 0.117413 -0.052085 0.022604 -0.021254 0.054208 -0.134003 0.039909 -0.023249 0.025162 0.012342 0.034340 0.080100 -0.030804 0.101189 -0.047591 -0.142010 0.067680 -0.033403
733 -0.022752 0.222565 0.107956 0.006030 -0.051808 0.069379 -0.047407 -0.056885 -0.126509 0.048096 -0.041107 0.022591 -0.059447 -0.043302 0.181231 -0.035204 0.007608 0.040065 -0.067686 -0.044989 0.018782 -0.063412 -0.045618 0.053597 0.054292 -0.028502 0.095747 0.123259 -0.045350 0.026003 -0.044566 0.036948 -0.132777 0.050456 -0.017356 -0.011574 0.009751 0.029418 0.054527 -0.006985 0.094131 -0.036334 -0.131552 0.077118 -0.033404
735 -0.057898 0.206231 0.077080 0.026910 -0.023088 0.054479 -0.044228 -0.044478 -0.102167 0.030146 -0.058641 0.031555 -0.052340 -0.030054 0.158345 -0.041030 0.036178 0.037718 -0.043508 -0.045376 0.031717 -0.056035 -0.030207 0.028398 0.053016 -0.035105 0.101399 0.108696 -0.056243 0.026221 -0.032348 0.054327 -0.129194 0.043045 -0.045717 0.010174 0.002248 0.034670 0.059840 -0.021208 0.082009 -0.035919 -0.141704 0.078541 -0.043379
552 -0.062566 0.228145 0.119971 0.028336 -0.052628 0.067688 -0.058993 -0.034936 -0.126460 0.061252 -0.048684 0.032945 -0.027980 -0.056787 0.204701 -0.063079 -0.007585 0.045681 -0.043780 -0.059522 0.036693 -0.068637 -0.016393 0.046391 0.042598 -0.066545 0.143115 0.155722 -0.082122 0.030590 -0.046178 0.062780 -0.169568 0.053776 -0.015398 0.004329 -0.001140 0.055664 0.072261 -0.033475 0.102415 -0.050775 -0.173064 0.052369 -0.079060
529 -0.068522 0.223632 0.108221 0.020565 -0.038374 0.060400 -0.044378 -0.045695 -0.115684 0.037074 -0.051482 0.041032 -0.052212 -0.058264 0.176827 -0.037198 0.027539 0.056752 -0.017425 -0.054685 0.048099 -0.065599 -0.029706 0.015894 0.038367 -0.033547 0.110335 0.134741 -0.075025 0.028743 -0.039669 0.055738 -0.148154 0.038872 -0.024951 0.002111 -0.007528 0.060363 0.048680 -0.030280 0.096309 -0.042258 -0.164458 0.053326 -0.081810
690 -0.034738 0.227358 0.087922 0.025228 -0.033397 0.072237 -0.045620 -0.045984 -0.108422 0.038713 -0.053828 0.020470 -0.061190 -0.040336 0.162558 -0.035601 0.046733 0.031305 -0.056700 -0.064379 0.043020 -0.059066 -0.045516 0.040990 0.049274 -0.022706 0.097178 0.108217 -0.064595 0.033391 -0.018171 0.048134 -0.118157 0.049745 -0.047811 0.022506 0.006464 0.034172 0.058376 -0.005514 0.085739 -0.036239 -0.136298 0.072809 -0.038771
280 -0.027955 0.181598 0.101230 0.026953 -0.045252 0.042721 -0.026813 -0.023103 -0.101775 0.050880 -0.047017 0.032660 -0.057552 -0.046131 0.138112 -0.040291 0.024248 0.029330 -0.024392 -0.054220 0.032531 -0.029944 0.000949 0.006147 0.029306 -0.042478 0.080464 0.099700 -0.041846 0.027337 -0.034627 0.053259 -0.110342 0.039880 -0.025113 -0.004995 0.004817 0.046540 0.047420 -0.006699 0.075857 -0.035435 -0.132061 0.057357 -0.052383
482 -0.031690 0.216114 0.092472 0.013458 -0.038673 0.057800 -0.053876 -0.039830 -0.109001 0.041145 -0.047183 0.031388 -0.066173 -0.034582 0.170054 -0.046676 0.028753 0.044558 -0.052185 -0.059336 0.036015 -0.064660 -0.026623 0.033483 0.053485 -0.024324 0.108672 0.130179 -0.050355 0.044395 -0.031613 0.057420 -0.129070 0.051351 -0.031200 0.017943 0.008301 0.050507 0.052904 -0.002653 0.086281 -0.036890 -0.149481 0.055446 -0.048430
720 -0.044124 0.235270 0.138154 0.027767 -0.065678 0.055005 -0.023422 -0.040768 -0.143443 0.078512 -0.062044 0.064097 -0.100274 -0.042991 0.178931 -0.026207 0.010995 0.053324 -0.032588 -0.060190 0.053595 -0.047861 -0.001038 0.006222 0.031070 -0.045994 0.114242 0.126539 -0.060959 0.033139 -0.059568 0.076919 -0.149449 0.055280 -0.026979 0.003779 -0.011299 0.069717 0.076320 -0.012597 0.113110 -0.043162 -0.165364 0.065136 -0.063262
731 -0.041509 0.264626 0.121761 0.017703 -0.052187 0.068462 -0.045486 -0.058311 -0.119982 0.069119 -0.080643 0.050073 -0.068420 -0.036816 0.193591 -0.057785 0.013220 0.035164 -0.053318 -0.061797 0.047299 -0.061607 -0.027568 0.045231 0.068400 -0.044507 0.103758 0.145078 -0.059712 0.021667 -0.057696 0.071585 -0.159938 0.033978 -0.049046 0.015166 -0.003080 0.061197 0.045943 -0.015221 0.087377 -0.038577 -0.158733 0.066227 -0.067063
717 -0.046065 0.194352 0.113389 0.019122 -0.052944 0.066065 -0.033594 -0.035700 -0.111926 0.044453 -0.034285 0.019194 -0.049164 -0.035686 0.161167 -0.039218 0.008226 0.027114 -0.033790 -0.051407 0.025553 -0.036500 -0.009869 0.028705 0.048958 -0.046366 0.109260 0.117072 -0.061917 0.010934 -0.031001 0.055108 -0.124463 0.046252 -0.010321 -0.008041 0.010741 0.044278 0.052782 -0.011502 0.082108 -0.035748 -0.130426 0.058320 -0.057641
576 -0.016723 0.210357 0.091103 0.007652 -0.031498 0.072327 -0.053096 -0.033545 -0.109372 0.047789 -0.044973 0.024500 -0.077576 -0.021430 0.159228 -0.048273 0.014546 0.020271 -0.080463 -0.043640 0.027161 -0.076729 -0.037281 0.037234 0.064547 -0.018486 0.087476 0.106257 -0.049352 0.036229 -0.016731 0.058047 -0.128614 0.066831 -0.039695 0.012769 0.013806 0.023278 0.061182 0.007551 0.106757 -0.036610 -0.117390 0.070420 -0.026293
439 -0.062504 0.216217 0.121435 0.010059 -0.038832 0.065561 -0.059292 -0.032553 -0.122055 0.052658 -0.035537 0.044163 -0.037173 -0.041376 0.181862 -0.035020 0.017243 0.059317 -0.031958 -0.070393 0.033091 -0.044794 -0.012758 0.028065 0.017202 -0.058372 0.115156 0.116313 -0.080087 0.032827 -0.036284 0.064861 -0.141536 0.038565 -0.016959 0.009630 0.001691 0.058356 0.060905 -0.037409 0.110768 -0.044474 -0.161844 0.054397 -0.067751
712 -0.050540 0.232942 0.126114 0.035091 -0.044435 0.067742 -0.050542 -0.044061 -0.131166 0.047513 -0.050413 0.031857 -0.043312 -0.045345 0.191370 -0.056057 0.013754 0.046258 -0.049832 -0.051189 0.043324 -0.056034 -0.011570 0.031322 0.053470 -0.055196 0.130604 0.140551 -0.069524 0.024618 -0.025176 0.072492 -0.153099 0.039543 -0.032098 0.009475 0.007323 0.063768 0.075803 -0.029627 0.098820 -0.043606 -0.163285 0.064707 -0.065617
713 -0.048298 0.234992 0.089974 0.014860 -0.046291 0.075944 -0.046529 -0.020787 -0.115708 0.048492 -0.078220 0.024114 -0.052543 -0.040174 0.177566 -0.036513 0.013530 0.018048 -0.036618 -0.064049 0.013274 -0.055443 -0.014503 0.031028 0.038911 -0.053459 0.109638 0.129948 -0.071374 0.022260 -0.041045 0.072371 -0.142060 0.043027 -0.025448 -0.005313 0.002492 0.017924 0.062807 -0.030314 0.093050 -0.055260 -0.137639 0.077956 -0.047104
729 -0.035081 0.212055 0.108108 0.025473 -0.035564 0.061561 -0.037178 -0.028898 -0.112647 0.037331 -0.042347 0.022620 -0.054197 -0.042700 0.163991 -0.030326 0.003991 0.035437 -0.035755 -0.057081 0.022424 -0.047126 -0.025398 0.020056 0.035347 -0.038151 0.109408 0.115184 -0.067275 0.018224 -0.042791 0.040986 -0.127943 0.047734 -0.015652 -0.003595 0.003917 0.040924 0.064274 -0.027936 0.089780 -0.033401 -0.141252 0.054201 -0.057895
372 -0.032780 0.220911 0.097324 0.026197 -0.030618 0.061767 -0.045145 -0.029755 -0.108493 0.036286 -0.051613 0.030862 -0.064110 -0.043022 0.154989 -0.035808 0.027312 0.018842 -0.066154 -0.050094 0.025810 -0.044626 -0.034246 0.036090 0.059515 -0.028214 0.077178 0.113380 -0.047992 0.016329 -0.026233 0.054708 -0.132576 0.050531 -0.036301 0.016754 0.018845 0.016539 0.051578 -0.004664 0.097334 -0.042524 -0.106475 0.060287 -0.016067
393 -0.030241 0.249405 0.110121 0.025479 -0.039634 0.062950 -0.042809 -0.048260 -0.116093 0.034568 -0.059524 0.032412 -0.071050 -0.044517 0.159899 -0.051133 0.035341 0.034928 -0.060780 -0.065156 0.036495 -0.053926 -0.026585 0.022060 0.070711 -0.035580 0.092780 0.129759 -0.054700 0.010923 -0.026975 0.069294 -0.132867 0.055665 -0.037948 0.015180 0.007689 0.036941 0.071960 -0.004463 0.104396 -0.046094 -0.138006 0.068133 -0.026887
716 -0.038355 0.270297 0.133099 0.025079 -0.053344 0.079412 -0.044117 -0.060356 -0.150123 0.058495 -0.059360 0.026165 -0.070154 -0.064582 0.213548 -0.050627 0.016698 0.056818 -0.069659 -0.048125 0.052711 -0.073161 -0.030402 0.041562 0.063271 -0.040066 0.140155 0.160410 -0.069065 0.036174 -0.031285 0.070691 -0.166883 0.049733 -0.015265 0.020934 0.016139 0.062340 0.089347 -0.014224 0.105051 -0.040978 -0.172855 0.076933 -0.065033
734 -0.056289 0.237869 0.104084 0.013869 -0.043274 0.076980 -0.050813 -0.046143 -0.125900 0.043281 -0.058383 0.033123 -0.060809 -0.043319 0.186186 -0.039124 0.015248 0.039567 -0.036193 -0.054898 0.023055 -0.055597 -0.042305 0.030759 0.062620 -0.038449 0.125498 0.129962 -0.063039 0.032810 -0.034317 0.056749 -0.133272 0.040561 -0.045925 0.018768 -0.011331 0.029866 0.068165 -0.038662 0.089965 -0.055899 -0.134165 0.084079 -0.059343
730 -0.060218 0.244581 0.128664 0.014435 -0.034071 0.076156 -0.058205 -0.051720 -0.122881 0.053184 -0.044278 0.015886 -0.055068 -0.055767 0.186795 -0.041918 0.008928 0.031796 -0.056307 -0.052565 0.035516 -0.065378 -0.045076 0.032343 0.053811 -0.028923 0.107545 0.134647 -0.074616 0.029659 -0.042816 0.054770 -0.155244 0.060189 -0.019833 0.004395 0.016125 0.027594 0.070795 -0.028491 0.120157 -0.042734 -0.153627 0.066067 -0.056188
505 -0.055303 0.231035 0.101378 0.023500 -0.032593 0.078879 -0.041438 -0.043650 -0.122008 0.042143 -0.054342 0.026977 -0.058411 -0.035839 0.170408 -0.045049 0.019291 0.030799 -0.058699 -0.057491 0.031965 -0.060048 -0.034002 0.024112 0.056538 -0.029865 0.099363 0.109573 -0.072380 0.033985 -0.012631 0.066722 -0.132206 0.047516 -0.038594 0.027308 0.001566 0.033505 0.068154 -0.033614 0.091717 -0.043116 -0.135639 0.094695 -0.048543
718 -0.036315 0.198941 0.107290 0.026871 -0.018824 0.066063 -0.049092 -0.036909 -0.101978 0.041195 -0.029197 0.004871 -0.047531 -0.029283 0.151063 -0.038522 0.004826 0.026454 -0.053633 -0.055539 0.033449 -0.072208 -0.041109 0.045030 0.052636 -0.016613 0.104442 0.097963 -0.047406 0.016157 -0.021673 0.049985 -0.116120 0.047307 -0.007830 -0.003153 0.020044 0.027010 0.081617 -0.032465 0.108844 -0.037158 -0.131758 0.055065 -0.040698
736 -0.006690 0.065854 0.031295 0.009014 -0.012959 0.017665 -0.016394 -0.018885 -0.031361 0.015920 -0.023260 0.014636 -0.007539 -0.008451 0.061151 -0.019149 0.000519 0.010538 -0.006690 -0.016526 0.008080 -0.014136 -0.001927 0.012852 0.001144 -0.005747 0.041062 0.044754 -0.025678 -0.000659 -0.011878 0.014593 -0.033762 0.013781 -0.002121 0.001974 -0.008725 -0.000988 0.017067 -0.020007 0.038491 -0.009667 -0.036272 0.022895 -0.026670
724 -0.033635 0.133439 0.066892 0.008032 -0.022139 0.036139 -0.021944 -0.028827 -0.077047 0.028050 -0.030496 0.010069 -0.040612 -0.035571 0.109958 -0.020895 -0.001694 0.019448 -0.033873 -0.023761 0.011007 -0.037158 -0.015479 0.019603 0.023218 -0.011112 0.068102 0.079262 -0.039205 0.018378 -0.018060 0.026042 -0.085850 0.027021 -0.021251 0.002172 -0.002622 0.028080 0.037020 -0.022846 0.057623 -0.019688 -0.096504 0.037934 -0.025171
715 -0.003474 0.098816 0.042433 0.016935 -0.009694 0.043310 -0.032808 -0.023466 -0.058743 0.011590 -0.012707 0.008565 -0.023388 -0.021580 0.079799 -0.015114 0.006180 0.019766 -0.033013 -0.012753 0.005060 -0.026955 -0.012320 0.012679 0.029350 -0.018410 0.043959 0.055088 -0.028729 0.018597 -0.008931 0.013472 -0.052157 0.009528 -0.013515 -0.003534 0.009101 0.004940 0.031821 -0.002925 0.044175 -0.011975 -0.049726 0.041657 -0.010974
