65 35
723 0.038359 0.086300 -0.002314 -0.043512 -0.037866 -0.010391 0.069804 -0.112447 -0.006518 0.126706 0.057211 0.039652 -0.031256 0.157533 -0.086263 0.005425 0.048227 -0.063859 -0.055112 0.006113 0.021639 -0.021093 -0.033228 -0.064754 0.076975 -0.080032 0.017070 0.077483 -0.053291 0.031394 -0.012758 0.059413 0.214068 0.006965 -0.012749
702 0.028432 0.147686 -0.017332 -0.134385 0.005898 -0.111644 0.120426 -0.116225 -0.117790 0.128325 0.030233 -0.018689 0.002479 0.204533 -0.037660 0.024116 0.068437 -0.129788 -0.023477 -0.008006 0.042090 -0.079769 -0.092190 -0.070347 0.074422 -0.109819 0.007883 0.111717 -0.027087 0.054689 -0.023278 0.054936 0.195170 -0.005747 0.004356
719 0.035548 0.161747 0.000631 -0.094842 -0.063199 -0.093254 0.061391 -0.103058 -0.124296 0.137286 0.027423 0.013299 -0.023420 0.208213 -0.049567 0.023558 0.016794 -0.115246 -0.082150 -0.063514 0.069275 -0.045637 -0.037217 -0.074907 0.081341 -0.108325 -0.031235 0.038097 -0.062364 0.091406 0.021412 0.083432 0.193947 -0.029265 0.045561
633 0.047559 0.105761 0.001949 -0.103553 -0.003527 -0.094944 0.087587 -0.097998 -0.072255 0.117143 0.022388 0.038199 -0.033462 0.187867 -0.073054 0.032179 0.035021 -0.101943 -0.023530 -0.004541 0.025280 -0.072356 -0.052896 -0.064760 0.042147 -0.084292 0.003557 0.103579 -0.037928 0.052370 -0.011907 0.070715 0.193674 0.016194 0.003171
656 -0.011283 0.092561 -0.024577 -0.105224 -0.019643 -0.042512 0.051403 -0.105272 -0.058605 0.126160 0.011369 0.051073 0.013006 0.160703 -0.077327 -0.010058 0.058163 -0.073815 -0.029698 0.049842 0.004273 -0.022854 -0.071396 -0.043545 0.055766 -0.061032 0.006250 0.073764 -0.030274 0.066131 -0.036303 0.043238 0.205936 -0.026623 -0.038937
657 0.014869 0.111227 0.003703 -0.110950 -0.043920 -0.095214 0.075855 -0.112758 -0.102872 0.117253 0.028500 0.027650 -0.015128 0.172632 -0.057032 0.032132 0.043802 -0.097912 -0.056134 -0.032032 0.044201 -0.047943 -0.056601 -0.065933 0.064727 -0.070468 -0.003502 0.046432 -0.017114 0.105365 0.002196 0.098867 0.209573 -0.013789 0.036274
681 0.013895 0.091818 0.010097 -0.103432 -0.033348 -0.087466 0.022227 -0.105604 -0.088277 0.105069 0.039604 0.044730 0.001857 0.174387 -0.040168 0.001105 0.036301 -0.091571 -0.078896 -0.029840 0.058721 -0.045202 -0.062401 -0.039214 0.058503 -0.065221 -0.013848 0.036235 -0.050737 0.107471 0.010043 0.082249 0.195983 0.002827 0.040915
660 0.024512 0.089308 -0.017985 -0.115392 -0.036145 -0.070022 0.080948 -0.123041 -0.038984 0.132839 0.031903 0.058712 -0.010573 0.170340 -0.081936 0.013345 0.046466 -0.092305 -0.043441 0.028201 0.035088 -0.047527 -0.046505 -0.060420 0.057189 -0.081004 0.013969 0.070796 -0.017880 0.052333 -0.012631 0.074887 0.208455 0.004788 -0.023194
132 -0.000703 0.105473 -0.017388 -0.074163 -0.044240 -0.056914 0.104798 -0.149409 -0.066829 0.158538 0.024415 0.046625 0.053286 0.159835 -0.080514 -0.030079 0.063689 -0.095900 -0.032590 0.076215 0.024461 -0.001216 -0.064628 -0.076054 0.080382 -0.101433 0.034001 0.074725 -0.023838 0.051681 -0.028591 0.056610 0.208614 -0.039179 -0.052756
659 0.002560 0.098997 -0.030135 -0.128067 -0.025660 -0.114623 0.068085 -0.115515 -0.123741 0.105879 0.057825 -0.022574 -0.004055 0.169985 -0.024982 0.055863 0.033591 -0.099329 -0.086601 -0.056391 0.071097 -0.039206 -0.042261 -0.041627 0.051224 -0.071419 -0.034504 0.030321 -0.030349 0.103225 -0.027219 0.060775 0.171904 -0.028056 0.032219
577 -0.028088 0.063699 -0.058278 -0.181273 0.014200 -0.096979 0.088869 -0.124627 -0.086808 0.121990 -0.002737 0.016209 0.050181 0.144540 -0.039262 0.023598 0.084451 -0.090316 0.004085 0.069063 0.003124 -0.019166 -0.079850 -0.017215 0.019902 -0.050722 0.027722 0.072131 0.026484 0.060795 -0.065509 0.028886 0.185366 -0.066234 -0.061107
644 -0.005354 0.072953 -0.012607 -0.169627 -0.030058 -0.097575 0.034085 -0.124762 -0.065144 0.149339 0.005476 0.090467 -0.004094 0.187016 -0.066527 0.014557 0.053224 -0.089714 -0.079786 0.023893 0.030606 -0.024176 -0.040547 -0.024937 0.019702 -0.064504 0.000681 0.028717 -0.018991 0.074473 -0.009902 0.047991 0.192617 -0.029859 -0.037125
725 0.011602 0.092689 -0.008748 -0.091949 -0.003190 -0.042996 0.047314 -0.100832 -0.041292 0.147756 -0.000876 0.036199 0.008787 0.179296 -0.066371 -0.040294 0.063944 -0.099782 -0.035384 0.044674 0.010780 -0.032161 -0.052427 -0.016291 0.041926 -0.077652 0.019343 0.077993 -0.043413 0.021000 -0.014383 0.031503 0.206118 -0.009494 -0.039783
710 0.033039 0.104287 0.006495 -0.091712 -0.024057 -0.067286 0.039602 -0.105172 -0.049183 0.155026 0.004905 0.052300 0.025676 0.202392 -0.046135 -0.036880 0.060772 -0.099809 -0.067307 0.024327 0.037449 -0.024611 -0.044469 -0.057303 0.068328 -0.108576 0.012905 0.063738 -0.057257 0.025572 -0.000395 0.028718 0.185615 -0.027635 -0.035577
707 0.018658 0.092625 -0.015796 -0.153876 0.014271 -0.141963 0.134917 -0.140276 -0.099211 0.123519 0.055640 0.008512 -0.000221 0.203498 -0.044530 0.055186 0.070347 -0.116093 -0.029637 0.025195 0.040389 -0.050929 -0.103427 -0.085456 0.071030 -0.094058 0.008340 0.127055 -0.018154 0.071963 -0.045492 0.049504 0.204908 -0.001772 -0.014579
572 0.010473 0.139001 -0.051671 -0.112064 -0.037474 -0.091800 0.071659 -0.104441 -0.092254 0.122938 0.069493 -0.024296 -0.024183 0.197659 -0.094756 0.041883 0.040982 -0.098574 -0.074916 0.001917 0.060285 -0.059822 -0.052289 -0.096857 0.124606 -0.082949 -0.037779 0.075854 -0.056034 0.088216 -0.057586 0.075846 0.223813 -0.004455 0.019227
506 -0.007080 0.087374 -0.020260 -0.190131 0.022116 -0.129385 0.077865 -0.118968 -0.122950 0.156740 -0.029040 0.025886 0.048834 0.204576 -0.007733 0.021661 0.088146 -0.104114 -0.032093 0.044183 0.006764 -0.041544 -0.096269 -0.032706 0.012395 -0.072720 0.019038 0.081570 0.005073 0.061156 -0.045040 0.012802 0.180521 -0.073341 -0.060944
722 0.036235 0.079919 -0.006091 -0.140970 -0.005606 -0.057427 0.116985 -0.116414 -0.022991 0.125364 0.019502 0.057361 -0.019670 0.166041 -0.074212 0.022188 0.060570 -0.101909 -0.001835 0.024205 0.015158 -0.049308 -0.063038 -0.047007 0.033107 -0.087720 0.034227 0.106154 -0.011670 0.004329 -0.012841 0.058676 0.201032 0.015338 -0.058398
686 -0.008858 0.077934 -0.057705 -0.171304 -0.010184 -0.102269 0.102050 -0.124168 -0.094089 0.126761 0.021993 -0.008870 0.010445 0.149596 -0.043386 0.054171 0.069172 -0.085368 -0.011252 0.033193 0.001828 -0.045957 -0.074649 -0.027432 0.041203 -0.075556 0.009584 0.078274 0.015891 0.052485 -0.047794 0.041175 0.187629 -0.029790 -0.034818
351 0.009913 0.062629 0.008290 -0.119002 0.016513 -0.089612 0.039746 -0.110124 -0.057839 0.119466 0.001226 0.061043 0.009694 0.152340 -0.045477 0.004872 0.045610 -0.073211 -0.037945 0.023557 0.004156 -0.030024 -0.038246 -0.014326 0.003561 -0.057218 0.018384 0.049936 -0.021179 0.052624 -0.004752 0.029774 0.155073 -0.031673 -0.024400
634 0.026583 0.104671 0.000112 -0.120957 -0.005477 -0.094589 0.105495 -0.087848 -0.084831 0.105837 0.025809 -0.007554 -0.003171 0.157841 -0.026049 0.037930 0.033351 -0.103205 -0.023894 -0.006404 0.047076 -0.067542 -0.077682 -0.068889 0.043950 -0.089301 -0.007535 0.087173 0.000445 0.034483 -0.010379 0.052060 0.131597 0.009490 -0.004545
726 0.001607 0.077728 0.004163 -0.079154 -0.022553 -0.072460 0.089941 -0.133224 -0.059419 0.140272 0.028700 0.051868 0.047545 0.159193 -0.057137 -0.029272 0.067748 -0.091429 -0.049485 0.063577 0.029732 -0.038247 -0.096169 -0.070293 0.061592 -0.077119 0.030521 0.082168 -0.010833 0.062960 -0.022490 0.056350 0.195185 -0.005104 -0.042532
727 0.007585 0.118644 -0.037199 -0.122538 -0.043952 -0.066298 0.050633 -0.090940 -0.112607 0.150288 -0.017281 0.016288 0.009444 0.164980 -0.055471 0.026942 0.045083 -0.076071 -0.048279 0.000040 -0.000984 -0.041792 -0.031727 -0.044377 0.040892 -0.062109 -0.007621 0.036095 0.007089 0.073564 -0.006090 0.055814 0.175094 -0.064766 -0.009268
624 0.007878 0.095027 -0.013180 -0.124028 -0.024004 -0.100414 0.087497 -0.125074 -0.075517 0.129955 0.028533 0.059251 0.027782 0.176302 -0.070838 -0.001991 0.038916 -0.115241 -0.035142 0.043447 0.053920 -0.041367 -0.074338 -0.059133 0.051495 -0.103042 0.007293 0.083245 -0.032379 0.059499 -0.032864 0.079095 0.197774 -0.007069 -0.024308
600 0.028687 0.077459 -0.008486 -0.072681 -0.004104 -0.069019 0.044393 -0.091150 -0.052519 0.128130 0.053602 0.016973 0.002488 0.175747 -0.066005 -0.007520 0.036463 -0.084993 -0.052375 -0.003179 0.049776 -0.029939 -0.047757 -0.055374 0.081227 -0.077896 0.014022 0.066083 -0.078440 0.054774 -0.039329 0.043743 0.203156 0.016391 0.011523
599 0.024997 0.118392 -0.001216 -0.079488 -0.003647 -0.085892 0.008683 -0.088292 -0.108404 0.132284 0.048171 0.004279 0.005293 0.213315 -0.056799 -0.022846 0.022591 -0.103731 -0.095945 -0.000536 0.071042 -0.056779 -0.043896 -0.062346 0.089624 -0.052061 -0.022211 0.068415 -0.072267 0.082511 -0.024964 0.066360 0.205012 0.004693 0.036550
553 0.005019 0.112507 -0.001824 -0.144344 -0.023557 -0.129083 0.042546 -0.110725 -0.140122 0.120706 -0.005546 0.060590 0.022512 0.173588 -0.034782 0.036819 0.024191 -0.086060 -0.067008 0.009814 0.036607 -0.052717 -0.056317 -0.054034 0.028422 -0.055664 -0.017266 0.045731 -0.010021 0.112020 -0.004422 0.053483 0.151407 -0.063059 -0.001411
407 0.005400 0.090005 -0.009521 -0.137913 -0.033574 -0.087710 0.065935 -0.131435 -0.068742 0.169356 0.032196 0.068208 0.007332 0.185204 -0.063599 0.013757 0.062314 -0.095602 -0.065316 0.010027 0.028649 -0.039217 -0.060208 -0.045049 0.038794 -0.091632 0.027016 0.064932 -0.034429 0.064277 -0.011448 0.070064 0.226802 -0.011233 -0.023567
721 0.015273 0.121730 0.039462 -0.099084 -0.012400 -0.115733 0.050865 -0.130104 -0.114049 0.148124 0.036549 0.073487 0.021105 0.207397 -0.046004 -0.017891 0.044608 -0.113663 -0.113274 0.023014 0.055867 -0.072206 -0.058360 -0.071695 0.041732 -0.075339 0.002187 0.071070 -0.032145 0.090946 0.006794 0.083130 0.177882 -0.026562 -0.009881
483 0.036651 0.102302 0.025619 -0.152432 -0.038563 -0.089377 0.019792 -0.119150 -0.077358 0.164264 -0.015656 0.091812 -0.010311 0.225495 -0.042746 -0.001493 0.066435 -0.087386 -0.081791 0.002694 0.019019 -0.033989 -0.049452 -0.043197 0.010818 -0.072507 0.011430 0.047019 -0.031033 0.078101 0.026764 0.065179 0.216445 -0.038615 -0.002051
714 -0.005719 0.110804 -0.012871 -0.185344 -0.024871 -0.112848 0.058312 -0.147578 -0.096070 0.181203 -0.011397 0.096939 0.022890 0.198518 -0.048092 0.004812 0.048685 -0.117926 -0.085573 0.032074 0.018931 -0.028856 -0.048523 -0.020526 0.001908 -0.095425 0.032759 0.052285 -0.023205 0.067274 0.011543 0.052597 0.200813 -0.070652 -0.055794
460 -0.019948 0.071588 -0.032965 -0.124491 -0.000123 -0.107065 0.062364 -0.127036 -0.075857 0.147891 0.058654 0.015832 0.034407 0.178189 -0.064553 -0.018764 0.056216 -0.098134 -0.082982 0.066372 0.062730 -0.034863 -0.067476 -0.049452 0.065438 -0.070554 0.001376 0.067683 -0.036862 0.053177 -0.068922 0.039438 0.185518 -0.016466 -0.030621
691 -0.002415 0.078672 -0.024685 -0.101350 -0.024207 -0.084688 0.064346 -0.112203 -0.071017 0.117245 0.051156 0.026170 0.019481 0.167280 -0.056644 -0.011199 0.052522 -0.092723 -0.053759 0.020514 0.074435 -0.051970 -0.072771 -0.059080 0.064783 -0.092790 -0.006377 0.069494 -0.048055 0.056241 -0.050201 0.046740 0.188598 0.001401 -0.007405
606 0.008730 0.128015 -0.020190 -0.137056 -0.055534 -0.087381 0.057058 -0.116745 -0.094315 0.152597 0.015302 0.037767 -0.016575 0.192870 -0.062156 0.016348 0.043887 -0.112409 -0.077572 -0.028722 0.050089 -0.049277 -0.042225 -0.048591 0.061659 -0.091557 -0.004737 0.024752 -0.043056 0.104684 0.003610 0.080230 0.236853 -0.017449 0.016647
669 -0.004808 0.073062 -0.020893 -0.121790 -0.002718 -0.117530 0.064057 -0.131235 -0.081611 0.130715 0.063993 0.030644 0.047683 0.182798 -0.072928 -0.020305 0.043497 -0.128406 -0.072495 0.048618 0.068899 -0.033740 -0.060439 -0.063229 0.069736 -0.086249 0.023241 0.077144 -0.053185 0.076636 -0.060592 0.068124 0.211142 0.001765 -0.015629
708 -0.027345 0.116481 -0.026175 -0.139915 0.005910 -0.097430 0.108271 -0.150417 -0.107686 0.142043 0.049436 0.005757 0.054075 0.181447 -0.057676 -0.018089 0.069002 -0.132816 -0.065970 0.065374 0.056482 -0.038388 -0.102261 -0.076922 0.099600 -0.093125 0.008359 0.093631 -0.024139 0.062009 -0.062339 0.049120 0.200842 -0.016797 -0.043192
732 0.011454 0.078524 0.007143 -0.110158 -0.009048 -0.086653 0.055155 -0.132377 -0.060101 0.133621 0.022301 0.072937 0.035456 0.172104 -0.048481 -0.025579 0.060896 -0.091664 -0.061386 0.046045 0.035054 -0.027643 -0.059952 -0.044950 0.039073 -0.073417 0.021316 0.057501 -0.032118 0.061095 -0.004258 0.042879 0.181364 -0.009704 -0.034187
569 0.044578 0.122671 0.028334 -0.143982 -0.051739 -0.085122 0.069609 -0.131007 -0.080139 0.162561 -0.002545 0.070844 -0.025573 0.231025 -0.035263 0.006290 0.066505 -0.104697 -0.053871 -0.020688 0.026095 -0.058997 -0.054554 -0.052419 0.032270 -0.113368 0.014841 0.075920 -0.034325 0.041699 0.038940 0.070422 0.222483 -0.025259 -0.015810
728 -0.005633 0.114452 -0.020463 -0.161348 -0.003940 -0.095920 0.039003 -0.126379 -0.103529 0.181668 -0.011734 0.055270 0.020308 0.209015 -0.045220 0.008924 0.055807 -0.095028 -0.071395 0.036109 0.000256 -0.044288 -0.058891 -0.036105 0.023355 -0.056310 0.005248 0.058943 -0.009876 0.066964 -0.018291 0.053362 0.217424 -0.082675 -0.037183
655 0.015849 0.097189 -0.024045 -0.104547 -0.015240 -0.099066 0.061579 -0.127198 -0.063051 0.152145 0.033771 0.038864 0.002220 0.180092 -0.084036 0.009722 0.031141 -0.108198 -0.062583 0.044765 0.049390 -0.058848 -0.036058 -0.051286 0.068818 -0.090066 -0.001233 0.067128 -0.041470 0.067981 -0.024631 0.062283 0.203472 -0.001186 -0.015208
733 0.019557 0.109095 -0.007331 -0.138779 -0.020258 -0.084259 0.063537 -0.137330 -0.069383 0.140444 0.032326 0.053571 -0.001130 0.197970 -0.045829 0.020265 0.060129 -0.085922 -0.039908 0.004093 0.041063 -0.040355 -0.063429 -0.055391 0.049267 -0.091370 0.027451 0.070784 -0.043751 0.053646 -0.040505 0.047108 0.220003 -0.006722 -0.016282
735 0.033372 0.071421 0.009675 -0.165422 -0.026691 -0.118330 0.050935 -0.124541 -0.050057 0.164365 -0.009094 0.102521 -0.006369 0.213801 -0.041237 0.003797 0.063380 -0.095946 -0.064286 0.039168 0.016418 -0.049321 -0.066647 -0.025382 0.012901 -0.098220 0.029691 0.066275 -0.040246 0.042179 0.018784 0.036660 0.198755 -0.023654 -0.054050
552 -0.012117 0.101204 -0.023668 -0.182530 -0.027838 -0.120212 0.047995 -0.148510 -0.114792 0.177699 0.024360 0.061519 0.012472 0.240654 -0.053793 0.025702 0.074879 -0.104879 -0.074174 0.024507 0.044048 -0.039915 -0.081446 -0.042831 0.036379 -0.075233 0.001797 0.075055 -0.029970 0.095757 -0.042743 0.059917 0.244050 -0.036901 -0.022194
529 -0.002070 0.118562 0.008244 -0.158526 -0.009819 -0.118649 0.073598 -0.136765 -0.123316 0.163676 0.030693 0.040526 0.018107 0.218802 -0.042961 0.010824 0.044845 -0.120894 -0.072250 0.015144 0.039942 -0.031938 -0.073019 -0.054125 0.054690 -0.090410 0.007321 0.059592 -0.025398 0.097653 -0.020410 0.072148 0.203230 -0.047753 -0.023078
690 -0.003306 0.085567 0.006335 -0.152079 -0.017322 -0.093094 0.051585 -0.111195 -0.077899 0.131729 -0.002587 0.080481 0.026278 0.183162 -0.036536 0.002376 0.045476 -0.092755 -0.047338 0.030450 0.034643 -0.043955 -0.050311 -0.041276 0.026469 -0.083155 0.020335 0.055567 -0.028307 0.067669 -0.002565 0.054810 0.180044 -0.038925 -0.039377
280 0.001256 0.076212 -0.030421 -0.136295 -0.008054 -0.089007 0.082129 -0.124042 -0.085649 0.120614 -0.006718 0.036016 0.010927 0.146467 -0.048776 0.033663 0.060664 -0.078233 -0.031244 0.034545 -0.002930 -0.026793 -0.056388 -0.035092 0.038498 -0.060989 0.024299 0.056950 0.010606 0.043333 -0.042221 0.025460 0.160207 -0.051641 -0.043339
482 -0.000687 0.089704 0.007427 -0.151410 -0.025706 -0.105024 0.045907 -0.162804 -0.083760 0.165598 0.012427 0.110982 0.017666 0.212265 -0.050741 -0.022055 0.060749 -0.124225 -0.096553 0.044353 0.046256 -0.042718 -0.054636 -0.052784 0.040259 -0.085729 0.037819 0.058993 -0.038321 0.069543 0.012069 0.066975 0.213126 -0.016941 -0.038238
720 -0.008639 0.112919 -0.025556 -0.185324 -0.034280 -0.109932 0.079687 -0.145187 -0.094384 0.160134 0.008958 0.053346 0.019778 0.202522 -0.052824 0.027450 0.077005 -0.115472 -0.054957 0.028114 0.028509 -0.051960 -0.064077 -0.042284 0.029427 -0.101532 0.004628 0.074859 0.009191 0.054556 -0.019888 0.059063 0.218678 -0.059135 -0.057995
731 0.017186 0.086719 0.010268 -0.193345 -0.011284 -0.107482 0.063393 -0.144810 -0.046406 0.198548 -0.006727 0.101940 0.017185 0.206193 -0.055771 -0.016767 0.078841 -0.115977 -0.051627 0.055217 0.010864 -0.032731 -0.052480 -0.013264 0.018482 -0.107147 0.039311 0.086515 -0.021705 0.026982 0.015981 0.047297 0.211367 -0.016616 -0.064637
717 -0.005810 0.086960 -0.021541 -0.141722 -0.001373 -0.091750 0.068784 -0.125481 -0.072179 0.159405 0.027273 0.056168 0.016994 0.178310 -0.053700 0.017766 0.065731 -0.080201 -0.059090 0.044358 0.009118 -0.026797 -0.066338 -0.062436 0.033551 -0.071580 0.022661 0.061535 -0.023095 0.064163 -0.022377 0.052314 0.179208 -0.031420 -0.030009
576 0.001799 0.106275 -0.016711 -0.124843 -0.002840 -0.100615 0.035711 -0.128067 -0.103598 0.148885 0.023788 0.031804 0.037798 0.200262 -0.054215 -0.027043 0.060232 -0.106138 -0.074337 0.038883 0.034555 -0.043132 -0.054528 -0.039487 0.061612 -0.061977 0.013112 0.070183 -0.041490 0.077637 -0.026532 0.061503 0.217712 -0.022251 -0.018806
439 -0.016490 0.097915 -0.045077 -0.153955 -0.004580 -0.112083 0.084428 -0.137480 -0.093666 0.145782 0.025015 0.030183 0.029878 0.200086 -0.059966 0.010055 0.046977 -0.117873 -0.056513 0.047856 0.034207 -0.038306 -0.080838 -0.054610 0.076285 -0.088305 -0.007091 0.070439 -0.014540 0.094066 -0.054827 0.066504 0.206624 -0.023460 -0.022085
712 -0.011591 0.097561 -0.026921 -0.149126 0.005712 -0.108654 0.078637 -0.135209 -0.107468 0.157339 0.030079 0.048333 0.039285 0.207750 -0.050049 0.000096 0.053440 -0.115096 -0.057028 0.056573 0.047923 -0.034770 -0.070742 -0.051627 0.050436 -0.086543 0.011656 0.087034 -0.038893 0.071046 -0.028808 0.036291 0.185078 -0.025993 -0.043604
713 -0.006245 0.095274 -0.014160 -0.168252 -0.036554 -0.103384 0.063802 -0.162961 -0.071909 0.176234 0.009778 0.081910 0.037539 0.215547 -0.057366 -0.015524 0.083859 -0.097543 -0.084027 0.036230 0.034788 -0.028721 -0.057256 -0.051120 0.056676 -0.088611 0.040533 0.054028 -0.025825 0.097477 -0.018410 0.072160 0.249668 -0.041659 -0.049981
729 0.005456 0.086348 -0.019138 -0.111965 -0.033664 -0.078008 0.052708 -0.104725 -0.074110 0.130111 0.029847 0.039550 0.024762 0.164960 -0.055977 -0.021732 0.045969 -0.102669 -0.048295 0.021867 0.055327 -0.029022 -0.061121 -0.042176 0.057027 -0.075052 0.007444 0.062013 -0.033456 0.060550 -0.028088 0.066909 0.204996 -0.019302 -0.023604
372 0.017047 0.107462 -0.014154 -0.120115 0.000147 -0.088829 0.084916 -0.123714 -0.076613 0.151612 0.031739 0.018767 0.033317 0.194356 -0.065889 0.012391 0.045436 -0.116598 -0.043630 0.043616 0.059579 -0.051769 -0.068551 -0.071633 0.068349 -0.080894 0.008980 0.077674 -0.034248 0.067655 -0.033740 0.058355 0.205094 -0.019127 -0.011308
393 -0.000198 0.078495 -0.035460 -0.139299 -0.008640 -0.095495 0.046400 -0.108803 -0.052370 0.156440 0.020337 0.039323 0.016385 0.183953 -0.059606 -0.015148 0.065293 -0.114815 -0.046692 0.042365 0.039017 -0.054820 -0.054447 -0.059230 0.068451 -0.078850 0.016010 0.087869 -0.051746 0.022358 -0.040311 0.042457 0.203237 0.000808 -0.040849
716 0.019912 0.120480 0.002479 -0.141398 -0.014569 -0.100126 0.047210 -0.163440 -0.115329 0.166755 0.032766 0.052374 0.041627 0.236720 -0.065501 -0.015541 0.053509 -0.132873 -0.068747 0.043950 0.035380 -0.041743 -0.064332 -0.070704 0.075824 -0.089736 0.011172 0.075848 -0.047313 0.082213 -0.000780 0.088317 0.246080 -0.027988 -0.012019
734 -0.003232 0.081596 -0.003747 -0.118016 -0.007419 -0.085135 0.048735 -0.142741 -0.068879 0.156347 0.016635 0.080701 0.023688 0.179359 -0.055789 -0.000045 0.076477 -0.087598 -0.077343 0.037037 0.020270 -0.031664 -0.056793 -0.034593 0.043293 -0.069828 0.022658 0.069951 -0.040453 0.077511 -0.016932 0.037569 0.203008 -0.042517 -0.031527
730 -0.000994 0.110185 0.006718 -0.137538 -0.019881 -0.104334 0.053588 -0.134987 -0.089843 0.149997 0.004210 0.074195 0.009311 0.201171 -0.060599 -0.013798 0.044141 -0.112293 -0.078225 0.017432 0.035068 -0.054628 -0.050237 -0.065666 0.063687 -0.080090 0.002156 0.041729 -0.021911 0.070917 -0.011342 0.070616 0.199774 -0.028748 -0.030958
505 -0.006586 0.090812 0.015105 -0.135565 -0.028465 -0.094982 0.034774 -0.151007 -0.072156 0.176765 0.029366 0.076740 0.029820 0.196828 -0.066769 -0.011886 0.039572 -0.107428 -0.102305 0.048812 0.045146 -0.028069 -0.038659 -0.043511 0.049278 -0.089110 -0.005612 0.042930 -0.057967 0.086268 -0.001175 0.067231 0.219638 -0.030341 -0.041207
718 0.009236 0.079891 -0.010314 -0.105206 -0.028077 -0.085323 0.032907 -0.112739 -0.057386 0.138041 0.022518 0.054689 0.030798 0.173174 -0.045233 -0.017890 0.040333 -0.094142 -0.076611 0.020488 0.054331 -0.029100 -0.050877 -0.030532 0.048227 -0.069089 0.015668 0.062976 -0.052111 0.057498 -0.033981 0.061423 0.182997 -0.017056 -0.032952
736 -0.012645 0.022065 -0.022473 -0.041434 0.002359 -0.038299 0.025052 -0.047311 -0.027082 0.064668 0.015266 0.013319 0.000957 0.073223 -0.027133 -0.011525 0.025630 -0.043097 -0.016471 0.033393 0.012604 -0.003049 -0.030435 -0.006561 0.019691 -0.042706 0.021037 0.020099 0.000404 0.020196 -0.023968 0.030246 0.071274 -0.002700 -0.029201
724 -0.010578 0.069927 -0.016267 -0.056125 -0.003333 -0.043511 0.022363 -0.080858 -0.049412 0.093944 0.013255 0.039281 0.008618 0.109727 -0.020646 0.001611 0.015751 -0.057302 -0.044237 0.015185 0.016687 -0.031615 -0.026736 -0.023056 0.041790 -0.055138 0.011440 0.041862 -0.017364 0.034602 -0.019544 0.032258 0.119390 -0.017252 -0.009717
715 0.006216 0.030638 0.004604 -0.034217 -0.008089 -0.012997 0.021809 -0.041863 -0.037178 0.036306 0.010983 0.013445 0.009220 0.074694 -0.030546 0.009252 0.025904 -0.018357 -0.037226 -0.010388 0.001043 -0.019358 -0.028547 -0.025066 0.017607 -0.013282 -0.001479 0.012828 -0.016761 0.028663 -0.014218 0.029817 0.078149 0.005684 0.011197
