65 40
723 0.041022 0.128613 -0.010207 0.014481 -0.128230 0.061164 -0.003078 -0.084890 -0.032767 -0.128524 -0.023562 0.043201 -0.087035 -0.088884 0.138589 -0.062569 -0.000333 -0.065139 0.024149 -0.073643 0.018216 0.139738 0.051712 -0.025983 0.018798 -0.092358 -0.032983 -0.013084 -0.050784 -0.026095 -0.095644 0.011942 -0.032967 -0.083115 -0.041940 -0.003498 0.009851 -0.120197 0.039018 0.089979
702 0.068586 0.108533 -0.021893 0.052397 -0.131187 0.081597 0.020319 -0.108361 -0.036295 -0.231601 -0.041698 -0.000985 -0.047365 -0.117059 0.201219 -0.085112 0.059119 -0.111360 0.026380 -0.095301 0.017632 0.139709 0.038335 -0.076975 0.016198 -0.089490 -0.039216 -0.017580 -0.042340 -0.001402 -0.115337 0.028966 -0.047465 -0.062369 -0.030987 -0.012398 0.024206 -0.143844 0.073548 0.097850
719 0.064224 0.087527 -0.018669 0.022700 -0.107629 0.115974 -0.023233 -0.078534 -0.062668 -0.217339 -0.070769 0.001868 -0.028174 -0.101833 0.233568 -0.058192 0.062338 -0.107789 0.041749 -0.115054 0.044189 0.134925 0.036807 -0.086937 0.063046 -0.091030 -0.045302 -0.014863 -0.051010 0.055043 -0.104953 0.003411 -0.030117 -0.082284 -0.035477 -0.004793 0.031809 -0.128335 0.066250 0.058431
633 0.040326 0.109576 -0.009191 0.044216 -0.077563 0.068481 0.009267 -0.109931 -0.053294 -0.215878 -0.056523 0.051918 -0.011135 -0.083477 0.207418 -0.046518 0.045061 -0.088111 0.008816 -0.058154 -0.000679 0.096502 0.013577 -0.069396 0.023640 -0.083612 0.001010 -0.035386 -0.035849 0.020614 -0.109279 0.024047 -0.086014 -0.072426 -0.015537 -0.018472 0.014004 -0.140501 0.067208 0.089118
656 0.056049 0.115345 0.014342 0.024159 -0.114366 0.081197 0.016981 -0.096145 -0.024012 -0.156570 -0.073360 0.060619 -0.078984 -0.046924 0.129711 -0.037796 0.034878 -0.056168 0.021465 -0.085018 -0.020920 0.110953 0.009734 -0.056215 -0.019001 -0.057840 -0.043642 -0.034103 -0.021815 -0.005524 -0.122534 0.028233 0.001589 -0.044188 -0.006306 -0.020038 0.012630 -0.148734 0.043982 0.126486
657 0.088132 0.097587 0.033594 0.070782 -0.065699 0.126113 0.005352 -0.094368 -0.075862 -0.154481 -0.112133 0.092185 -0.045549 -0.059117 0.190642 -0.015965 0.047566 -0.055439 0.042135 -0.119227 -0.058369 0.115974 0.008048 -0.065837 0.002207 -0.094091 -0.015754 -0.032856 -0.029958 0.050000 -0.088393 0.023501 -0.073853 -0.094925 -0.001852 -0.039066 0.033789 -0.158107 0.016584 0.069396
681 0.067536 0.070097 -0.011267 0.012996 -0.096529 0.123476 -0.012794 -0.042122 -0.046149 -0.150143 -0.083004 0.034877 -0.074027 -0.095318 0.170921 -0.050237 0.032730 -0.075235 0.081683 -0.138266 0.022145 0.159687 0.036769 -0.046406 0.047964 -0.078100 -0.038039 0.020060 -0.055379 0.048368 -0.082870 0.009005 0.008063 -0.082308 -0.042286 -0.009551 0.016358 -0.135258 0.024307 0.062205
660 0.065521 0.124615 0.034127 0.019775 -0.122923 0.073651 -0.014692 -0.094831 -0.026807 -0.169173 -0.073094 0.050038 -0.066698 -0.047589 0.165373 -0.042736 0.023768 -0.074875 0.020177 -0.111984 0.013746 0.141805 0.038782 -0.055647 0.006258 -0.076896 -0.033455 -0.030995 -0.039039 0.042289 -0.108154 0.005591 -0.018053 -0.070597 -0.029412 -0.002458 0.010301 -0.153037 0.038169 0.097632
132 0.070503 0.129195 0.007587 0.021162 -0.165771 0.046022 0.029824 -0.105720 -0.016248 -0.202937 -0.040916 0.058826 -0.056440 -0.063273 0.175294 -0.031215 0.027366 -0.086665 -0.017853 -0.107755 -0.007192 0.139120 -0.004015 -0.054012 -0.004473 -0.089974 -0.034773 -0.038572 -0.005790 0.007069 -0.145650 0.037295 -0.023110 -0.033050 -0.028398 -0.018362 0.027942 -0.141194 0.066667 0.102401
659 0.063187 0.035546 -0.002338 0.089804 -0.056494 0.072989 0.013352 -0.072052 -0.036121 -0.191961 -0.087844 0.080628 -0.046112 -0.079543 0.163862 -0.013509 0.050189 -0.075979 0.019115 -0.087882 -0.034518 0.109584 0.038717 -0.073444 0.017151 -0.046059 -0.037201 -0.006827 -0.028491 0.071621 -0.108334 0.045800 -0.068141 -0.061074 -0.010105 -0.037741 0.013748 -0.143860 0.025389 0.043663
577 0.110099 0.075784 0.062338 0.069991 -0.059595 0.093585 0.002958 -0.093029 -0.040764 -0.173095 -0.135968 0.103728 -0.012194 0.005897 0.152476 0.000466 0.065854 -0.054152 0.030328 -0.125827 -0.071343 0.096219 -0.022714 -0.083541 -0.034420 -0.038310 -0.009353 -0.017002 0.010593 0.112074 -0.099561 0.047466 -0.030683 -0.042437 0.021215 -0.041506 0.039952 -0.176675 0.025868 0.066086
644 0.096704 0.089354 0.055766 0.066076 -0.087967 0.052669 -0.009903 -0.106970 -0.024410 -0.197854 -0.095958 0.095901 -0.004918 -0.019522 0.162984 -0.007438 0.060604 -0.074307 -0.002682 -0.111659 -0.023245 0.120498 0.010429 -0.092815 -0.003852 -0.038987 -0.031364 -0.018754 -0.005433 0.121782 -0.130939 0.042160 -0.025522 -0.051143 -0.010487 -0.035286 0.027002 -0.166894 0.030531 0.061885
725 0.088275 0.053958 0.005804 0.050198 -0.092368 0.105158 0.024296 -0.062623 -0.021513 -0.196800 -0.100622 0.082524 -0.045873 -0.047772 0.157323 -0.023188 0.054544 -0.082591 0.047580 -0.120322 -0.047594 0.118002 -0.005205 -0.068868 -0.005237 -0.049868 -0.027779 -0.012297 -0.013493 0.062172 -0.113528 0.058798 -0.019789 -0.027999 -0.004041 -0.030843 0.015019 -0.151621 0.037212 0.089422
710 0.059942 0.138183 0.005276 0.069296 -0.128236 0.021104 0.007527 -0.136671 -0.029164 -0.172035 -0.036738 0.046596 -0.078798 -0.091326 0.127636 -0.066715 0.063120 -0.056975 -0.028363 -0.043258 0.024166 0.121949 0.095428 -0.100528 -0.005566 -0.053867 -0.087287 -0.011043 -0.030725 -0.007387 -0.168551 0.039520 -0.027101 -0.101200 -0.031338 -0.026298 0.033747 -0.167182 0.041184 0.102260
707 0.087507 0.121493 0.011024 0.058757 -0.102995 0.109408 -0.002172 -0.101927 -0.057950 -0.191134 -0.087365 0.066291 -0.019565 -0.072268 0.199067 -0.066917 0.063584 -0.095371 0.049549 -0.137591 -0.022259 0.146028 0.020723 -0.074708 -0.004263 -0.094335 -0.026196 -0.026566 -0.027869 0.037986 -0.107854 0.031029 -0.054646 -0.081325 -0.019253 -0.024637 0.045241 -0.163528 0.052708 0.086008
572 0.071595 0.069809 -0.014803 0.028332 -0.075713 0.128453 -0.030639 -0.073214 -0.054073 -0.212167 -0.078896 0.014340 0.012165 -0.070019 0.223591 -0.073801 0.085429 -0.103358 0.052566 -0.133539 0.015881 0.145087 0.014254 -0.069436 0.036903 -0.091298 -0.014055 -0.008324 -0.040846 0.061652 -0.074578 0.001507 -0.035492 -0.059440 -0.026296 -0.013096 0.024624 -0.120142 0.063928 0.057167
506 0.086259 0.090282 0.051553 0.082110 -0.064974 0.061150 0.023220 -0.121244 -0.042172 -0.214527 -0.105022 0.099882 0.026389 -0.026266 0.206090 -0.005971 0.073410 -0.077966 -0.007112 -0.112445 -0.052718 0.098528 -0.035169 -0.082094 -0.016554 -0.056587 0.004123 -0.024221 0.031348 0.096770 -0.119449 0.057811 -0.075338 -0.034116 0.008966 -0.049508 0.041954 -0.157449 0.044895 0.070069
722 0.053427 0.101613 0.002173 0.054979 -0.050683 0.094843 -0.002446 -0.117888 -0.060217 -0.200326 -0.083372 0.042399 0.010652 -0.063313 0.212628 -0.037452 0.072556 -0.080406 0.012143 -0.082278 -0.011078 0.096727 0.014285 -0.075925 0.033991 -0.071883 0.003326 -0.033013 -0.034495 0.061607 -0.093212 0.012907 -0.077112 -0.072098 0.004196 -0.026410 0.034836 -0.146604 0.059774 0.070745
686 0.102531 0.058634 0.053266 0.074265 -0.082447 0.105339 -0.003581 -0.077917 -0.027962 -0.180501 -0.105439 0.113737 -0.019379 -0.021048 0.159544 -0.008776 0.064756 -0.062709 0.039921 -0.152551 -0.070017 0.130126 -0.016691 -0.074172 -0.029705 -0.059074 -0.032927 -0.015498 0.001218 0.100557 -0.102143 0.045455 -0.019850 -0.043984 -0.006882 -0.049146 0.019084 -0.156617 0.026298 0.065332
351 0.101302 0.079998 0.034023 0.095576 -0.015682 0.117370 0.017495 -0.084078 -0.070613 -0.133740 -0.092471 0.055213 0.017096 -0.017487 0.123987 -0.017684 0.098674 -0.049896 0.031587 -0.097334 -0.077085 0.045353 -0.016597 -0.095675 -0.028911 -0.052073 -0.036534 -0.036621 -0.018874 0.054456 -0.080205 0.047868 -0.047012 -0.066606 0.028267 -0.038330 0.062001 -0.131383 0.024503 0.042536
634 0.043703 0.069825 -0.033454 0.044362 -0.014943 0.124640 -0.012531 -0.075701 -0.084067 -0.168270 -0.082059 0.050530 0.024772 -0.081134 0.214862 -0.026583 0.071641 -0.076189 0.036509 -0.114731 -0.024212 0.112239 -0.000641 -0.044428 0.044228 -0.087156 0.015688 -0.032900 -0.035289 0.060642 -0.050908 -0.001050 -0.095216 -0.074378 0.002478 -0.031508 0.047215 -0.112018 0.043960 0.049254
726 0.043786 0.136252 0.014432 0.070741 -0.138131 0.030675 0.008853 -0.125851 -0.033153 -0.168642 -0.040467 0.045432 -0.084798 -0.131487 0.192332 -0.076748 0.021363 -0.072642 -0.000651 -0.071624 0.040429 0.150439 0.093124 -0.058930 0.014329 -0.093885 -0.058320 -0.025742 -0.025340 -0.028409 -0.133753 0.014823 -0.072980 -0.105241 -0.049024 -0.019838 0.012092 -0.142373 0.050530 0.101021
727 0.068834 0.067349 0.048703 0.038742 -0.111008 0.033817 -0.018840 -0.073303 -0.015024 -0.164750 -0.055449 0.054067 -0.028245 -0.051621 0.164772 -0.026823 0.024325 -0.062889 0.010482 -0.103544 0.025502 0.129065 0.022651 -0.059138 0.015653 -0.058978 -0.033188 0.011754 -0.004478 0.089182 -0.113959 0.024777 -0.014337 -0.059034 -0.053990 -0.014879 0.003002 -0.129423 0.031374 0.043712
624 0.051361 0.108894 0.019927 0.092560 -0.049311 0.072353 -0.013182 -0.138231 -0.064768 -0.189732 -0.113377 0.075331 0.010514 -0.064984 0.216783 -0.041381 0.101545 -0.080975 -0.012515 -0.079425 -0.007622 0.097578 0.048256 -0.098853 0.015124 -0.042142 -0.029418 -0.024842 -0.006930 0.072863 -0.117199 0.015719 -0.087958 -0.082545 0.020139 -0.031265 0.044405 -0.161811 0.057770 0.080413
600 0.055072 0.076298 -0.006116 0.046597 -0.080353 0.080969 0.008403 -0.092303 -0.031952 -0.195917 -0.074789 0.037768 -0.025111 -0.070098 0.169307 -0.053937 0.082406 -0.079461 0.010779 -0.073561 0.004016 0.096934 0.034830 -0.083585 0.016488 -0.047702 -0.050897 -0.017068 -0.022471 0.039456 -0.122796 0.032095 -0.034408 -0.060621 -0.015114 -0.016930 0.028870 -0.133364 0.055341 0.073062
599 0.084766 0.039514 0.004208 0.056377 -0.075018 0.104739 0.023328 -0.063713 -0.036066 -0.192016 -0.107665 0.072050 -0.041049 -0.058841 0.161979 -0.013075 0.061952 -0.079614 0.040602 -0.132495 -0.050029 0.124138 -0.008599 -0.063964 0.009016 -0.039997 -0.018048 0.001768 -0.008997 0.077574 -0.105495 0.050299 -0.027298 -0.035055 0.002530 -0.034656 0.017242 -0.143115 0.028609 0.071467
553 0.049084 0.099372 0.052356 0.063378 -0.048850 0.039839 -0.023198 -0.122327 -0.061670 -0.198102 -0.089299 0.050701 0.002806 -0.050756 0.233328 -0.031437 0.062210 -0.069269 -0.003868 -0.079033 0.028132 0.097526 0.024468 -0.080157 0.028690 -0.043906 -0.016021 -0.008987 0.007739 0.084618 -0.110923 0.016440 -0.069963 -0.084691 -0.021781 -0.031215 0.041167 -0.148004 0.055764 0.053751
407 0.092577 0.087119 0.000494 0.068709 -0.087932 0.125961 0.016109 -0.097338 -0.061608 -0.205025 -0.110247 0.113386 -0.040717 -0.063064 0.182406 -0.003871 0.069150 -0.083213 0.017066 -0.121391 -0.051462 0.140454 0.017865 -0.085538 0.021213 -0.069281 -0.037032 -0.016476 -0.029221 0.067963 -0.139500 0.045349 -0.042880 -0.073758 0.005839 -0.059616 0.035401 -0.178165 0.027278 0.078943
721 0.039244 0.102146 -0.032341 0.087041 -0.061340 0.066827 0.036979 -0.130106 -0.071058 -0.220165 -0.069359 0.049257 -0.037876 -0.128197 0.222095 -0.060895 0.077932 -0.094387 0.003391 -0.067092 -0.008955 0.113320 0.045623 -0.078579 0.038577 -0.066070 -0.021870 -0.027563 -0.025532 -0.006379 -0.114314 0.036314 -0.119355 -0.091492 0.009341 -0.042151 0.026640 -0.139714 0.053412 0.105007
483 0.089011 0.090693 0.055588 0.099136 -0.069446 0.076394 -0.007169 -0.111474 -0.049757 -0.208639 -0.107075 0.047627 -0.008430 -0.052415 0.199258 -0.043341 0.061246 -0.079561 0.027688 -0.093666 -0.019040 0.088183 0.039214 -0.094443 -0.011991 -0.072914 -0.026633 -0.028540 -0.013253 0.079275 -0.111552 0.025665 -0.069581 -0.071482 -0.014429 -0.023292 0.029972 -0.159637 0.046971 0.060288
714 0.103108 0.055065 0.023976 0.088393 -0.089871 0.093601 0.029339 -0.094831 -0.024121 -0.233471 -0.096912 0.080028 -0.019763 -0.044718 0.199302 -0.018483 0.072866 -0.097035 0.016654 -0.133187 -0.056377 0.117557 -0.021217 -0.071642 -0.002139 -0.060595 -0.024008 -0.014877 0.002455 0.088913 -0.125779 0.064422 -0.056253 -0.029961 0.002612 -0.041303 0.029073 -0.155518 0.052622 0.073442
460 0.075865 0.079701 0.013535 0.077603 -0.105615 0.051495 0.024779 -0.100838 -0.017432 -0.183709 -0.077355 0.085032 -0.058783 -0.069694 0.140371 -0.042327 0.068688 -0.070624 0.001765 -0.102740 -0.012188 0.128326 0.050463 -0.072057 -0.002189 -0.055739 -0.048747 -0.000867 -0.019451 0.034159 -0.146206 0.052038 -0.028915 -0.059622 -0.019394 -0.027673 0.020349 -0.165865 0.021937 0.076888
691 0.042568 0.107588 -0.031642 0.063735 -0.096357 0.069033 0.024774 -0.109192 -0.047221 -0.197242 -0.062328 0.040647 -0.032755 -0.113296 0.170848 -0.076168 0.064240 -0.080207 0.006103 -0.064667 0.009511 0.110408 0.058528 -0.086015 0.024963 -0.069054 -0.042976 -0.021335 -0.035616 -0.000971 -0.144429 0.035867 -0.064113 -0.068864 -0.006330 -0.026539 0.030724 -0.144901 0.060124 0.089449
606 0.063115 0.086056 0.028733 0.042019 -0.080402 0.077681 -0.019642 -0.082350 -0.039516 -0.212815 -0.070760 0.041258 -0.001014 -0.071493 0.206539 -0.045417 0.058879 -0.088683 0.028577 -0.097523 0.036699 0.105440 0.048550 -0.094296 0.035115 -0.068403 -0.032605 -0.010616 -0.039290 0.089915 -0.114260 0.022188 -0.041954 -0.089382 -0.043487 -0.014698 0.015469 -0.147770 0.043816 0.042218
669 0.077948 0.093074 0.012837 0.082246 -0.078421 0.099011 0.023263 -0.109996 -0.060503 -0.200617 -0.119904 0.110994 -0.046741 -0.073066 0.196620 -0.038164 0.081787 -0.076032 0.033669 -0.109182 -0.051405 0.112445 0.003596 -0.089210 -0.019333 -0.069306 -0.044062 -0.026148 -0.004404 0.029547 -0.139325 0.061926 -0.064359 -0.073231 0.005280 -0.046469 0.035019 -0.168684 0.046281 0.104567
708 0.076026 0.101761 -0.000138 0.060228 -0.111930 0.082442 0.034557 -0.109489 -0.050065 -0.203976 -0.094220 0.071328 -0.067556 -0.085472 0.177084 -0.042718 0.062600 -0.080258 0.010933 -0.118040 -0.036245 0.149744 0.024067 -0.065669 0.003649 -0.064031 -0.024499 -0.016725 -0.004408 0.018178 -0.115925 0.027425 -0.049067 -0.051891 -0.006187 -0.055405 0.044502 -0.155358 0.042317 0.099389
732 0.050743 0.094986 0.021952 0.066979 -0.080388 0.035541 0.023553 -0.127318 -0.032401 -0.183668 -0.061758 0.052455 -0.029052 -0.060230 0.155923 -0.029870 0.070293 -0.061331 -0.016200 -0.060838 -0.013049 0.090880 0.022905 -0.077667 -0.001233 -0.050071 -0.037430 -0.043130 -0.011433 0.005214 -0.139008 0.035078 -0.045769 -0.052156 0.004525 -0.034490 0.039302 -0.134756 0.045683 0.074495
569 0.072573 0.097854 0.014801 0.081939 -0.061105 0.061900 0.001001 -0.125570 -0.059448 -0.200558 -0.051198 0.050234 -0.011004 -0.077816 0.196752 -0.043428 0.064341 -0.079322 0.005105 -0.065307 -0.011951 0.082144 0.048234 -0.083742 0.006134 -0.079986 -0.024631 -0.032678 -0.032542 0.042066 -0.108193 0.018389 -0.096715 -0.092288 -0.020621 -0.020314 0.033682 -0.142597 0.060398 0.060051
728 0.096440 0.074484 0.049159 0.099006 -0.053129 0.085271 -0.003033 -0.119281 -0.051739 -0.213899 -0.104388 0.068180 -0.015318 -0.049218 0.208668 -0.017247 0.088144 -0.082085 0.011152 -0.106821 -0.038546 0.100877 0.023108 -0.092942 -0.022325 -0.050149 -0.032202 -0.026686 -0.001835 0.087064 -0.102324 0.036957 -0.085029 -0.076455 -0.005665 -0.044807 0.034919 -0.173563 0.050125 0.069514
655 0.085158 0.082813 0.011093 0.085935 -0.091575 0.089368 0.006230 -0.103653 -0.026486 -0.224139 -0.081884 0.075790 -0.047954 -0.080948 0.182455 -0.040702 0.069443 -0.073779 0.018206 -0.095100 -0.029874 0.117548 0.038425 -0.089407 -0.003056 -0.058927 -0.039542 -0.020359 -0.021661 0.036836 -0.136938 0.033407 -0.050449 -0.053190 -0.011366 -0.041831 0.021914 -0.155367 0.057205 0.097542
733 0.086964 0.105134 0.028032 0.064708 -0.076543 0.103960 0.001753 -0.118947 -0.054063 -0.223876 -0.101253 0.069583 -0.005746 -0.057590 0.218100 -0.024209 0.085218 -0.088358 0.026841 -0.122309 -0.025475 0.124493 0.000639 -0.085468 0.016452 -0.073764 -0.012277 -0.017303 -0.032882 0.094838 -0.122186 0.023219 -0.050690 -0.080804 -0.007800 -0.038130 0.038692 -0.177778 0.059008 0.075125
735 0.059553 0.088317 0.022603 0.120044 -0.055069 0.043291 0.022691 -0.133398 -0.041345 -0.214082 -0.092245 0.070055 -0.006323 -0.058686 0.177200 -0.029475 0.085557 -0.071216 -0.011338 -0.049716 -0.038875 0.055818 0.031369 -0.103855 -0.032457 -0.037465 -0.048705 -0.048197 -0.017592 0.043717 -0.138299 0.053143 -0.094707 -0.076937 -0.001544 -0.044937 0.037423 -0.161525 0.052918 0.072868
552 0.104405 0.133336 0.042358 0.072104 -0.101393 0.066925 0.028704 -0.135198 -0.042052 -0.206094 -0.102541 0.087033 -0.069445 -0.066902 0.194938 -0.027874 0.074518 -0.078779 0.013761 -0.102399 -0.018749 0.136818 0.040291 -0.100303 0.006313 -0.068190 -0.050763 -0.010237 -0.014928 0.069072 -0.166662 0.055047 -0.033380 -0.084407 -0.017397 -0.050312 0.043483 -0.199703 0.030153 0.097434
529 0.085000 0.121671 0.032299 0.082127 -0.114712 0.057038 -0.003891 -0.118496 -0.050968 -0.207993 -0.083583 0.065092 -0.036017 -0.089290 0.207020 -0.048817 0.079558 -0.077768 0.008972 -0.112636 0.006757 0.136319 0.055497 -0.091530 0.008777 -0.071244 -0.058992 -0.004861 -0.016998 0.069072 -0.157630 0.040529 -0.061720 -0.075009 -0.034621 -0.037504 0.055348 -0.170953 0.056490 0.066754
690 0.056777 0.107821 0.028945 0.085900 -0.071675 0.046379 0.001164 -0.138540 -0.046241 -0.213491 -0.098041 0.070744 -0.014011 -0.077131 0.214068 -0.029430 0.072383 -0.082487 -0.000842 -0.086067 -0.013898 0.112576 0.023394 -0.092034 0.004739 -0.044860 -0.023135 -0.029250 0.004926 0.056100 -0.128649 0.038435 -0.073147 -0.070103 0.000025 -0.033103 0.027489 -0.174634 0.058105 0.085666
280 0.046357 0.096811 0.038417 0.074732 -0.062182 0.045304 0.001875 -0.136616 -0.048155 -0.171143 -0.080511 0.080507 -0.003139 -0.050869 0.186005 -0.019425 0.064891 -0.055626 -0.003782 -0.071058 -0.025044 0.093154 0.008581 -0.083241 0.014708 -0.044382 -0.011956 -0.024102 0.014059 0.059250 -0.121073 0.027460 -0.072936 -0.062328 -0.002810 -0.042164 0.019227 -0.140643 0.046913 0.055265
482 0.062476 0.115608 0.043721 0.099600 -0.067676 0.047688 0.012690 -0.156174 -0.054655 -0.207855 -0.082236 0.062786 -0.000645 -0.074366 0.195312 -0.056863 0.084122 -0.067877 -0.005656 -0.070738 0.004518 0.089423 0.051991 -0.097039 -0.003543 -0.053679 -0.035132 -0.028743 -0.008779 0.038476 -0.142825 0.039662 -0.086934 -0.084418 -0.004680 -0.042292 0.044099 -0.166647 0.046514 0.077328
720 0.086810 0.090317 0.035047 0.099208 -0.083349 0.076597 -0.003635 -0.127011 -0.049295 -0.235035 -0.115344 0.078455 -0.020525 -0.077903 0.229214 -0.035757 0.062804 -0.087926 -0.006135 -0.120075 -0.037269 0.144411 0.032231 -0.089322 -0.004058 -0.067448 -0.022313 -0.007887 -0.011090 0.091188 -0.125102 0.028339 -0.081320 -0.065786 -0.019549 -0.041858 0.020499 -0.190848 0.036756 0.071779
731 0.091310 0.100145 0.031702 0.107743 -0.080120 0.077544 0.002057 -0.123896 -0.044007 -0.219280 -0.095997 0.064373 0.009763 -0.038407 0.183214 -0.039325 0.096904 -0.073942 -0.007018 -0.094359 -0.042825 0.088067 0.025253 -0.099365 -0.020375 -0.072942 -0.026946 -0.037407 -0.009148 0.060087 -0.128031 0.036598 -0.075461 -0.065721 0.007514 -0.044220 0.046843 -0.173930 0.055599 0.077520
717 0.068197 0.108625 0.053060 0.080850 -0.073359 0.053980 -0.004087 -0.126147 -0.044756 -0.188803 -0.073535 0.060876 -0.017935 -0.040496 0.155984 -0.039415 0.062698 -0.067519 -0.003940 -0.070255 -0.022768 0.092362 0.020843 -0.101802 -0.011575 -0.045283 -0.030926 -0.026238 -0.016458 0.057682 -0.116901 0.047065 -0.043731 -0.063360 -0.001794 -0.036386 0.038849 -0.150672 0.045344 0.065637
576 0.076062 0.072404 0.023115 0.071887 -0.076292 0.092863 0.038402 -0.099877 -0.037296 -0.216190 -0.087389 0.038356 -0.055575 -0.061223 0.157482 -0.040410 0.078920 -0.072716 0.030898 -0.102717 -0.031719 0.108743 0.031271 -0.092279 -0.010687 -0.068389 -0.032884 -0.026445 -0.037599 0.026229 -0.132864 0.052183 -0.043700 -0.072882 -0.005302 -0.025427 0.029582 -0.148867 0.045191 0.083363
439 0.079130 0.105411 0.030827 0.085825 -0.096117 0.059483 -0.002153 -0.129040 -0.043137 -0.228449 -0.100481 0.074155 -0.031627 -0.075541 0.202449 -0.031395 0.075908 -0.069886 -0.004889 -0.080340 0.006800 0.118311 0.048195 -0.109841 0.015448 -0.057789 -0.043223 -0.003075 -0.020142 0.089641 -0.148307 0.030937 -0.044850 -0.096043 -0.013659 -0.028876 0.037437 -0.197657 0.049820 0.077447
712 0.087346 0.138105 0.029864 0.099706 -0.094598 0.075920 -0.006104 -0.152213 -0.073624 -0.233264 -0.110313 0.090586 -0.007717 -0.075505 0.238003 -0.033885 0.101275 -0.089017 -0.004195 -0.117076 -0.008145 0.140927 0.037369 -0.113102 0.005600 -0.054048 -0.040210 -0.016775 -0.007084 0.088288 -0.153209 0.049445 -0.064251 -0.078718 0.001251 -0.053520 0.054002 -0.190455 0.062536 0.087426
713 0.072170 0.101178 0.030443 0.072303 -0.123177 0.057975 -0.005808 -0.130098 -0.021776 -0.204438 -0.080882 0.080966 -0.045812 -0.052482 0.180870 -0.034794 0.074478 -0.072957 -0.004726 -0.087220 -0.009490 0.130426 0.047068 -0.087561 -0.018678 -0.057631 -0.053888 -0.024465 -0.018882 0.056841 -0.163123 0.036544 -0.037703 -0.073087 -0.033781 -0.018511 0.032053 -0.170600 0.050903 0.076334
729 0.060743 0.085283 0.024039 0.055417 -0.068394 0.036238 -0.003745 -0.110004 -0.041457 -0.173494 -0.071368 0.030636 -0.024187 -0.058140 0.160381 -0.032267 0.042720 -0.072399 -0.010256 -0.071188 0.005935 0.095099 0.042599 -0.078628 0.011199 -0.053690 -0.021817 -0.027513 -0.026734 0.024134 -0.107356 0.018110 -0.055204 -0.077136 -0.008802 -0.023561 0.024630 -0.135464 0.040293 0.052478
372 0.062794 0.089493 0.008810 0.078573 -0.099402 0.057386 0.010116 -0.103068 -0.041985 -0.176385 -0.060081 0.059873 -0.038231 -0.080029 0.172497 -0.047306 0.057250 -0.073839 -0.000502 -0.098734 -0.027263 0.103257 0.041245 -0.082550 -0.006230 -0.078215 -0.031539 -0.027708 -0.020392 0.022067 -0.119330 0.032152 -0.057763 -0.060583 -0.020435 -0.018960 0.019689 -0.145824 0.038507 0.067081
393 0.059859 0.102623 0.012735 0.072258 -0.090866 0.064970 0.001549 -0.129194 -0.036136 -0.220023 -0.076171 0.063581 -0.025690 -0.072156 0.186897 -0.032295 0.088351 -0.073204 0.007312 -0.094651 -0.016805 0.104256 0.023465 -0.096046 0.008918 -0.059173 -0.028274 -0.028159 -0.010392 0.039341 -0.130404 0.031403 -0.062320 -0.064156 -0.005205 -0.030259 0.028096 -0.162335 0.058016 0.091402
716 0.073663 0.116902 0.028081 0.088566 -0.114005 0.054170 0.014113 -0.123949 -0.054367 -0.224344 -0.086839 0.071130 -0.052718 -0.075387 0.200030 -0.033687 0.074640 -0.076658 -0.016229 -0.107720 -0.004970 0.128827 0.043611 -0.104563 0.010136 -0.069102 -0.036586 -0.007044 -0.003915 0.065958 -0.159689 0.043803 -0.071410 -0.089063 -0.015445 -0.031171 0.041092 -0.191289 0.056046 0.095603
734 0.094453 0.106195 0.039936 0.102994 -0.107387 0.061841 0.013136 -0.125308 -0.025860 -0.206496 -0.090865 0.079652 -0.033411 -0.057461 0.177940 -0.040449 0.063518 -0.075566 0.005170 -0.090925 -0.034920 0.091803 0.038335 -0.101130 -0.015795 -0.060256 -0.045119 -0.037058 -0.000695 0.068499 -0.132001 0.039215 -0.054188 -0.064784 -0.006291 -0.021797 0.024747 -0.165813 0.046552 0.086297
730 0.076325 0.104182 0.040885 0.074550 -0.080389 0.075392 0.001916 -0.118631 -0.042107 -0.177701 -0.099584 0.062397 -0.014857 -0.055823 0.197684 -0.030950 0.073506 -0.069306 0.029203 -0.123017 -0.005226 0.108144 0.016635 -0.067843 -0.013477 -0.054376 -0.017258 -0.017868 -0.011802 0.078989 -0.113774 0.021313 -0.037995 -0.057502 -0.013148 -0.021817 0.031805 -0.156018 0.041814 0.068499
505 0.051755 0.073985 0.029089 0.091855 -0.089029 0.047941 0.012243 -0.122854 -0.031797 -0.203113 -0.075507 0.049722 -0.045593 -0.082966 0.175815 -0.053673 0.076032 -0.062718 -0.002482 -0.048848 -0.015425 0.093583 0.056699 -0.087396 -0.001410 -0.043972 -0.040459 -0.012521 -0.011611 0.020092 -0.130234 0.043988 -0.058661 -0.082072 -0.023380 -0.034633 0.015656 -0.144178 0.049906 0.079258
718 0.065529 0.077208 0.035923 0.085049 -0.076913 0.049054 0.021847 -0.096083 -0.039660 -0.192765 -0.083416 0.069120 -0.042326 -0.068319 0.169150 -0.028064 0.074491 -0.060062 0.001084 -0.074182 -0.027228 0.110902 0.041094 -0.088484 -0.013328 -0.046356 -0.048748 -0.007313 -0.014248 0.049333 -0.144441 0.050480 -0.032012 -0.073469 -0.003102 -0.043646 0.018892 -0.166010 0.046843 0.080654
736 0.015976 0.040251 0.009664 0.025737 -0.032286 0.014855 -0.006030 -0.035288 -0.021484 -0.050436 -0.016614 0.019707 -0.010914 -0.023687 0.035834 -0.020443 0.006355 -0.025206 -0.005546 -0.024051 -0.004431 0.039442 0.011466 -0.014585 -0.000813 -0.033391 -0.005198 -0.003000 -0.002627 0.018240 -0.051782 0.005393 -0.023978 -0.026016 0.002976 -0.019703 0.006136 -0.058297 0.018443 0.033182
724 0.046002 0.052338 0.020590 0.033951 -0.041530 0.023505 0.013965 -0.070429 -0.017761 -0.101593 -0.038901 0.043143 -0.024139 -0.030042 0.107327 -0.021319 0.035142 -0.051118 -0.000222 -0.050234 0.005686 0.055097 0.027562 -0.046139 0.003605 -0.041313 -0.032166 -0.011285 -0.018822 0.035010 -0.066489 0.023162 -0.024446 -0.035974 -0.015207 -0.020048 0.017142 -0.082884 0.017922 0.038259
715 0.011335 0.031556 0.007289 0.024055 -0.047286 0.036088 -0.003195 -0.022289 -0.023951 -0.080628 -0.013760 0.020989 -0.020150 -0.034784 0.068505 -0.027340 0.012669 -0.034077 0.011272 -0.032236 0.011058 0.056426 0.015473 -0.023999 0.002198 -0.011881 -0.022606 0.006461 -0.013511 0.017195 -0.038153 0.003784 -0.018263 -0.023248 -0.002921 -0.001944 -0.004630 -0.043745 0.016823 0.041190
