65 30
723 0.020820 0.197259 -0.016136 -0.094809 -0.104010 0.009283 -0.058261 -0.006052 0.026755 0.203445 0.090185 0.152878 0.013973 0.065111 -0.073560 0.104060 -0.038167 -0.067486 -0.059389 0.064344 -0.055153 0.130754 -0.061237 -0.006391 0.050297 -0.038242 -0.025538 0.016078 -0.035897 0.076314
702 0.002543 0.230876 -0.007649 -0.069840 -0.100366 0.000976 -0.066571 0.031387 -0.032485 0.251977 0.151134 0.208176 -0.005093 0.099500 -0.122209 0.139453 -0.083815 -0.101128 -0.037822 0.086898 -0.060862 0.135901 -0.110459 -0.049118 0.058492 -0.026743 -0.028844 -0.008472 -0.015803 0.089604
719 -0.064682 0.253381 -0.109001 -0.034247 -0.090626 0.046051 -0.043761 0.060639 -0.032471 0.217490 0.114804 0.228363 -0.016663 0.123668 -0.130955 0.133979 -0.053844 -0.106186 -0.044148 0.070722 0.011393 0.079171 -0.112605 -0.081560 0.026463 -0.059695 -0.012997 0.016307 0.010572 0.114005
633 -0.014541 0.184949 -0.042597 -0.073952 -0.103275 -0.000760 -0.055348 0.067055 -0.036055 0.245696 0.097606 0.199174 -0.011849 0.118636 -0.109133 0.116413 -0.134233 -0.097878 -0.027363 0.096580 -0.024400 0.087441 -0.082677 -0.093754 0.012300 0.008695 -0.019143 -0.002166 -0.018122 0.097910
656 0.028359 0.174094 -0.011485 -0.046358 -0.081263 0.017752 -0.014359 0.034832 -0.085891 0.230498 0.073001 0.197814 -0.003893 0.066439 -0.075373 0.127684 -0.101654 -0.146604 -0.078582 0.104415 0.003562 0.059355 -0.057826 -0.047439 0.012440 -0.050501 -0.109185 -0.017455 -0.070607 0.059194
657 0.014018 0.162749 -0.056262 -0.025757 -0.081562 -0.001745 -0.016011 0.034123 -0.063774 0.219911 0.113977 0.240568 0.009998 0.091937 -0.118890 0.125228 -0.104999 -0.188508 -0.066804 0.091500 -0.003973 0.073898 -0.129344 -0.122464 0.035265 -0.064276 -0.031095 -0.028613 0.014766 0.094591
681 0.012782 0.185801 -0.086406 0.012080 -0.091407 0.043630 -0.017730 0.004683 -0.080973 0.196132 0.078573 0.224860 0.000764 0.076794 -0.096358 0.128155 -0.068289 -0.105208 -0.059704 0.079192 0.033804 0.033293 -0.104360 -0.073250 0.018288 -0.053191 -0.051982 -0.007020 0.014298 0.091922
660 0.010387 0.187820 -0.035200 -0.051640 -0.123622 0.012308 -0.055608 0.015330 -0.056293 0.253066 0.095345 0.186485 -0.006750 0.113780 -0.083640 0.102308 -0.112174 -0.119605 -0.036724 0.089429 0.017288 0.075112 -0.078368 -0.040243 0.062977 -0.004900 -0.032700 0.003710 -0.006639 0.089865
132 -0.015886 0.194500 -0.019083 -0.085883 -0.078863 0.012025 -0.042740 0.032327 -0.033630 0.256427 0.102545 0.203411 -0.020921 0.091079 -0.081767 0.094604 -0.088129 -0.150819 -0.057341 0.115426 -0.019894 0.085925 -0.060260 -0.066355 0.035725 -0.039913 -0.052368 0.008470 -0.046411 0.071718
659 -0.024147 0.232537 -0.075671 -0.015369 -0.056584 0.031824 -0.035878 0.022071 -0.039037 0.154264 0.080291 0.178690 -0.037190 0.127202 -0.106804 0.145892 -0.064117 -0.143086 -0.053980 0.061231 0.000721 0.089573 -0.103944 -0.089798 0.062161 -0.077037 0.003463 -0.014220 0.017806 0.130570
577 0.029707 0.139754 -0.035521 -0.104105 -0.049035 0.012701 -0.066120 0.046305 -0.023113 0.209355 0.075521 0.188082 0.042823 0.043463 -0.094681 0.105411 -0.070756 -0.126506 -0.100592 0.067478 -0.081492 0.100354 -0.112698 -0.039017 -0.015783 -0.071192 -0.082847 -0.048455 -0.060699 0.055915
644 0.003409 0.157816 -0.097888 -0.076514 -0.037030 0.019061 -0.031507 0.063506 -0.043639 0.195788 0.083539 0.196450 0.016180 0.088039 -0.115518 0.110691 -0.080539 -0.180988 -0.116189 0.057851 -0.041468 0.076580 -0.111357 -0.064494 -0.001043 -0.087813 -0.060536 -0.049730 -0.052756 0.079431
725 0.023195 0.180005 -0.076978 -0.057933 -0.040707 0.040502 -0.063423 0.042654 -0.036970 0.218140 0.089066 0.194318 0.004017 0.064684 -0.102718 0.136626 -0.046687 -0.154378 -0.138747 0.085028 -0.053590 0.085304 -0.100175 -0.046016 -0.014875 -0.089394 -0.074344 -0.025225 -0.084528 0.074910
710 0.018052 0.239964 0.006779 -0.058947 -0.114318 0.014113 -0.072752 -0.006010 -0.032324 0.229612 0.116973 0.174989 -0.033973 0.066047 -0.071986 0.125779 -0.077383 -0.074432 -0.046868 0.107033 -0.016712 0.089009 -0.076954 -0.031254 0.057501 -0.000362 -0.062571 0.021032 -0.010851 0.085630
707 -0.095591 0.288809 -0.022111 -0.073449 -0.116069 -0.013304 -0.056058 0.076106 -0.031022 0.216759 0.120303 0.203068 -0.052354 0.178294 -0.121438 0.159826 -0.090644 -0.125273 0.020477 0.091609 -0.046705 0.161317 -0.124362 -0.084319 0.085908 -0.021399 -0.003520 -0.019298 0.012574 0.133466
572 -0.027030 0.218698 -0.064273 -0.087627 -0.098180 0.035306 -0.064767 0.030398 -0.019671 0.246528 0.080927 0.200247 -0.006265 0.143274 -0.105150 0.140684 -0.080750 -0.113155 -0.038797 0.065318 -0.022911 0.135847 -0.111509 -0.024003 0.043428 -0.050775 -0.016389 -0.011545 -0.015839 0.118400
506 -0.075626 0.239135 0.001259 -0.075990 -0.002134 -0.015167 -0.011324 0.081718 -0.038195 0.150692 0.114649 0.157803 -0.024265 0.105994 -0.119677 0.121336 -0.046620 -0.172441 -0.051681 0.068161 -0.109940 0.146701 -0.151892 -0.068068 0.058269 -0.099506 -0.043835 -0.060768 -0.028323 0.072385
722 -0.020513 0.164458 -0.007436 -0.077082 -0.099838 -0.041894 -0.048792 0.059504 -0.015131 0.252488 0.140036 0.173781 0.025739 0.107864 -0.114689 0.114962 -0.088538 -0.187409 -0.026645 0.091267 -0.069034 0.136166 -0.120099 -0.082392 0.048418 -0.031073 -0.001904 -0.020302 -0.025665 0.066428
686 -0.019504 0.179739 -0.063166 -0.085417 -0.020338 0.015435 -0.017463 0.063238 -0.032028 0.185684 0.078136 0.199067 0.013357 0.072896 -0.110710 0.127496 -0.036489 -0.154410 -0.105049 0.050274 -0.072135 0.102355 -0.121640 -0.063550 0.002794 -0.124281 -0.075450 -0.056769 -0.048288 0.077053
351 -0.023921 0.221404 -0.022946 0.007643 -0.067833 0.019279 0.006048 0.012551 -0.076133 0.123905 0.084586 0.148865 -0.054828 0.092231 -0.081081 0.108116 -0.088475 -0.079310 -0.002852 0.075375 -0.021410 0.051492 -0.107591 -0.068320 0.065024 -0.017255 -0.022645 -0.004615 0.043858 0.105312
634 -0.047476 0.210020 -0.028617 0.031920 -0.084360 -0.029184 0.019356 0.055472 -0.080227 0.168612 0.100169 0.187714 -0.057773 0.147913 -0.110512 0.117572 -0.117511 -0.158552 0.015313 0.081882 0.006708 0.067159 -0.127223 -0.129072 0.106652 -0.023557 0.037708 -0.026247 0.083436 0.114374
726 0.032879 0.219173 0.020635 -0.032770 -0.141977 -0.000848 -0.010890 -0.017928 -0.064341 0.257449 0.086119 0.208211 -0.024965 0.108888 -0.072750 0.123582 -0.129008 -0.094244 -0.019144 0.119528 0.024952 0.094279 -0.064176 -0.054911 0.095346 -0.005957 -0.061223 0.001839 -0.000078 0.087928
727 0.092868 0.188944 -0.008651 -0.067907 -0.097331 0.034851 -0.059602 -0.012779 -0.041722 0.234460 0.120816 0.169790 0.003256 0.052432 -0.077835 0.104995 -0.095469 -0.076751 -0.102975 0.091536 -0.049656 0.073167 -0.091960 0.002582 0.032126 -0.018781 -0.081791 0.000670 -0.034768 0.073674
624 -0.077869 0.233607 -0.065421 -0.036807 -0.056023 0.029761 -0.020900 0.061162 -0.067565 0.195960 0.080156 0.209197 -0.033063 0.134637 -0.101580 0.129346 -0.061430 -0.158899 -0.029348 0.083159 0.004257 0.088797 -0.123247 -0.080090 0.044270 -0.078969 -0.035077 -0.012914 -0.017464 0.095843
600 -0.020465 0.264385 -0.005549 -0.032348 -0.109657 0.015599 -0.023512 0.026648 -0.070553 0.174825 0.126483 0.172544 -0.071392 0.118874 -0.091659 0.135034 -0.089632 -0.099897 -0.025698 0.073237 -0.033964 0.113926 -0.126982 -0.025350 0.079880 -0.011960 -0.052680 -0.013764 0.026346 0.094762
599 -0.033657 0.255087 -0.076983 -0.001011 -0.050144 0.060514 -0.026047 0.083399 -0.076619 0.136138 0.115173 0.177371 -0.055932 0.135900 -0.145920 0.133660 -0.088169 -0.155532 -0.087414 0.060369 -0.026586 0.071342 -0.142956 -0.086278 0.043553 -0.076764 -0.026206 -0.032577 0.026850 0.131793
553 0.027094 0.138773 -0.046897 -0.005063 -0.092002 0.009716 -0.009396 0.014262 -0.101246 0.246972 0.083486 0.248627 0.013910 0.094641 -0.076850 0.115071 -0.144921 -0.152216 -0.034472 0.110584 0.050880 0.035914 -0.077544 -0.097591 0.021721 -0.012981 -0.051270 -0.027669 -0.015546 0.066710
407 -0.043305 0.273052 -0.037813 -0.036373 -0.071938 0.038131 -0.028457 0.038378 -0.049136 0.186938 0.092788 0.193210 -0.061825 0.138127 -0.102028 0.134077 -0.071040 -0.136457 -0.058176 0.069911 -0.017480 0.108035 -0.095608 -0.053077 0.086657 -0.067659 -0.018205 0.003057 -0.023181 0.125626
721 0.049808 0.263781 0.043296 0.004981 -0.138573 0.022463 -0.039416 -0.014670 -0.091172 0.224058 0.119671 0.199423 -0.059651 0.120870 -0.074653 0.134841 -0.156815 -0.086297 -0.011120 0.130493 0.009907 0.101146 -0.062583 -0.054097 0.113241 0.011298 -0.049840 0.007480 0.006983 0.112728
483 -0.007551 0.250123 -0.024978 -0.052144 -0.112324 0.006357 -0.037462 0.023812 -0.058761 0.226558 0.124379 0.213259 -0.012188 0.117151 -0.100983 0.132272 -0.089402 -0.122852 -0.044725 0.096335 -0.035439 0.111072 -0.146238 -0.071327 0.080437 -0.037217 -0.036390 -0.012734 0.017419 0.119144
714 -0.014562 0.239868 -0.033024 -0.044359 -0.048045 0.007452 -0.005131 0.050624 -0.060374 0.149709 0.105724 0.184224 -0.040908 0.119980 -0.107054 0.149725 -0.087265 -0.176095 -0.074974 0.059029 -0.089094 0.138804 -0.166361 -0.067560 0.051823 -0.086619 -0.043960 -0.059697 -0.005071 0.103175
460 -0.052842 0.266456 -0.051818 -0.040320 -0.057814 0.017876 -0.008171 0.053918 -0.046958 0.177282 0.088257 0.181410 -0.038402 0.162649 -0.107506 0.153548 -0.055935 -0.137606 -0.032211 0.072132 -0.024152 0.114646 -0.105065 -0.062458 0.073011 -0.063136 -0.013965 -0.022739 -0.002881 0.113543
691 -0.013307 0.254137 -0.017459 -0.044750 -0.095784 0.008975 -0.037242 0.003828 -0.037266 0.234275 0.104941 0.177078 -0.035416 0.126270 -0.071844 0.126179 -0.086455 -0.118251 -0.024121 0.098655 0.013303 0.110158 -0.048749 -0.026349 0.091445 -0.025484 -0.031402 0.014050 -0.039003 0.089027
606 -0.022311 0.186540 -0.111423 -0.047595 -0.086726 0.022562 -0.050794 0.055239 -0.049689 0.249580 0.086151 0.222824 0.004485 0.119874 -0.105005 0.133818 -0.077760 -0.153021 -0.057097 0.073363 0.012680 0.059536 -0.093824 -0.093735 0.022700 -0.045129 -0.018014 0.002491 -0.035703 0.092509
669 -0.017596 0.215220 -0.098392 -0.034068 -0.057744 0.019305 -0.013926 0.051878 -0.062090 0.235744 0.077578 0.232061 0.013225 0.090837 -0.104506 0.140573 -0.069164 -0.169869 -0.104812 0.100529 -0.002104 0.056776 -0.091570 -0.094425 -0.011787 -0.088891 -0.062222 -0.016452 -0.042114 0.086831
708 -0.053700 0.225878 -0.024401 -0.054610 -0.070000 0.001832 -0.043935 0.042746 -0.026830 0.221616 0.118465 0.201722 -0.008145 0.112768 -0.112931 0.119879 -0.033081 -0.137283 -0.034337 0.071296 -0.046806 0.122579 -0.097876 -0.065370 0.063097 -0.075824 -0.012089 -0.014632 -0.016350 0.096083
732 -0.007534 0.226170 -0.016132 -0.025810 -0.068906 0.005961 0.001518 0.023199 -0.054544 0.162797 0.119015 0.162444 -0.037499 0.104757 -0.082874 0.131003 -0.098720 -0.171001 -0.028653 0.100325 -0.027501 0.087932 -0.093687 -0.053073 0.072167 -0.048855 -0.032888 -0.014763 0.001024 0.085993
569 0.014929 0.235731 0.027547 -0.030633 -0.119075 -0.017540 -0.037460 -0.005881 -0.025393 0.188572 0.129626 0.163957 -0.042180 0.107526 -0.087440 0.114228 -0.093822 -0.084193 -0.008410 0.098452 -0.039294 0.100528 -0.082648 -0.046621 0.094415 0.003861 -0.011768 0.001794 0.045672 0.105785
728 0.027021 0.223200 -0.037707 -0.031070 -0.057267 0.034071 -0.028312 0.039817 -0.062823 0.164084 0.096854 0.163518 -0.030322 0.082331 -0.100421 0.127607 -0.061681 -0.129803 -0.094923 0.069398 -0.060098 0.069537 -0.125579 -0.047742 0.040990 -0.083915 -0.048912 -0.021622 0.005531 0.106598
655 -0.005916 0.206717 -0.029459 -0.045191 -0.097921 0.039511 -0.022811 0.059207 -0.081349 0.219026 0.060211 0.212071 -0.053717 0.132288 -0.104690 0.158074 -0.114244 -0.146544 -0.059314 0.089717 -0.009825 0.114789 -0.092391 -0.048308 0.051737 -0.051723 -0.054484 -0.037830 -0.034225 0.129120
733 -0.010980 0.241126 -0.027823 -0.067488 -0.077277 -0.011702 -0.034329 0.024989 -0.038878 0.243835 0.106424 0.224381 -0.007151 0.115008 -0.112852 0.129560 -0.101854 -0.167561 -0.059748 0.086856 -0.047424 0.101881 -0.098265 -0.073356 0.062928 -0.061873 -0.034494 -0.030838 -0.019843 0.090968
735 0.011620 0.232941 0.020849 -0.061388 -0.116111 -0.000984 -0.050798 0.015656 -0.064606 0.206627 0.091571 0.178977 -0.035469 0.094424 -0.080931 0.138611 -0.108208 -0.113980 -0.040469 0.106219 -0.048272 0.113331 -0.107004 -0.034773 0.077475 -0.015580 -0.050397 -0.018030 -0.009615 0.088042
552 0.006674 0.264045 -0.040483 -0.028601 -0.099920 0.021601 -0.018615 0.042549 -0.085997 0.249799 0.130078 0.251877 -0.016923 0.111553 -0.125548 0.162279 -0.122122 -0.218354 -0.084602 0.106417 -0.018439 0.103836 -0.120694 -0.126455 0.044396 -0.086284 -0.074321 -0.051688 -0.011956 0.110923
529 -0.015611 0.281068 -0.070888 -0.015294 -0.085113 0.028565 -0.018015 0.015820 -0.062481 0.216865 0.117934 0.225806 -0.031295 0.140962 -0.107118 0.139873 -0.085658 -0.152467 -0.070017 0.098474 -0.014178 0.085157 -0.128128 -0.080228 0.068064 -0.072332 -0.025719 -0.008631 0.003314 0.116700
690 -0.009448 0.261231 -0.006425 -0.031017 -0.107165 0.016894 -0.028909 -0.008279 -0.074400 0.201585 0.099147 0.209520 -0.055161 0.110808 -0.081656 0.147497 -0.097524 -0.114988 -0.011739 0.088690 -0.027675 0.094823 -0.114469 -0.049993 0.097035 -0.028180 -0.032318 -0.021842 0.018816 0.098598
280 -0.009418 0.173773 0.006548 -0.052487 -0.074813 -0.010613 -0.032620 0.015499 -0.049504 0.211242 0.089136 0.181290 -0.003182 0.098218 -0.082528 0.107488 -0.118868 -0.146974 -0.041274 0.086501 -0.019214 0.107132 -0.108324 -0.068779 0.047407 -0.021010 -0.050195 -0.031970 -0.021384 0.074063
482 -0.027534 0.243335 -0.005347 -0.057736 -0.111153 0.004572 -0.024966 0.040821 -0.066249 0.217882 0.106688 0.219045 -0.009802 0.110228 -0.091785 0.134030 -0.119826 -0.147831 -0.023629 0.105290 -0.054648 0.139159 -0.112687 -0.060110 0.065804 -0.039850 -0.053545 -0.045649 -0.008681 0.079392
720 -0.001793 0.245168 0.006439 -0.064669 -0.059359 0.009880 -0.028045 0.033405 -0.053516 0.212991 0.147019 0.212901 -0.025974 0.119900 -0.097770 0.157324 -0.093009 -0.168776 -0.059150 0.105843 -0.050164 0.142790 -0.115190 -0.054729 0.093486 -0.080113 -0.033367 -0.022935 -0.006563 0.100186
731 -0.037734 0.251974 -0.008595 -0.052186 -0.083787 -0.017239 -0.004926 0.058511 -0.069589 0.188815 0.134231 0.165065 -0.051891 0.123815 -0.122305 0.157750 -0.078388 -0.138839 -0.048971 0.060314 -0.064282 0.143095 -0.162013 -0.051566 0.073904 -0.060354 -0.036298 -0.030208 0.017316 0.102501
717 -0.010670 0.184430 -0.054850 -0.044185 -0.043356 0.015188 -0.023485 0.054759 -0.031757 0.181314 0.112818 0.201270 0.024018 0.062589 -0.122059 0.123844 -0.069769 -0.161648 -0.091784 0.088097 -0.060302 0.070504 -0.124601 -0.090544 0.003415 -0.076962 -0.045017 -0.026843 -0.035878 0.066820
576 0.015318 0.245794 -0.016402 -0.045077 -0.074988 0.025475 -0.049238 0.016874 -0.057909 0.224436 0.130369 0.214928 -0.016333 0.089243 -0.111314 0.159181 -0.091539 -0.122846 -0.064305 0.103360 -0.049850 0.120152 -0.113856 -0.050475 0.053733 -0.065704 -0.057686 -0.033734 0.001021 0.100750
439 -0.025799 0.209371 -0.065439 -0.072315 -0.047882 0.004532 -0.043470 0.052638 -0.046766 0.237662 0.110425 0.221666 0.003255 0.097472 -0.119920 0.144341 -0.079130 -0.229760 -0.087281 0.097309 -0.057501 0.103092 -0.130582 -0.096413 0.031202 -0.103802 -0.049780 -0.036354 -0.032333 0.094747
712 -0.025238 0.289473 -0.042744 -0.058035 -0.094786 0.017712 -0.017529 0.051183 -0.069215 0.235508 0.102072 0.252382 -0.052377 0.153269 -0.128987 0.150764 -0.120134 -0.178924 -0.062907 0.112807 -0.009981 0.125441 -0.134735 -0.093932 0.067102 -0.058089 -0.041177 -0.015253 -0.011739 0.137241
713 -0.021927 0.243380 -0.030300 -0.055186 -0.079422 0.022576 -0.027414 0.024808 -0.065151 0.223975 0.113021 0.208404 -0.024375 0.103281 -0.106519 0.136824 -0.079523 -0.178717 -0.084665 0.089643 -0.031907 0.112281 -0.103830 -0.077245 0.061231 -0.079135 -0.059385 -0.029875 -0.034717 0.108976
729 0.035185 0.181227 -0.027041 -0.031516 -0.066797 0.003420 -0.019232 0.008219 -0.032873 0.210090 0.099321 0.167753 -0.010597 0.068736 -0.067727 0.102286 -0.065495 -0.127171 -0.066967 0.099607 0.003889 0.047619 -0.072542 -0.060088 0.037924 -0.047566 -0.058771 -0.002006 -0.021171 0.089099
372 -0.021144 0.257863 -0.029265 -0.042142 -0.106700 0.013693 -0.047700 0.007520 -0.054234 0.216248 0.088858 0.187373 -0.055275 0.100920 -0.083327 0.146154 -0.059041 -0.110147 -0.039411 0.100047 -0.018085 0.127827 -0.084902 -0.028465 0.090908 -0.042689 -0.021255 0.007375 0.005372 0.108763
393 -0.014901 0.238431 -0.010354 -0.060384 -0.075148 0.018003 -0.022679 0.031341 -0.053499 0.217781 0.105946 0.183825 -0.047030 0.128615 -0.117024 0.141726 -0.079216 -0.133935 -0.047216 0.080935 -0.049324 0.131730 -0.107537 -0.052617 0.055905 -0.058219 -0.038643 -0.019366 -0.029913 0.103601
716 -0.015020 0.262779 -0.059648 -0.063860 -0.082635 0.040602 -0.045704 0.055035 -0.070002 0.243342 0.133111 0.234809 -0.044676 0.122141 -0.113059 0.146121 -0.093301 -0.154708 -0.084269 0.107384 -0.018403 0.090949 -0.125991 -0.087869 0.061612 -0.060294 -0.057503 -0.032680 0.004006 0.135793
734 0.012898 0.278973 -0.011796 -0.033705 -0.095176 0.019415 -0.017252 0.010131 -0.074011 0.246295 0.118672 0.209007 -0.028847 0.106228 -0.102192 0.156319 -0.099363 -0.152638 -0.057476 0.092250 -0.017917 0.100265 -0.127767 -0.047755 0.059563 -0.043984 -0.051087 -0.021863 -0.025089 0.126875
730 0.003836 0.245834 -0.037930 -0.049151 -0.106465 0.006241 -0.021420 0.014425 -0.048792 0.217546 0.099088 0.214513 -0.009226 0.105407 -0.111005 0.137186 -0.096719 -0.136422 -0.053145 0.080528 -0.031129 0.095447 -0.100027 -0.066649 0.065739 -0.046702 -0.056149 -0.004446 -0.002742 0.084364
505 0.000071 0.222492 -0.038399 -0.027051 -0.068168 0.023380 -0.032584 0.006839 -0.063785 0.190832 0.108514 0.206874 -0.030185 0.096289 -0.090780 0.153747 -0.084313 -0.131715 -0.072804 0.096163 -0.017760 0.092855 -0.106956 -0.053221 0.069897 -0.041856 -0.038953 -0.001161 -0.024277 0.122807
718 -0.021075 0.185331 -0.019504 -0.031734 -0.075473 0.017997 -0.040169 0.011451 -0.034947 0.142574 0.071540 0.135582 -0.015708 0.094868 -0.085393 0.125738 -0.060937 -0.106970 -0.037004 0.057854 -0.020397 0.075614 -0.097696 -0.041100 0.061625 -0.056050 -0.016283 -0.003401 0.007599 0.094730
736 -0.005225 0.054439 0.004182 -0.001397 -0.018874 0.011623 -0.015878 0.023394 -0.015312 0.065427 0.023892 0.073522 -0.010083 0.016326 -0.047690 0.025905 -0.012575 -0.054626 -0.013639 0.029518 -0.004745 0.039986 -0.025233 -0.029847 0.016247 -0.034222 -0.020345 -0.017981 -0.015877 0.019128
724 -0.000100 0.117619 -0.030113 -0.014671 -0.027120 -0.002674 -0.014596 0.007889 -0.025740 0.111513 0.061363 0.111121 -0.016090 0.067014 -0.041420 0.078419 -0.060420 -0.067381 -0.033481 0.058299 -0.025907 0.063882 -0.067757 -0.029898 0.030264 -0.024470 -0.032521 -0.003163 -0.000240 0.056711
715 0.010606 0.091209 0.004629 -0.019074 -0.051114 0.008238 -0.023665 0.023598 -0.024846 0.105335 0.037317 0.066433 -0.024898 0.037278 -0.046348 0.053512 -0.041363 -0.021990 -0.002579 0.023246 -0.007128 0.034791 -0.031521 -0.005856 0.019654 -0.011362 -0.026742 0.013442 -0.021670 0.048175
