65 10
723 -0.178097 0.018756 0.205365 -0.003131 0.282471 0.091883 0.048278 -0.003798 0.158937 0.056536
702 -0.140935 0.147767 0.272378 -0.100549 0.296206 0.079603 0.105755 0.027456 0.229772 0.041518
719 -0.186829 0.197042 0.215295 -0.068307 0.252738 -0.007664 0.156750 -0.037523 0.185259 0.132701
633 -0.105026 0.117116 0.175866 -0.128842 0.314896 -0.064041 0.155437 0.017997 0.201466 0.001377
656 -0.227819 0.065707 0.215099 -0.008111 0.248419 -0.026890 0.086460 0.053118 0.200707 -0.034804
657 -0.166837 0.126252 0.175270 -0.082879 0.260666 -0.035867 0.188997 0.024181 0.224021 0.053842
681 -0.323729 0.092044 0.101042 -0.007811 0.230916 -0.045680 0.183206 -0.008751 0.171884 0.046802
660 -0.196273 0.043441 0.213450 0.016033 0.270386 -0.049335 0.126433 0.068215 0.183639 0.058924
132 -0.136759 0.043556 0.268311 -0.032930 0.349756 -0.023651 0.057635 0.129574 0.191412 0.051241
659 -0.147321 0.135890 0.211613 -0.078814 0.216844 -0.100827 0.201889 0.048380 0.116382 0.145949
577 -0.160724 0.103928 0.168195 -0.065625 0.176814 0.069423 0.218439 0.163254 0.270256 0.009411
644 -0.193530 0.130160 0.195083 -0.043547 0.193722 -0.107856 0.203629 0.120285 0.233255 0.013589
725 -0.178415 0.017538 0.210901 -0.104474 0.252677 -0.024356 0.167774 0.145789 0.125408 0.016343
710 -0.134518 0.112001 0.219710 -0.020929 0.282948 -0.051660 0.124035 0.096238 0.162982 0.058634
707 -0.175100 0.042223 0.184228 -0.044602 0.306425 0.020435 0.231998 0.112015 0.188412 0.068029
572 -0.259781 0.177532 0.230584 -0.042947 0.205639 0.009568 0.139149 0.007904 0.249113 0.128646
506 -0.108213 0.123617 0.174223 -0.100654 0.201984 0.007244 0.253785 0.190307 0.236370 -0.008173
722 -0.067756 0.114991 0.257728 -0.058081 0.310358 -0.001295 0.124035 0.120564 0.195559 0.082350
686 -0.219321 0.027201 0.196984 -0.056273 0.209431 0.030454 0.174898 0.109159 0.178524 -0.033761
351 -0.072573 0.144348 0.106520 -0.060858 0.187070 -0.050319 0.186806 0.124626 0.187351 0.045504
634 -0.054492 0.164344 0.215271 -0.041153 0.132815 -0.043999 0.177912 0.055794 0.206096 0.028842
726 -0.187189 -0.023083 0.262708 0.069959 0.302846 -0.085108 0.207434 0.122049 0.183635 0.020844
727 -0.117055 0.124918 0.232109 -0.066366 0.227082 -0.034826 0.157813 0.042081 0.232535 -0.015271
624 -0.124378 0.147289 0.213469 -0.018236 0.228344 -0.040932 0.192446 0.072345 0.221478 0.024201
600 -0.132518 0.198741 0.258447 0.028622 0.234945 0.002094 0.057466 0.028317 0.245648 0.116642
599 -0.177502 0.195606 0.131317 -0.082794 0.233121 -0.119027 0.155436 0.034414 0.195777 0.185477
553 -0.081431 0.151439 0.125164 -0.146128 0.223159 -0.090802 0.208302 0.047621 0.218938 -0.013592
407 -0.221172 0.138405 0.210723 -0.069422 0.215813 -0.052837 0.124543 0.119248 0.216385 0.136638
721 -0.037416 0.146752 0.208606 -0.116164 0.297270 -0.131870 0.254653 0.149266 0.171636 0.099333
483 -0.149936 0.121229 0.187888 -0.053474 0.254844 -0.068257 0.268164 0.100787 0.174310 0.073869
714 -0.217312 0.080190 0.228054 -0.088120 0.235577 0.006723 0.229515 0.095440 0.219160 0.054558
460 -0.217222 0.054828 0.216013 -0.039917 0.258070 -0.026693 0.182093 0.056963 0.178771 0.069041
691 -0.176237 0.109277 0.248275 -0.049107 0.266902 -0.089358 0.131159 0.051117 0.073090 0.076366
606 -0.188734 0.136010 0.186710 -0.143989 0.238701 -0.178180 0.200447 -0.008556 0.180796 0.024875
669 -0.248239 0.062472 0.214068 -0.048997 0.262083 -0.098099 0.175768 0.107663 0.083886 0.120489
708 -0.242116 0.074246 0.226307 -0.071387 0.234956 0.036933 0.223623 0.100938 0.170260 0.042375
732 -0.150424 0.056520 0.179572 0.044984 0.198078 -0.059674 0.153153 0.172855 0.214384 0.068858
569 -0.048445 0.125942 0.259955 -0.096024 0.293915 -0.078242 0.184903 0.110303 0.143340 0.107127
728 -0.117431 0.143780 0.231249 -0.080815 0.219410 -0.087563 0.260083 0.114811 0.177776 0.020467
655 -0.170850 0.043503 0.264180 -0.096438 0.346852 -0.110857 0.226171 0.118117 0.118938 0.033561
733 -0.140805 0.110927 0.202736 -0.088645 0.249665 -0.038524 0.099408 0.129414 0.223130 0.010077
735 -0.112148 0.063896 0.194294 -0.091225 0.228889 -0.074188 0.183382 0.169092 0.125703 0.047637
552 -0.214675 0.139975 0.220406 -0.036350 0.272645 -0.082655 0.197058 0.101294 0.252903 0.047660
529 -0.059508 0.209382 0.260695 -0.030512 0.230803 -0.090829 0.220894 0.115889 0.252857 0.077024
690 -0.170176 0.090525 0.220663 -0.033872 0.216130 -0.145254 0.213402 0.166302 0.204340 -0.003319
280 -0.134236 0.032835 0.194749 -0.036096 0.209112 0.013826 0.113280 0.131761 0.185122 0.031096
482 -0.185186 0.068381 0.201931 -0.060515 0.262637 -0.102590 0.212729 0.122189 0.234140 0.007745
720 -0.130044 0.156267 0.288546 -0.092564 0.233069 -0.031599 0.202880 0.169829 0.227168 0.021989
731 -0.152864 0.110630 0.306489 -0.004993 0.299405 -0.101399 0.178240 0.143675 0.231234 0.039570
717 -0.161203 0.112912 0.271979 -0.067514 0.238152 -0.029557 0.173168 0.095688 0.210594 0.054422
576 -0.240348 0.089851 0.208699 -0.043096 0.241577 -0.094271 0.235679 0.132549 0.124379 0.065086
439 -0.140301 0.170536 0.213542 -0.075034 0.247224 -0.129513 0.182651 0.082192 0.264663 0.026862
712 -0.129401 0.105584 0.234488 -0.102684 0.322635 -0.031444 0.271290 0.193274 0.217005 0.040469
713 -0.233188 0.069477 0.201921 -0.046892 0.300576 -0.141357 0.142754 0.179217 0.219681 0.088251
729 -0.204135 0.146793 0.199132 -0.038756 0.269311 -0.127042 0.140450 0.060425 0.230919 0.082272
372 -0.150437 0.092622 0.179690 -0.043935 0.248120 -0.043775 0.153015 0.054318 0.210680 0.121668
393 -0.205489 0.074519 0.211425 -0.064082 0.305973 -0.095685 0.174651 0.152993 0.165535 0.068679
716 -0.219581 0.190789 0.188661 -0.094207 0.300198 -0.083653 0.162262 0.139677 0.210576 0.129447
734 -0.167202 0.161542 0.249140 -0.078719 0.311718 -0.113472 0.187455 0.160607 0.231507 0.099398
730 -0.168288 0.081519 0.276225 -0.077133 0.254909 -0.043057 0.156202 0.119430 0.229420 0.123158
505 -0.105290 0.144331 0.219943 -0.091602 0.239407 -0.071357 0.184471 0.118424 0.152792 0.102906
718 -0.185931 0.045188 0.200904 -0.025150 0.230369 -0.119529 0.236391 0.129973 0.178339 0.075762
736 -0.106120 0.052485 0.051683 0.040627 0.098313 -0.000567 0.055928 0.044076 0.011547 0.031432
724 -0.107345 0.060475 0.138833 -0.037578 0.109697 -0.065213 0.096163 0.060725 0.126592 -0.002543
715 -0.045866 0.083833 0.040847 -0.003331 0.124165 0.022564 0.042021 -0.001260 0.046527 0.032104
