11 100
3 -0.002994 0.033536 -0.002637 0.004575 -0.008414 0.015573 -0.008159 -0.026108 -0.020122 0.016830 -0.013888 0.010272 0.014527 -0.005200 -0.021522 -0.004362 0.001856 -0.022014 0.001055 0.007507 -0.036021 -0.001087 -0.034421 0.016423 0.013417 -0.054367 0.002722 0.009005 0.014103 0.039973 -0.023112 -0.005442 0.006783 -0.027079 0.064934 -0.035882 0.026200 -0.026758 0.028354 -0.007044 -0.018852 -0.006546 -0.025634 0.022105 -0.013824 -0.003563 0.026878 -0.017829 0.021823 -0.041889 -0.037161 0.027312 0.039483 -0.024245 0.016078 0.016223 0.024313 0.007206 0.007477 -0.002399 -0.019415 0.012460 -0.014370 0.002136 0.006807 -0.018617 0.019185 -0.007852 0.045030 -0.045204 -0.003029 0.034898 -0.004230 0.028350 0.039068 -0.006344 -0.007146 -0.017912 -0.001124 0.011435 0.000880 0.021090 0.043741 -0.021917 -0.017879 0.016148 0.012791 -0.034259 -0.036200 0.053312 -0.030130 0.038979 0.008433 -0.024398 -0.011262 0.027997 -0.050539 0.027609 0.029580 -0.005032
1 -0.008236 0.028920 0.012212 0.003479 0.008791 0.015434 -0.020356 -0.007901 -0.011136 0.030858 -0.021386 -0.004994 0.027492 0.002311 -0.030594 0.001246 0.004343 -0.000762 0.008710 -0.007068 -0.046294 -0.019132 -0.042852 0.010866 0.018619 -0.044530 0.010335 0.022839 0.004022 0.025723 -0.016161 0.007143 0.003964 -0.037312 0.059967 -0.033942 0.026193 -0.030004 0.034149 0.005829 -0.022625 -0.018579 -0.035405 0.003245 -0.016318 -0.013512 0.009877 -0.008763 0.020519 -0.042724 -0.047001 0.039964 0.034488 -0.026909 0.005891 0.023721 0.009437 0.011387 0.015186 0.005581 -0.015586 0.011340 -0.010994 0.016364 -0.003919 -0.031566 -0.002444 -0.009449 0.039669 -0.033499 -0.011740 0.049276 0.000765 0.019467 0.039624 0.005286 -0.005093 -0.020141 -0.017418 0.010471 0.003068 0.009821 0.040664 -0.033139 -0.022677 0.024546 -0.002648 -0.026804 -0.026264 0.058461 -0.025401 0.018478 0.014932 -0.009189 0.003054 0.033957 -0.059050 0.011952 0.033384 0.007386
8 -0.009447 0.076355 -0.002005 0.016472 -0.008181 0.044106 -0.029509 -0.054512 -0.060258 0.057296 -0.052918 0.014637 0.053800 -0.004500 -0.051012 -0.019600 -0.007540 -0.045871 0.012727 0.006471 -0.093550 -0.015001 -0.083938 0.051831 0.029170 -0.143910 0.020519 0.029227 0.041549 0.106186 -0.048935 -0.022591 0.018713 -0.073297 0.159980 -0.082112 0.072035 -0.091950 0.071190 -0.016629 -0.067125 -0.035241 -0.077987 0.039584 -0.003319 -0.008597 0.065777 -0.043107 0.051950 -0.089263 -0.108613 0.072688 0.116413 -0.049201 0.046753 0.061606 0.055778 0.026965 0.001702 -0.021639 -0.039367 0.039076 -0.059055 0.008888 0.014251 -0.052809 0.031167 -0.025454 0.109630 -0.101168 -0.011426 0.105812 -0.002097 0.060864 0.128474 -0.013029 -0.028558 -0.048120 -0.014617 0.044103 0.000489 0.062901 0.092619 -0.050148 -0.041212 0.051430 0.015636 -0.093330 -0.081717 0.134363 -0.063911 0.096705 0.024425 -0.043944 -0.027530 0.062470 -0.126475 0.062505 0.094647 -0.018184
4 -0.002372 0.042280 -0.012453 0.004260 -0.008981 0.032207 -0.005322 -0.029477 -0.033822 0.031510 -0.031535 0.013805 0.029648 -0.000548 -0.023741 -0.002062 -0.004864 -0.028253 0.010018 0.001252 -0.055436 -0.004079 -0.048208 0.028428 0.018290 -0.078488 0.011636 0.015831 0.022364 0.055721 -0.026485 -0.009564 0.019211 -0.039587 0.086199 -0.044249 0.044438 -0.050933 0.035005 -0.017436 -0.038092 -0.016583 -0.041323 0.020370 -0.005111 -0.007041 0.028904 -0.028726 0.020779 -0.048298 -0.057004 0.026415 0.066204 -0.026291 0.028788 0.026642 0.031240 0.005851 0.003923 -0.019057 -0.022203 0.031283 -0.036034 0.001111 0.000645 -0.026559 0.023857 -0.017507 0.062546 -0.060033 0.005224 0.055045 0.000684 0.034191 0.069232 -0.002969 -0.020829 -0.032937 -0.003406 0.025987 0.002524 0.032396 0.050425 -0.015964 -0.020188 0.029421 0.015499 -0.047705 -0.041470 0.071951 -0.040074 0.051732 0.018767 -0.028215 -0.022927 0.030503 -0.065508 0.039167 0.047437 -0.012464
7 -0.008148 0.050077 -0.013860 0.010015 -0.009443 0.044178 -0.004789 -0.046950 -0.051432 0.041907 -0.056635 0.013763 0.038074 0.001599 -0.015051 -0.015912 0.001678 -0.039650 0.023953 -0.001846 -0.074991 -0.005195 -0.061360 0.044516 0.019735 -0.113633 0.017834 0.008582 0.034135 0.092115 -0.031048 -0.027711 0.029516 -0.060265 0.124892 -0.051448 0.068817 -0.072838 0.055887 -0.035854 -0.042713 -0.042213 -0.061746 0.033190 -0.006223 0.004413 0.056498 -0.036078 0.023361 -0.058547 -0.083150 0.037362 0.106047 -0.017361 0.035936 0.056010 0.047764 0.020454 -0.008241 -0.030171 -0.040155 0.055379 -0.055830 -0.011329 0.004310 -0.050307 0.038704 -0.017992 0.087561 -0.078382 0.009596 0.081059 0.010000 0.040710 0.109201 -0.023419 -0.033559 -0.044833 -0.015449 0.030737 -0.001685 0.059309 0.064439 -0.014888 -0.020871 0.037598 0.024290 -0.074801 -0.060906 0.103395 -0.050416 0.073205 0.017371 -0.034266 -0.034136 0.050896 -0.089371 0.052620 0.073415 -0.015687
9 -0.007294 0.041222 -0.013596 0.011711 -0.004188 0.026832 -0.001215 -0.034948 -0.029672 0.021600 -0.032296 0.004556 0.027634 0.005402 -0.012716 -0.007903 0.003084 -0.020879 0.013394 0.002093 -0.054976 -0.009227 -0.048108 0.028734 0.015393 -0.074627 0.012627 0.011218 0.018213 0.051594 -0.026483 -0.013378 0.011066 -0.041480 0.082832 -0.031422 0.037010 -0.044486 0.035007 -0.013455 -0.034947 -0.027572 -0.041191 0.021548 -0.010295 0.000007 0.029890 -0.026293 0.013859 -0.046938 -0.057343 0.032550 0.058595 -0.023092 0.015324 0.026896 0.032186 0.010363 -0.001324 -0.015485 -0.019683 0.034670 -0.028323 0.002990 -0.001419 -0.035699 0.021773 -0.013636 0.062252 -0.053924 0.002948 0.058311 0.003051 0.033823 0.064303 -0.012889 -0.020713 -0.026778 -0.013188 0.022421 -0.002978 0.026730 0.052345 -0.021494 -0.018555 0.027330 0.013503 -0.053326 -0.034933 0.074454 -0.031298 0.044992 0.014779 -0.026877 -0.018073 0.038992 -0.063829 0.035086 0.043705 -0.007212
5 -0.007791 0.031756 -0.009309 0.004094 -0.004549 0.023679 -0.005027 -0.033008 -0.026954 0.021134 -0.028525 0.006882 0.018778 -0.004521 -0.015296 -0.009652 -0.001339 -0.028009 0.011062 0.009457 -0.041302 -0.005201 -0.034095 0.029926 0.014414 -0.075627 0.002247 0.004496 0.019338 0.051583 -0.016028 -0.017316 0.018643 -0.031937 0.081178 -0.033483 0.038699 -0.044283 0.026292 -0.015643 -0.030207 -0.016778 -0.037103 0.018413 -0.006600 -0.007317 0.036120 -0.024059 0.025968 -0.045509 -0.053810 0.030909 0.061944 -0.018968 0.017021 0.027656 0.030199 0.013731 0.001381 -0.019131 -0.027878 0.025887 -0.025656 -0.006927 0.008865 -0.024048 0.020183 -0.006049 0.054599 -0.055492 -0.000062 0.052800 0.005312 0.030085 0.065779 -0.010109 -0.019186 -0.023210 -0.005576 0.018992 0.004623 0.027678 0.047608 -0.021274 -0.013273 0.023526 0.014872 -0.048538 -0.041020 0.066639 -0.033963 0.050589 0.014600 -0.026980 -0.020382 0.026127 -0.060623 0.030364 0.038778 -0.016090
2 0.000912 0.053575 -0.018286 0.013284 -0.008406 0.046551 -0.012885 -0.046896 -0.051801 0.037847 -0.053851 0.015038 0.040768 0.000466 -0.017945 -0.017036 0.000688 -0.038690 0.023756 0.005413 -0.073602 -0.014587 -0.063991 0.035975 0.018234 -0.114257 0.006786 0.016634 0.031297 0.085818 -0.029486 -0.024401 0.024346 -0.053654 0.121317 -0.051982 0.064750 -0.077174 0.051535 -0.031389 -0.046146 -0.038824 -0.056360 0.020095 0.006063 0.003367 0.054028 -0.028849 0.024708 -0.063665 -0.083947 0.043292 0.101346 -0.016029 0.037084 0.052088 0.050733 0.017525 -0.008887 -0.033014 -0.039425 0.048816 -0.054282 -0.009062 0.013963 -0.043128 0.038502 -0.019969 0.080547 -0.078506 0.008604 0.074761 0.005687 0.040795 0.108936 -0.022432 -0.027344 -0.033379 -0.018333 0.032975 -0.001142 0.055498 0.064537 -0.019864 -0.022398 0.038980 0.016059 -0.078420 -0.056091 0.093782 -0.047127 0.078212 0.018171 -0.038109 -0.031665 0.048118 -0.079820 0.052678 0.075125 -0.023895
0 0.001614 0.036614 -0.001191 0.010047 -0.004984 0.028492 -0.009624 -0.029549 -0.028025 0.033807 -0.036928 0.012961 0.024418 -0.005183 -0.021243 -0.011593 -0.006524 -0.019828 0.018168 -0.003531 -0.054195 -0.011406 -0.047413 0.031077 0.012156 -0.072836 0.009447 0.015627 0.025830 0.063475 -0.021123 -0.015118 0.019058 -0.042077 0.084825 -0.036262 0.037302 -0.050312 0.036044 -0.013575 -0.035147 -0.020984 -0.040885 0.013518 0.003374 0.000074 0.031360 -0.022702 0.023721 -0.039520 -0.064505 0.039234 0.067010 -0.010763 0.024787 0.041109 0.032758 0.016434 -0.005912 -0.017172 -0.022833 0.034384 -0.031887 -0.000415 0.012010 -0.033198 0.023228 -0.012543 0.055304 -0.054138 -0.000853 0.053674 0.005570 0.027485 0.079479 -0.010399 -0.022720 -0.026950 -0.013496 0.025783 0.004636 0.040898 0.048102 -0.021622 -0.019780 0.031402 0.010977 -0.048606 -0.040105 0.072094 -0.033195 0.054239 0.013800 -0.023935 -0.020353 0.028316 -0.063409 0.028371 0.057083 -0.016436
  -0.001651 0.011422 -0.008983 -0.000804 -0.008117 0.000621 -0.003050 -0.011243 -0.008821 0.003799 -0.005098 0.006463 -0.000171 0.002085 -0.008831 -0.000509 -0.002150 -0.008794 -0.003938 0.000352 -0.005153 0.007439 -0.009366 0.009357 0.006794 -0.013505 -0.003515 -0.005002 0.002691 0.017842 -0.010825 -0.005470 0.008354 -0.005855 0.020814 -0.011204 0.010076 -0.005291 0.000892 -0.001819 -0.001488 0.001655 -0.009261 0.011646 -0.005825 -0.000613 0.014271 -0.009657 0.003721 -0.014083 -0.014982 0.006740 0.010483 -0.008351 0.006368 -0.000440 0.009512 -0.002077 0.000646 -0.001858 -0.009563 0.004071 -0.004428 -0.002854 -0.002194 -0.002836 0.009330 -0.001975 0.018421 -0.013053 0.005093 0.005418 -0.004700 0.012031 0.012247 -0.006618 0.000451 -0.007463 0.004919 0.007279 0.004256 0.009297 0.014130 -0.004906 -0.005826 0.008281 0.004892 -0.006259 -0.009206 0.015820 -0.012840 0.018844 0.001598 -0.007296 -0.007130 0.002592 -0.008714 0.010682 0.003115 -0.002915
6 0.000609 0.032813 -0.006692 0.012543 -0.006199 0.032926 -0.010829 -0.031312 -0.031074 0.024296 -0.039927 0.008371 0.030658 -0.003790 -0.013023 -0.015479 -0.003288 -0.031119 0.016034 0.005893 -0.047241 -0.009834 -0.039856 0.026139 0.012728 -0.080312 0.006202 0.004468 0.024486 0.062422 -0.019935 -0.015598 0.013024 -0.042349 0.085876 -0.033085 0.038994 -0.050845 0.034662 -0.018285 -0.036526 -0.025238 -0.043391 0.023329 0.002495 -0.001612 0.039098 -0.027432 0.022395 -0.046482 -0.054050 0.034339 0.070136 -0.020373 0.023604 0.041279 0.038261 0.016185 -0.007614 -0.017580 -0.025422 0.030449 -0.035054 -0.003270 0.012524 -0.027077 0.024393 -0.006682 0.052940 -0.049657 -0.003742 0.051449 0.003254 0.025345 0.075196 -0.018200 -0.022528 -0.031097 -0.007337 0.024300 -0.000665 0.033449 0.049944 -0.019984 -0.013080 0.026374 0.013372 -0.057749 -0.040603 0.068136 -0.037179 0.052572 0.011493 -0.025885 -0.015276 0.030599 -0.059004 0.035051 0.054570 -0.015886
